同辈竞争压力,0.005541988,-0.055859182,-0.011589289,0.119385086,0.026301317,0.023388622,0.026277103,-0.008900611,-0.040356573,-0.026770793,0.045995384,0.013023994,0.06072069,-0.010277063,-0.03937389,0.050164454,-0.019786326,-0.040395167,-0.012950527,-0.009203015,-0.0006449797,0.026635807,-0.065311216,-0.09558973,0.02922464,0.023527982,-0.008625401,0.0292064,-0.018511243,0.00019820282,-0.04130977,-0.02486249,-0.06225628,-0.0221305,0.0004107014,-0.014470674,-0.0056822025,-0.041588634,-0.009026809,0.06398166,0.0004284268,-0.01290575,0.031245146,0.033021294,0.061656073,-0.02468759,0.013989345,0.017429685,0.027749466,0.018538443,-0.03679085,0.028705863,-0.014489899,0.061247777,-0.025899014,0.025622083,0.010746234,-0.038092304,0.012082051,-0.015616492,-0.028824491,0.009609293,-0.027052678,0.09855834,-0.017547792,-0.0064276787,0.001648949,0.014853813,0.038967527,-0.03860613,0.016693225,-0.0068492633,-0.00095390825,0.018863041,-0.008877073,-0.026786994,0.030213872,-0.019678326,0.050174188,0.024573298,-0.0031286243,0.034008704,0.04216779,0.0031550364,-0.04752743,-0.010774916,-0.00396673,-0.025971033,0.025320042,0.04907585,-0.05745011,0.07315517,-0.007434552,-0.08595055,-0.0044788285,0.010452192,0.003346017,-0.03413389,-0.025109023,-0.0041682986,-0.012621098,0.026090449,-0.020867327,-0.023116255,-0.017181993,0.019798893,-0.09262157,0.015004005,0.022294542,-0.012188679,0.012617902,0.008399653,-0.016423818,-0.0020145378,0.024564669,-0.036811236,0.0014847971,0.009033917,-0.03802613,-0.026621552,0.021691067,0.06454858,-0.017204823,-0.026378233,-0.029461645,-0.011359191,-0.043457385,0.00014609561,0.009326093,0.0021155344,0.035839535,0.020064676,-0.022075243,-0.026335826,0.016522503,-0.03189464,0.025558574,-0.01962406,0.0067720637,-0.018392093,-0.008372363,-0.048307028,0.014617346,-0.055440817,-0.042396024,-0.057101276,-0.019638367,0.0253905,0.0103310635,-0.04114398,0.013183965,0.038929146,-0.011560826,-0.0036998764,0.018405966,-0.027133312,0.036757786,0.010028543,0.031630952,0.0053571896,-0.007387544,0.0115565825,0.025136342,-0.03446506,-0.0073801414,-0.023090461,-0.028059797,-0.025689092,0.01702993,0.026788533,-0.043955326,0.026477477,0.03014101,0.05824665,0.004027375,0.022423849,-0.039290845,-0.01620014,-0.0117273,-0.01650456,-0.00928931,0.0018615611,-0.008383619,0.015193502,-0.026979918,-0.0032387078,0.037165377,-0.003596728,-0.006269994,-0.022161242,-0.058237676,0.01450894,0.0010023363,-0.011141501,0.013970529,-0.009120502,0.0071287663,-0.03581736,-0.02310076,-0.023973418,-0.012610974,-0.021298945,0.03128646,0.019810714,-0.0010523151,-0.00821101,-0.033323202,0.021955319,-0.0034058534,0.015046227,-0.023939025,0.011086098,-0.02205299,-0.007841726,-0.027614772,-0.0013754866,0.0033821857,-0.0016219631,-0.039212942,-0.023628065,0.050880972,0.00015094037,-0.050006956,-0.025292262,-0.044645194,-0.03620748,0.010559686,-0.0041113435,0.017690731,-0.0024876269,-0.009100515,-0.011127011,0.02453592,0.0033254263,0.06760223,0.009969431,0.026334438,0.0030946585,0.013792217,-0.026229555,-0.026196424,-0.0075415685,0.006866884,-0.002664487,0.0073500164,0.03768734,0.023643468,0.0027275577,-0.020172805,-0.009509767,0.03782561,-0.061169885,0.019192785,-0.016920723,-0.010694094,0.027050821,-0.0009929739,0.020244272,0.0015473671,0.011064456,-0.028989926,-0.031250574,-0.012069399,0.013595724,0.105425976,-0.0090789925,-0.002013933,0.0049407384,-0.040534157,-0.019180886,-0.048937712,-0.0042595672,-0.002046538,0.0069644637,-0.026295613,-0.022547103,0.026822222,-0.0030216454,-0.013502318,-0.017731268,-0.06878755,-0.0055836546,0.030153671,-0.009363982,0.036699172,-0.010632186,0.048365254,-0.023106474,0.0053486177,0.008489989,0.018211678,-0.032945808,-0.01719286,-0.045396857,0.021877019,-0.003924529,-0.019276807,0.07357155,-0.05765681,0.023573628,0.09521115,-0.0034581125,-0.002196843,0.027997134,-0.049227312,0.0026760115,0.013636481,-0.028697118,-0.006847335,0.04642723,0.013981202,-0.011955228,-0.007144455,-0.0001755496,-0.013817875,0.010573862,0.020771671,0.0037266416,-0.0109698335,0.03302115,0.0006444873,-0.034218557,-0.046736553,0.011200203,0.026146226,-0.0038334928,0.019007504,0.0043692538,-0.001382937,-0.044220988,0.02283839,-0.025018085,9.57442e-05,0.033846512,-0.051825114,0.03296115,0.0036272807,0.066593036,0.0044254735,-0.013028537,0.006643459,0.013100242,0.0054136897,-0.06569794,-0.02601374,-0.056990296,0.043279763,-0.006961985,0.003781521,0.0104396865,0.044157587,0.028413119,0.019056046,0.013787237,-0.082517296,-0.037173785,-0.0517517,-0.0014745843,-0.016294673,0.009996923,0.038200766,-0.0572042,0.03260763,-0.055225376,-0.06105677,-0.021008793,0.006277407,-0.06678522,0.029713098,-0.010664728,0.0010751487,0.024710622,0.029657386,-0.018638492,-0.012671631,0.024024535,-0.0023419508,0.035931297,1.693035e-05,-0.010986036,0.055269472,0.018370027,-0.0031227416,0.021595614,0.03881041,-0.051119093,-0.03289243,-0.026229454,-0.009504337,0.02039906,0.040383533,-0.057199273,0.014426389,-0.03616862,-0.0069890223,-0.02435022,-0.09444076,-0.090843834,-0.03287297,-0.045951203,-0.0065043503,0.02341065,-0.03804526,-0.028231777,-0.00061236916,-0.012209039,-0.024012387,0.03331624,0.025056401,-0.014239971,0.013703509,0.013352113,0.005151993,-0.020708097,0.014878718,0.010526662,0.11125194,-0.011014846,0.017661085,-0.025842879,-0.033803217,0.07193875,-0.0264859,-0.0030818433,-0.011761516,-0.012147704,-0.043766595,-0.04705633,-0.04865479,0.028946808,0.0013963511,0.0030194016,0.041397776,-0.0068839407,0.06518041,-0.003640219,-0.020738516,-0.01802459,-0.030469935,0.013353674,0.0034062057,0.058672685,-0.02915863,-0.012991523,-0.03587202,0.024637695,0.042022727,0.02190325,0.012070472,0.028513676,-0.0024646986,0.014449543,0.03772889,0.032315016,-0.05108797,-0.0110959755,0.00022947667,-0.038969398,-0.002727931,0.035017252,-0.107846126,0.007885695,-0.03679185,-0.0448119,0.044844232,0.039375026,0.021493353,-0.009377953,0.053660594,-0.0028246553,0.03657299,0.025004208,0.036226068,0.018274084,-0.02355792,0.012377479,-0.020265538,-0.07450206,-0.04546116,0.016160032,0.055547945,-0.0026560212,-0.043670107,-0.025726132,-0.005705792,-0.025528058,-0.024181096,0.009831461,-0.02213814,0.022260573,-0.015851017,0.048095163,-0.008576642,-0.027503796,0.026795859,0.05839517,0.016186481,-0.034878217,-0.06770952,-0.019254362,-0.029026447,0.03623506,-0.024190323,0.00205877,0.012179592,-0.00041497665,-0.022753872,-0.028247185,0.037553906,0.013210201,0.022261456,-0.04926422,-0.00039117623,-0.028558714,-0.047821548,0.06268569,-0.0045256885,-0.003043271,0.038070362,-0.023338553,0.020101076,0.055619515,0.004702454,-0.0051720226,-0.009079035,0.024821175,-0.02103598,-0.010909785,-0.003942606,0.009468898,0.016703915,-0.018217452,-0.015937792,0.012633702,0.014722926,-0.029274227,0.032496836,-0.017967654,0.05169794,-0.04117298,0.030280648,-0.04391145,-0.0033709568,-0.03995033,0.008921623,-0.008703522,-0.00070078316,-0.0017893922,0.05806305,-0.015125847,-0.019105569,0.00040588307,0.055037614,0.032151464,0.010910856,-0.0036450096,-0.0016657115,-0.0038979691,-0.0084291315,-0.08271377,-0.0016735106,-0.048911065,0.03714918,-0.006538032,0.034277722,-0.02483587,0.029052243,-0.02994782,-0.007227256,0.028310113,0.016403325,-0.034818698,0.014723942,0.04457319,0.0317695,-0.07655269,-0.010810806,-0.061451025,-0.001564786,0.028249715,0.018586721,0.041860353,-0.028318724,0.02205701,-0.07243833,-0.029353168,0.011265856,0.010519429,-0.017767902,0.015366275,0.011880424,-0.016828207,0.026237551,-0.018403536,0.04292263,0.007751279,0.0448455,0.010890216,-0.029117392,0.0022151486,-0.054792754,0.049610075,0.030223913,-0.0026963376,0.047257554,0.046612144,-0.057005122,0.07594023,-0.015225991,-0.007877552,-0.0023243295,0.044324953,-0.04945044,-0.04761108,-0.015750369,0.008509916,0.0029342342,-0.05532715,0.015448697,-0.023298096,-0.009047638,-0.015825676,0.012902325,-0.021322977,-0.027844518,0.030628555,0.023158439,0.001441008,-0.018358335,-0.02283917,-0.07225064,-0.0021580255,0.015928974,-0.023617836,0.0345388,0.023490982,-0.061044138,-0.019123264,-0.015022784,-0.042002328,-0.010823295,0.00626457,0.014964129,0.019704588,-0.018679742,-0.015715713,0.06477291,-0.025458535,0.005880719,-0.013843424,-0.034395393,-0.00925991,0.0015868441,0.023247037,-0.022963366,0.037608594,-0.05230069,-0.016751168,-0.039669953,-0.0033995877,0.04510022,0.0008981037,0.03240304,-0.040924307,-0.013944525,0.0054874243,0.0020086395,0.039762784,-0.019762877,-0.0024688586,-0.024360616,-0.02600329,-0.015836189,-0.02816852,0.01987912,0.0006500595,-0.03498781,0.0053269467,-0.0065088104,-0.061760586,-0.0123579,-0.017135544,-0.046706676,-0.023515478,-0.0045609903,0.00755686,0.005725863,-0.024276804,0.03874873,-0.009440443,-0.016683424,-0.0030700923,-0.0026221005,-0.021731975,-0.021370478,0.00087907165,-0.03701943,0.036394842,-0.01236493,-0.010113928,0.04005662,-0.012387145,0.0033930573,0.038369708,-0.056360234,-0.046557184,-0.047254756,-0.033026274,-0.03570448,0.042204868,0.026130782,0.0045010922,-0.009150736,-0.03169961,0.0029586547,0.03870783,0.07742345,-0.05653737,-0.036131687,-0.06622884,0.020643445,-0.032027915,0.077638276,0.0069032256,-0.0052743754,0.026609639,0.04125809,0.028224647,0.022236224,0.010134574,0.0040719453,0.0018512805,-0.01933018,0.03302373,-0.009330934,0.031939365,0.026347086,0.00159262,-0.029670406,-0.013417654,0.010151178,-0.004270684,0.026564734,-0.032633148,-0.012128184,-0.015420997,0.021960322,0.057834707,0.06575297,-0.019891376,0.0021377578,-0.00024306242,0.027793564,-0.0103899585,-0.011777231,-0.045482047,0.0048472816,-0.01890163,0.008744445,0.08257041,-0.032137565,-0.053391982,0.0011956762,0.00079571607,0.0072113127,-0.06429183,0.00096495776,-0.053748574,0.017122367,0.012484803,0.030682607,-0.0163248,0.009966916,0.059605163,-0.00782158,5.181952e-05,0.022158366,-0.005488273,-0.083190225,-0.0076851626,0.05541455,-0.018950272,0.027582636,-0.0019005156,-0.033135258,0.0049096965,0.03911369,0.01127891,-0.014216333,0.024720598,0.034274373,-0.013997521,-0.00096405135,0.025251897,0.029920911,0.031921655,0.019176483,-0.00094753207,0.026914395,-0.010582536,0.038119156,0.04719048,-0.0039854352,-0.020539647,0.016716732,0.0040131533,0.045144863,0.015795136,0.027074065,0.010575458,0.019610569,0.019406695,-0.03541801,0.030145358,-0.025199337,-0.02596346,0.0032943918,0.03222734,0.024312856,0.041064307,-0.023910623,0.054114938,-0.012239366,0.039604414,0.032396886,0.030734153,0.015555174,-0.04084931,-0.06672948,-0.06705533,0.013599989,4.7666563e-05,-0.02685939,-0.000107227075,-0.010527299,0.040611062,0.021376621,-0.024573078,0.025459334,-0.034109034,0.030951606,-0.0177957,-0.008073688,0.005857966,-0.015563079,0.011469994,-0.029634694,0.06053902,-0.033172686,-0.01097566,0.009313171,0.019209418,-0.031630635,-0.0066820094,-0.03277791,0.004018235,0.042555295,0.059188366,-0.029324112,0.041200344,-0.017065251,-0.035635445,-0.034003537,0.032574825,-0.03798662,0.0005178289,0.014831582,0.02075771,-0.023852617,0.0086103985,0.0037869208,-0.04800143,-0.039144374,0.003723282,-0.013524892,0.022814736,-0.020682277,-0.019275067,-0.014413601,0.060988195,-0.032012686,0.018610356,0.02144869,-0.031612985,-0.026207078,0.019844666,0.0136736445,0.033201102,-0.005737462,-0.00024063916,-0.013847746,-0.04018608,0.01664281,-0.043282103,-0.049273532,-0.026256679,0.004168017,-0.028907288,-0.037626013,-0.03839634,-0.02290341,-0.043099735,-0.03679197,-0.02375512,-0.016433515,0.0072481325,0.003496272,0.016158318,-0.052269313,0.03595647,0.0070334948,0.034369726,-0.014250158,-0.04657886,-0.025176398,-0.014543283,-0.021152742,-0.03320568,-0.047732152,-0.0005190432,0.0001279181,0.02973219,0.00992232,-0.047272276,0.0022394417,0.039158866,0.06665918,-0.06274169,0.02350068,0.0053610858,0.045328405,0.067592785,-0.040118977,0.034972172,0.0012895016,0.013668301,-0.039809994,-0.010456313,-0.0006420095,0.019771893,0.017489225,0.03217448,0.011739186,-0.024312727,0.033446632,0.02486726,0.043491103,-0.010403006,0.027758395,0.012679928,0.028402476,-0.035718735,-0.0022360627,0.07622681,0.036953066,-0.008336679,-0.05777501,0.044111658,-0.04838361,-0.0037033043,-0.00856853,-0.04488151,0.025598776,0.012268006,0.042150266,-0.03444843,0.019056767,0.010972891,0.022488581,0.025846401,-0.027900837,-0.009887758,-0.034408305,0.030343033,0.016147178,0.005956848,-0.013202428,-0.020707851,-0.02620252,0.024498329,0.027331462,-0.031591557,0.016019005,-0.023870943,0.0069613387,-0.01272466,-0.039031215,-0.022506172,-0.03923854,-0.045257296,-0.0075893863,0.019506004,0.006309532,0.011727144,0.029816752,-0.01156167,-0.030782979,-0.0031672155,-0.018890312,-0.04585593,-0.009026301,-0.003386711,-0.0038356367,-0.00377175,0.037630703,-0.014909699,-0.038676932,0.016915377,0.021577025,0.0033232162,-0.031715848,-0.001780602,0.043199323,0.0025966866,0.021461012,0.0010398597,-0.030922273,-0.01965422,0.022717658,0.03523262,0.024168847,-0.024263784,-0.0009224137,-0.04019603
自我要求过高,-0.030194962,-0.03089802,-0.011568519,0.034675244,-0.004940079,0.013388068,0.034758974,0.0014134668,-0.028283602,-0.032138538,-0.014630165,-0.03253649,0.013171821,-0.0084989155,-0.037145086,0.030188432,-0.009329609,-0.033308577,-0.020481257,-0.027528934,-0.009059081,0.021673298,-0.08604427,-0.06685344,0.07642571,0.027957715,-0.020586949,0.08109547,0.07705562,-0.04297602,-0.10093826,-0.010407079,-0.072035044,-0.058236178,-0.030473938,-0.013987975,-0.051745296,-0.018163202,-0.014936753,0.041608717,-0.05179917,0.01584617,0.10020809,0.04819013,-0.07155492,-0.05202977,-0.013533733,0.012517826,0.032038268,0.023576308,-0.028927287,-0.020114135,0.023611046,-0.004061042,0.015600401,0.008876361,0.024402251,-0.047032386,0.03277822,-0.002516869,-0.069730975,0.04668936,-0.016989635,0.028092144,0.016115092,0.01930418,0.024283817,0.003274716,0.006788646,-0.032040138,0.023328956,0.03409422,-0.001503562,-0.0058696717,-0.0034328224,-0.011476502,0.04675385,0.000270557,0.020305032,0.014059426,0.0060646147,-0.029988138,-0.016033923,-0.035165142,-0.016797544,0.03938575,0.059664365,-0.017793862,0.04457719,-0.005444557,-0.037976243,0.06302368,-0.022440543,-0.041048616,-0.021275785,-0.031551782,-0.032363754,-0.07090719,-0.007815222,0.02786038,-0.019127501,0.02983063,-0.030902345,0.008255631,-0.06846842,0.025515905,-0.062494885,0.047771856,0.011419858,-0.025369635,0.019183705,0.0040834993,0.0036515566,0.012847792,0.06250143,-0.021758998,-0.016203742,0.003845501,-0.02086439,-0.019119062,-0.02064488,0.0665682,-0.0019655114,0.010202328,0.010394195,0.0020643282,-0.019250745,-0.0015617285,0.016014505,-0.01719829,-0.009608456,-0.0054349685,-0.0010104942,0.03809494,-0.004786959,0.03392247,0.012514637,-0.019127259,0.002015733,-0.0154142175,0.022113763,-0.025054382,-0.0011187491,-0.043667354,-0.023356618,-0.020168465,-0.034953725,0.0103419665,0.010782347,-0.007932452,-0.030368328,0.032969147,-0.039361823,0.015093563,0.02227489,-0.019693093,-0.0037446101,0.00671667,0.03517024,0.0032811323,-0.0027675861,-0.0072402693,0.004846277,-0.05439582,-0.038086087,0.021936374,-0.015223622,-0.029759115,-0.036012102,-0.013659288,-0.029578438,0.02399895,0.012642844,0.020841999,-0.00042347604,-0.052773815,-0.024707705,-0.03337906,0.0060782563,0.009865955,0.017364586,-0.008800413,0.004888655,-0.0044685816,-0.008513659,0.025236933,0.010320598,0.03290564,7.3822564e-05,-0.018119747,-0.0012469321,-0.009646015,0.013783899,-0.013610375,-0.011646554,-0.000406346,0.073251374,-0.0076903417,0.004631253,0.007955068,-0.020294983,-0.06448985,0.038992595,-0.004794135,-0.027344944,-0.041405354,0.03311642,-0.0091185635,-0.04497894,-0.032575008,-0.017481472,0.019776719,0.048535112,-0.050004292,-0.0014643914,-0.016551748,0.0029128331,0.04315973,-0.017788656,-0.0010766404,0.050146982,0.012342871,-0.049086526,-0.0020634457,-0.020207353,0.00174067,0.015019968,0.0022208523,0.0064138235,0.014517543,0.0014851694,-0.020609524,0.0004485579,-0.015087781,0.046738658,0.020789916,0.02100323,0.0725254,0.022024961,-0.0410305,-0.0027732952,0.0016773228,-0.0046042153,0.009837843,-0.021160956,0.013528438,0.0009834538,0.005566148,-0.04002621,0.0047161346,0.028915683,-0.09954898,-0.042300876,-0.02011301,0.0017287491,0.032666788,-0.024931123,0.07141225,-0.028186055,-0.00016580307,-0.036865976,-0.04299787,-0.024623118,0.007917081,0.104654625,0.006695954,-0.012992521,0.030935675,-0.010973877,-0.040290516,0.00022270367,0.008379813,0.034225535,-0.008199683,-0.035617217,-0.03426868,-0.014897163,0.0112664215,0.008535805,-0.009665424,-0.07991956,0.010187662,-0.015784614,-0.03710207,0.024963954,0.008377685,0.0095591685,-0.006930998,-0.040384002,-0.012358573,0.053221174,-0.036476247,-0.0015637502,0.051351864,0.024885472,-0.05467376,-0.011915202,0.038282026,-0.033368643,0.010142787,0.08468432,-0.037347052,0.0008349257,-0.012066353,-0.08583201,-0.017011203,-0.0153138945,0.03485017,0.022455046,-0.012693175,0.030118689,-0.02452907,0.0015849585,0.011218874,-0.066273734,0.01691349,0.0034628294,0.016595082,-0.00028148966,0.0006623735,0.012215719,-0.019679831,-0.015824359,0.04238615,-0.029469933,0.047713492,0.02112432,0.006417959,-0.006585549,-0.044720564,0.04364483,0.008103171,0.013077315,-0.0022234612,-0.0018488751,0.036612216,0.004396303,0.018153679,-0.002877672,-0.04856573,-0.023340423,0.012570314,-0.012654889,-0.058613032,-0.029002117,-0.057764903,0.036483794,-0.008294074,-0.013306868,-0.018820357,0.023854354,0.00085745443,0.021127507,0.015641285,-0.01776958,-0.019573912,-0.04229703,-0.019366821,-0.032219622,0.034306247,-0.015151658,-0.060819272,0.059216823,-0.045772787,-0.07133743,-0.026180409,-0.018723583,-0.042998068,0.0060281907,-0.03579941,-0.054477625,0.07215685,0.026182722,-0.02687453,0.0028981124,-0.03684115,-0.0037806355,0.008909196,-0.0026433375,-0.059030756,-0.033494562,-0.014257583,-0.0006848337,0.027270649,-0.027572721,0.017551567,-0.0018010996,-0.03129144,-0.027517233,0.008868084,0.058651544,-0.026391594,0.027107874,0.0067345863,0.03391804,-0.031912077,-0.0693305,-0.02964965,-0.017804055,-0.0640323,-0.015066619,-0.032642487,-0.06310728,0.05302734,-0.022871656,0.007937144,0.010860496,0.0055020256,-0.029083243,0.012948956,0.04054029,-0.022512216,-0.032547295,0.01017925,0.07460043,0.027381191,0.1193896,0.009826614,0.0006848961,-0.0051477854,-0.032793444,-0.00019883699,-0.041970752,0.0026820723,-0.011753059,0.024629615,-0.029736802,0.016176287,-0.056205742,0.010026714,-0.031189015,-0.039301757,0.051652446,0.03548817,-0.0041720187,-0.012642176,0.056522846,0.022119733,-0.011217726,0.032163087,0.017469995,0.07867733,-0.037853286,-0.0074457084,-0.020411575,0.0077318903,0.0005963242,0.0019677368,0.0075005484,0.020890888,-0.006627452,-0.014798572,0.022825895,0.015224934,-0.018491648,-0.048371144,-0.026656488,0.05358189,-0.02304569,0.019750938,-0.031742167,0.00025115648,-0.019104384,-0.045470543,0.013011713,-0.0040549394,-0.005345223,-0.00981346,0.029626636,-0.03759272,-0.008583976,0.0038245104,0.07033589,-0.020450443,0.029033076,-0.0010932334,-0.02430012,0.0074443263,-0.024738856,0.050497275,-0.041740205,-0.00744409,-0.05261911,-0.043869477,0.01912985,0.0026838214,0.016604804,-0.028602121,-0.011574527,0.11677786,-0.018927213,0.0035590609,-0.009525092,-0.034644753,0.027988877,0.001969703,-0.005457247,-0.023854468,-0.03574243,0.009756757,-0.047558807,0.0011552102,0.033445034,0.03629988,-0.0036780722,-0.050832704,0.012610515,0.009145915,-0.028525395,-0.028131045,-0.015254126,-0.037140984,-0.023462333,-0.0019391226,-0.044705834,0.010434954,-0.065026745,0.002765065,0.053511847,0.02584875,-0.0028870278,0.020185709,0.013549275,-0.011462875,0.011959523,0.0536025,0.011516744,-0.09015525,0.019293044,0.016239073,0.04551936,0.02116465,0.0002605509,-0.0038910655,0.03735555,-0.015710836,0.028942069,-0.015370262,0.045423668,-0.07013764,-0.0036384426,-0.061093375,0.025587048,0.001379849,-0.028871823,-0.009540296,0.022508265,0.0035732074,0.06462047,0.04329002,-0.002366334,-0.019075409,0.027579455,-0.023035228,0.008529212,0.022063566,0.01256955,-0.013696931,-0.0020375215,0.0026059034,0.013214212,0.026919741,0.06604434,0.04012583,0.013451571,0.0034215644,0.043453284,-0.010956072,-0.074896984,-0.018637931,0.005771725,-0.039364386,0.008920077,0.014838039,0.0259285,-0.04711307,-0.041274127,-0.005939724,0.040835433,-0.01496766,-0.036969762,-0.017088164,-0.06097205,-0.009347856,-0.053795956,0.05598771,0.044228338,0.040870983,0.024950594,-0.03936606,-0.0022043134,-0.047541693,0.04013989,0.011472752,0.0019295729,0.013501344,-0.024327269,-0.012858248,-0.03534539,0.02102963,-0.014730382,0.058390383,-0.032909114,0.04173688,-0.002799711,0.027189264,-0.030332923,0.049412258,-0.01829692,0.05138181,-0.026054047,0.015173027,-0.046416722,0.004092025,-0.01173436,-0.004522297,-0.033164345,0.009487224,0.002293847,-0.039054062,-0.032657027,-0.01700508,0.00062987563,0.013902394,-0.052524276,-0.011362534,0.030586762,-0.024029743,-0.019390425,-0.00017186864,-0.062036023,-0.0004619418,-0.016826974,-0.03988351,0.03595145,0.042248193,-0.010932055,-0.04379093,0.01370784,-0.04179809,0.033341818,-0.052758865,0.009305732,-0.0031756687,0.0007287127,0.039316386,0.0631926,-0.016975682,0.012978014,-0.03824062,0.03883971,0.0045706574,-0.010881473,0.010059187,-0.025771556,0.029574089,-0.012647372,-0.036943875,0.03282664,0.031287868,-0.028737705,-0.017740075,0.009330524,-0.00039403353,-0.0009249517,-0.0021221023,0.017364224,0.022626797,0.0077966233,0.022797365,0.036345683,0.007369036,-0.08494546,-0.007052282,0.015171974,0.000582864,-0.038715888,-0.024143267,-0.03217324,-0.051780846,-0.023743434,-0.02909999,0.007884774,-0.012564406,-0.03397388,-0.042839836,0.01584027,0.028553631,0.044880982,-0.039033815,-0.044048365,-0.0027514787,-0.022000799,0.003908917,0.006738103,-0.001502939,0.012236832,-0.016505765,0.0012878223,-0.015650664,0.030212702,0.009266722,-0.06743717,-0.003998729,0.001223968,-0.03957529,-0.07371923,-0.04751477,-0.0017371357,0.02447827,-0.018088818,0.013887359,-0.02171699,-0.063916504,-0.011653932,-0.016934589,-0.020810544,-0.039849527,-0.00024904427,-0.0106141735,0.015187114,-0.03252003,0.029994354,-0.0010012656,-0.0270917,0.0037753093,0.07254005,0.030868014,0.01802058,0.012513878,-0.0006973845,-0.023530468,0.040032264,0.028586304,0.014744964,-0.007917293,0.03856754,0.029891271,0.035681278,0.015693452,0.053671073,-0.041360807,-0.019435212,0.016281493,-0.013995411,-0.013341078,0.021961985,-0.028965944,0.049500167,-0.012340014,0.0015675314,-0.018039363,0.02949712,0.006302892,-0.009875674,-0.028790994,0.001315413,-0.0011963061,0.0011161031,0.056625478,-0.0007346909,-0.04318383,0.01661746,0.04274013,-0.015411052,0.001671459,-0.011856192,-0.021654883,0.061208904,0.03790786,-0.011465466,0.017204836,-0.009914018,0.04717431,0.035142023,-0.029473953,-0.017391626,-0.011211962,-0.0028590357,-0.014589344,0.040560145,0.0016246749,0.042289957,-0.0146531565,-0.059214715,0.002018414,0.025155785,0.06408018,-0.007474906,0.07212569,0.021714773,-0.03040497,-0.00038368435,0.07650721,0.003118547,0.028340446,-0.052248955,0.034839418,-0.014987599,0.051027987,0.011383011,0.013623747,0.03624359,0.025875142,0.038037695,0.04184009,0.013586366,0.022699809,0.0016376608,0.04003943,0.0002469334,0.04032495,-0.014114747,0.037739713,-0.014931476,0.04829881,-0.05269186,-0.01459588,0.076223575,0.0023003656,-0.022368964,0.010045825,-0.03143473,-0.011407428,0.022581484,0.06045304,0.05216699,0.011243583,-0.017441334,-0.003302131,-0.039361965,0.012973502,-0.0071051545,0.030338861,0.048158474,0.020971583,-0.0020183844,0.018859776,-0.008878346,0.0015938372,-0.021661079,-0.036845226,-0.011925389,-0.022973297,-0.01664702,0.039494228,-0.010202435,0.07157456,0.0042172507,-0.011799948,-0.012744993,-0.020147452,-0.0110121,-0.015876276,-0.020547176,0.0027522645,0.050815336,0.036819678,-0.00022342679,-0.009161634,-0.040252984,-0.04657041,-0.025787728,0.0019360009,-0.0524461,0.022942217,-0.013632061,0.02350007,0.028037263,-0.0018078239,0.004671127,-0.013781311,0.0016082202,0.046195976,-0.019572867,0.03713977,0.025140611,0.024884604,0.017107233,0.03527257,0.0016888542,0.0093535185,0.030783786,-0.027542483,0.011671098,0.009510054,0.0062340647,0.017030183,-0.009588948,-0.01711909,-0.04902335,0.00016901374,0.0103936205,-0.013180958,-0.017600346,-0.008556998,0.0065338495,-0.003170036,-0.03228841,-0.041318063,0.0013730964,0.024560526,0.02950897,-0.054584503,0.035987888,0.028923145,0.032217618,-0.008095463,-0.0487767,-0.0133777615,-0.027429506,0.022152303,0.024266958,-0.043994993,-0.05145583,0.019709544,-0.038181067,0.006510354,-0.037953652,-0.028865278,-0.0015873922,0.019650541,0.07214761,-0.006928406,0.014439887,0.013331431,0.045396347,-0.031722266,-0.018517628,0.047667187,0.04812555,0.016472796,-0.0034110257,-0.010641231,0.011010102,-0.026740918,-0.021462923,-0.0024212266,-0.04655624,0.019643184,0.019074632,0.0024399878,0.055544738,0.03740439,0.007835602,-0.039450835,0.010947285,0.016961027,0.057648495,0.012673784,-0.038241856,0.008145825,0.031927448,-0.0075965896,0.027367743,0.025727471,-0.0111055765,0.034977395,-0.0027665854,-0.023122255,-0.0024043678,0.0024077015,0.03473101,0.009603828,0.05005537,0.0026277371,-0.0037682003,0.04716099,-0.010757967,0.002493698,-0.0014552334,0.015718075,0.042700093,0.020267438,-0.002995526,-0.00037818193,0.029488904,0.023521794,-0.010136405,-0.009991944,0.020934721,-0.0017755306,0.02217888,-0.03268702,-0.027558083,0.03052591,-0.030315995,-0.036070973,-0.011640989,0.003160347,0.041438106,0.05428539,-0.020638451,-0.016717741,-0.024592038,0.018310275,0.021846723,-0.017284915,-0.006121031,-0.013611512,-0.006369347,-0.012221841,0.022372773,0.0034517974,0.0069379928,0.0012817555,-0.011275382,-0.0048850277,-0.012716727,-0.018270051,-0.01925294,-0.043874953,-0.010699276,0.004489144,-0.010528582,0.0012633515,-0.040500768,0.015868701,0.0072282255,0.014647223,-0.010700899,-0.005470552,-0.025132824,-0.017819181
优绩主义内化,-0.0049752956,-0.07391987,-0.015162698,0.03419583,0.016945599,-0.01745018,-0.019374428,-0.016347341,-0.0037551702,-0.022172932,-0.030967092,-0.04035376,0.023202911,-0.015028137,-0.06009521,0.034921426,-0.07203928,0.040953644,-0.07135902,-0.086561225,0.012973301,-0.012170645,-0.07644063,-0.054333862,0.012050411,0.008405593,-0.039224748,0.08264058,0.044938903,-0.0067896,-0.05790064,-0.03319824,-0.03348593,-0.056580264,-0.012951877,-0.02241015,0.014876512,-0.022886978,-0.021350993,0.06415491,-0.051439058,-0.01699057,0.006352062,0.053862743,-0.031109646,-0.06413404,0.010267507,0.0019437367,0.09453714,0.045165524,0.011011982,9.038034e-05,-0.031818755,0.006789859,-0.0049818405,0.007785288,-0.00092013535,0.033392362,0.0022776548,0.00031043252,-0.022786176,-0.005135075,-0.06463293,0.0012483943,0.0030388404,0.016651066,0.010546498,0.0064975815,0.02000427,0.005500682,0.017162593,-0.027277607,-0.010198991,0.0030913989,0.024107406,-0.035213895,0.04965933,-0.058182713,0.033423238,0.029048268,0.01809554,0.013979066,0.011667079,-0.026507352,-0.03174656,0.046609845,-0.007879742,-0.024224814,0.013951091,0.024903232,-0.026058849,0.08855861,0.010112176,-0.0048201308,-0.06736303,0.0025301818,-0.0061428207,-0.038749054,-0.02140921,-0.017892472,-0.026248483,0.050524034,-0.057961762,0.013727759,-0.0009811781,0.058849823,-0.061652176,0.014549753,0.027643187,-0.025007535,0.014184469,-0.0061450237,0.052718155,-0.0012992725,0.044773106,0.030509664,-0.03352473,-0.0053413995,7.826562e-05,-0.03297895,-0.0443698,0.05382415,-0.011411773,0.013291538,-0.05999083,-0.0028373778,-0.025475396,-0.007953299,0.009138301,-0.01637821,-0.0150949415,-0.001185623,-0.023653667,-0.0074612238,0.022781944,0.023185035,-0.00029939346,0.015952036,0.025855476,-0.03737792,0.05939239,-0.038557958,0.005993957,-0.038130738,-0.01705179,0.009523145,0.0002280017,0.0126220705,0.027326617,-0.035068642,-0.013443063,0.01567255,-0.019367618,0.007834939,-0.020492757,-0.023934599,0.019380482,0.0039973166,0.04716706,-0.028240005,-0.014656178,-0.0097977305,0.014697123,-0.034282405,0.008844624,-0.005182399,-0.009285086,-0.050137755,-0.014169213,-0.008299932,-0.03133513,0.004998664,0.0037202404,0.018769687,-0.0020334607,-0.0066740215,-0.040131338,-0.029832967,-0.033183824,0.0131444605,0.027539877,-0.015912516,0.004549821,0.012963792,0.025152644,0.047240194,-0.0051041907,0.025063602,0.016530497,-0.013358105,-0.05181726,-0.010401019,-0.00866709,-0.016141592,0.008633607,0.00041868977,0.011930191,-0.02670488,0.012550548,-0.0052158306,0.0045384085,-0.045965113,0.01034501,-0.007716757,-0.012420574,-0.008358855,0.023437997,9.683414e-06,-0.013760935,-0.043819025,0.0005356701,0.020054745,-0.00086529827,-0.02263623,0.015459905,-0.04903606,0.006357788,0.03941362,-0.03573171,0.027028782,0.03620956,0.005512098,-0.0071991966,0.022686165,0.002950307,-0.007489524,0.0016927993,0.049746815,0.046771422,0.0089445505,0.0026840956,-0.023041682,-0.019098187,0.015596882,0.050947405,0.0335579,0.024163859,0.038940612,0.026629847,-0.07546514,0.021043181,-0.017018026,-0.0011654635,0.0076475167,-0.008065141,0.007043689,0.016726922,0.012843089,-0.02571568,0.025188847,0.01972203,-0.07744438,-0.019649776,0.013596041,0.014220341,0.002438475,-0.004272483,0.03541875,-0.0075142533,-0.005839946,-0.011712497,-0.02839266,-0.021076532,0.026709663,0.07382114,0.0031163672,-0.012977397,-0.0013205644,-0.012750379,-0.023067627,-0.040745992,0.02815036,-0.013645881,-0.030936643,-0.030384727,-0.0064339717,0.0065293554,-0.027996462,0.03422847,0.017772984,-0.035872187,0.0052535413,-0.01091746,0.012022497,0.0007747807,0.0016097475,0.030579487,0.01589022,-0.019146118,0.012484598,0.009577367,-0.048535284,-0.017087989,0.054040026,-0.012871707,-0.07381536,0.029125122,0.07289635,0.0017958073,0.040092185,0.08590046,0.001620724,0.031427313,0.016237075,-0.005546981,0.00797304,-0.056727313,-0.00026951206,-0.021647155,0.024623536,0.075214915,-0.03648302,-0.0066821813,0.016503846,-0.029446919,0.024521714,-0.02009528,-0.008655364,-0.014016377,0.061315037,0.028217671,-0.060214005,-0.045523632,0.05772479,-0.013147926,0.068093516,0.019168261,-0.0076912567,0.027573625,-0.06331577,0.008753831,-0.022053508,-0.016977591,-0.007879114,0.040916108,0.07352872,0.024374228,0.046339314,0.012143913,-0.008230042,-0.02398514,0.03718806,-0.016688725,-0.041817576,-0.018438045,-0.03116665,0.070261225,0.005231084,0.012643909,-0.0013285937,0.036388155,-0.0022538416,0.022193365,-0.004619554,-0.028967272,-0.038529936,0.0001251051,-0.037235994,-0.037911993,0.01603161,-0.008640629,-0.04671106,0.04102938,-0.046785295,-0.03194354,-0.016229417,0.0169102,-0.021600936,0.06271386,-0.015115167,-0.03821531,0.029485004,0.038389932,0.035980072,-0.005331067,-0.07214166,-0.015621953,0.04846213,0.022397341,-0.04159894,-0.0038593009,-0.009101252,0.0077492106,0.048518494,-0.043421127,-0.020561902,0.005629655,-0.010565197,-0.037594527,0.0019430885,0.044888947,-0.0072838245,-0.014264117,-0.0066017653,0.04309718,0.030628556,-0.14093669,0.00571222,-0.022606952,-0.019944891,0.008876817,-0.017368466,-0.07193306,0.02372466,0.01864281,0.026696276,0.022605019,-0.025751129,-0.042676196,-0.021069584,-0.008218403,0.023963893,-0.01695752,-0.0190065,0.05773999,0.019821582,0.07601126,0.011093086,0.09043477,0.0037470025,-0.029968623,0.01615162,-0.029212039,-0.009020194,0.020918753,-0.008377327,-0.06109064,0.0065154443,-0.046564955,0.025515009,-0.0376152,-0.020565122,0.030935852,0.01632926,-0.030486573,-0.012301721,0.036272462,0.06697776,-0.052443296,-0.010135122,0.023314007,0.08972145,-0.06828392,-0.06377324,-0.02894599,0.022124909,-0.008044364,0.019405441,-0.008116819,0.037343264,-0.0031787648,-0.045938507,0.014349753,0.00613056,-0.022817187,0.014133256,-0.0036735542,0.016979756,0.0059906025,0.009020992,-0.03712051,0.008739821,-0.017654741,-0.03761765,0.04688651,-0.007947879,0.055364553,-0.007481426,0.036991276,-0.02738018,-0.0025017662,0.046945296,0.040576402,-0.010299308,0.04272657,-0.02865872,0.0028405886,0.004153731,-0.012075304,0.028949544,0.011331661,0.020579707,-0.0051442934,-0.085067734,0.072519735,-0.033585116,0.018406376,0.034818355,-0.01367136,0.06432399,0.009005202,0.012887633,-0.0126345055,-0.00087602716,0.026446173,-0.004474185,-0.051419813,-0.015800409,-0.035500884,0.008849127,-0.054207254,-0.020211574,0.011556918,0.015298674,-0.0032133562,0.004430558,0.03734286,-0.003015397,-0.0150248725,0.039932407,0.0158094,-0.008685904,0.016113553,0.0017856873,-0.054302424,0.042521115,-0.046150357,0.0029051588,0.010606792,0.033324257,0.029783016,0.03348078,0.025606493,-0.0008431964,0.0062121153,0.03689616,0.03703251,-0.058050066,0.02089709,0.034776606,0.033564083,-0.008880635,-0.059795972,-0.038043384,0.00778437,-0.01918571,0.031436596,0.027241804,0.09743162,-0.028582204,0.014397891,-0.01803108,-0.010524541,-0.030961812,0.0030200128,-0.028041976,0.021841533,-0.006380105,0.06496379,-0.014767443,-0.012590463,-0.01311264,0.03390732,-0.004785105,0.012544124,0.011588449,0.0055008624,-0.022761483,-0.0019083174,0.018813225,0.013852491,0.0010067995,0.019910114,0.079281144,0.010754138,-0.0010833238,0.006105619,0.038773376,-0.0042410158,-0.0029870046,0.040797178,0.0025603143,0.041343518,0.017189678,0.07891998,-0.0631022,-0.0537484,-0.017981518,0.047873344,0.0063166805,-0.023136565,-0.058468726,-0.09028171,0.005281696,-0.013568041,-0.006082177,0.00919007,-0.0026438918,0.026842264,-0.031930845,-0.0015830813,-0.02717721,0.021287901,0.0055478592,0.06222358,-0.0213688,-0.012178627,-0.018944936,-0.037677858,0.029476503,0.0017940734,0.04949504,-0.012988413,-0.00092394685,0.020524794,0.014219551,-0.04235962,0.024651509,-0.053427525,0.03769182,-0.08212479,0.07140461,-0.05070932,0.00313167,0.050619103,-0.014770675,-0.03224804,-0.0016633879,-0.017051838,-0.015124215,-0.009597822,-0.015653346,-0.057841662,0.022018544,-0.028793387,0.025492514,0.01275134,-0.00857792,-0.0011713005,-0.023359885,-0.03921924,0.015739111,-0.082355455,0.030923897,0.046982713,0.008679971,-0.005888635,-0.0087549575,0.014205752,-0.043694057,0.007839241,-0.05093384,-0.016006457,-0.00088357524,-0.018611308,0.044923402,0.04743108,0.00405207,0.008445443,0.01712972,0.0033975993,-0.011304728,-0.045760147,-0.014324784,0.023715178,0.025008015,0.024071656,0.021065673,0.0055008656,0.01936425,0.025254738,-0.0062706154,0.008091537,0.020940173,3.0351772e-05,-0.032325793,0.024612298,0.060145345,0.014454667,0.02346638,-0.01608999,-0.0140759265,-0.038176864,-0.07766101,-0.022876563,-0.007639512,-0.003028549,0.020936236,-0.024966152,-0.03882489,-0.021743711,-0.025740549,-0.0020808298,-0.030170199,0.015894877,-0.023033887,-0.0030205948,0.012030079,0.04291264,-0.032274053,-0.028872864,-0.02730338,-0.006221106,-0.04664606,-0.0010928503,-0.022991644,0.015785225,-0.019145444,-0.015626617,0.005975849,0.043370068,0.045381054,-0.07020618,-0.00025982785,-0.040384293,-0.038468454,-0.050720934,-0.019544654,-0.019292085,0.00428263,0.00080390234,-0.03496149,0.029943703,-0.028246265,0.006350535,0.0134634245,0.0064993426,0.0024935964,0.006581147,0.0012091968,0.024023065,-0.036051303,0.025766999,-0.0057565826,0.008445633,0.01651871,0.040000144,0.07359592,0.029414041,-0.0060510603,0.0038645384,0.009803515,0.07117025,-0.03704385,-0.0043368507,-0.016441887,0.053309396,0.029828656,0.0013214626,0.0058972845,0.025093818,-0.022374336,-0.041184377,0.00070566346,0.012416729,0.033157438,-0.031341184,0.021738473,0.04095587,-0.011862902,0.020794068,0.0051495307,0.025060862,0.02962169,0.01544203,-0.0020517968,-0.000790964,-0.003325199,0.047362175,0.07138992,-0.009364328,0.013017844,0.011949438,0.0039361236,0.0051855496,-0.004252248,0.01753736,-0.030793186,0.037159655,0.011720776,0.01270872,-0.0008881894,-0.006221863,0.051886212,-0.005223258,-0.02711853,0.0317306,-0.03227182,-0.011582815,0.048088364,0.030173099,0.0072296686,0.0103119,-0.02351797,-0.028295916,0.009321414,0.056165624,0.057872597,-0.029196389,0.051693957,0.0065139155,-0.031084325,0.03535066,0.08425461,-0.0063536786,0.018696371,-0.020926768,0.0047560995,0.009394357,0.028078549,-0.045240168,0.03668675,0.014813299,-0.005002566,0.03910361,0.008766336,-0.014778093,0.020454267,-0.0033351858,0.019497149,-0.020208048,0.048323035,-0.032106575,-0.008330322,-0.034793023,0.038433563,-0.05373063,0.027908323,0.022977335,0.009531838,-0.018998343,0.01187494,0.031946037,-0.024003617,0.006197122,0.0511751,0.042673495,9.185758e-05,-0.023256734,-0.03873913,-0.04372856,0.010278391,0.0094075315,0.0045209057,0.05654596,-0.0044481675,-0.014672415,0.009900386,0.021235256,-0.01285786,0.034317717,-0.00022657608,0.02337578,-0.0014657482,-0.018692516,0.009133782,-0.027295759,0.042673104,-0.026865955,-0.01331548,0.019220179,-0.015253708,-0.069359615,-0.0036727737,-0.016252667,-0.0066309036,0.00631549,0.056384012,0.0096158115,0.030298667,-0.030607522,-0.057368185,-0.038990486,-0.023835357,-0.0274353,-0.004505487,-0.04315257,0.02471268,0.007582897,-0.024013793,0.012284606,-0.022947801,0.0027545085,-0.007195277,-0.006313146,0.053159174,-0.0054113204,0.008795608,-0.042284213,0.033008605,-0.006884402,0.030254206,-0.021891333,-0.056839667,-0.019370042,0.0019201057,0.004625974,0.0021910472,0.007583538,-0.018149251,-0.0033451275,0.0035654036,-0.045723826,-0.00081830216,-0.042875793,-0.024881637,0.033328373,-0.0020768063,-0.01178812,-0.030551925,0.015596619,0.0024098838,-0.009666997,-0.01097155,0.002120892,0.031660393,0.019529833,-0.007225421,-0.103616424,0.031313457,-0.032477308,0.059761796,0.019278899,-0.027652012,-0.047038548,-0.028397188,-0.016930139,-0.0050908187,-0.036374398,-0.023218725,0.0032831705,0.036129,0.03351188,-0.023394905,-0.05377749,-0.0080779,0.034933005,-0.040879283,-0.017860405,0.058259286,-0.0028320665,-0.008385057,-0.0048711295,0.04903355,0.017803036,-0.01457502,-0.017571086,0.013378801,0.033649784,-0.011326358,0.00038876128,-0.048894886,0.0118009485,0.0014480442,0.006793866,0.0045594843,0.016983923,0.001900382,0.05251799,0.002547056,-0.025771976,-0.009136244,0.015569025,0.03659397,0.015387774,0.029381651,-0.054868232,0.01736934,-0.025572082,0.0066733095,-0.016257312,-0.007002046,0.040442508,0.044442903,0.02690991,0.009742261,0.0050999215,0.01293924,-0.021792648,-0.002520372,-0.008201128,0.036275435,-0.003597895,0.037790343,-0.007222866,0.055549074,0.011740926,-0.010724704,-0.029228916,0.0012716894,-0.020362549,-0.030862017,0.020542929,-0.056019403,0.00883152,-0.010485969,-0.039436884,0.010733079,0.005897772,-0.049802713,0.033922385,0.024478551,-0.019114934,-0.024169363,-0.024877407,0.019286182,-0.02609182,-0.008126563,-0.034782954,-0.016301643,-0.02728316,0.018962568,0.01584869,-0.006003705,-0.008081689,-0.043483097,-0.0116585465,0.007677482,0.032733753,-0.021044586,-0.0137588,-0.016662985,0.040766757,-0.031096295,-0.02360499,0.0060501085,7.945422e-05,-0.027349602,-0.004137583,0.006126742,-0.022655886,-0.025644574,-0.03372621,-0.013992691
竞争性环境压力,0.009323539,-0.043236088,-0.0136532895,0.108452566,0.020631071,0.0027211467,-0.024317663,-0.04467076,-0.050599445,-0.008949969,0.066622555,0.02489922,0.019538127,-0.013204088,-0.0509879,0.07779813,-0.023381159,-0.040395636,-0.004083943,-0.03656588,0.05161152,0.030783562,-0.06894543,-0.051937994,0.028939173,0.016861387,-0.007959316,0.048262104,-0.014192792,0.0063879415,-0.058206372,0.0005561666,-0.08355093,-0.023126818,0.00158349,-0.018476738,-0.02028552,-0.01681957,-0.0034368178,0.048068628,-0.03579784,0.0006611858,0.06432233,0.016801624,0.022183923,-0.06903788,0.03206165,-0.0005949445,0.033138286,0.011310028,-0.038757384,0.014021395,-0.015758079,0.038530834,-0.019956537,0.0494088,0.0034241162,-0.011835696,0.026692024,-0.0020297654,-0.033679567,0.030843534,-0.08004546,0.037182085,-0.030683229,0.0041683763,-0.016767045,-0.028222684,0.014579897,-0.039234385,0.018859196,-0.024779538,-0.00020485802,0.02641578,-0.019827254,-0.073568575,0.04634413,-0.03863229,0.06218229,0.038900148,0.00461253,0.058596086,0.022584572,0.009108567,-0.049089413,0.019679321,-0.009607543,-0.03129187,0.029801741,0.018883878,-0.00036573427,0.08229409,0.0027070988,-0.0799558,-0.034195527,0.009463723,0.0046382607,-0.011063456,-0.018690731,-0.012240108,-0.00846183,0.026357008,-0.045180704,0.007726418,-0.014429477,0.04569057,-0.09837268,0.0055521987,0.012029797,-0.01732022,0.028355885,-0.0076908893,0.0022432862,0.02151608,0.029201217,-0.056732338,0.032806244,-0.011701085,-0.030651735,-0.021542791,0.02603421,0.05260126,-0.028209042,-0.02089398,-0.045165636,-0.006225519,-0.045170363,0.004559902,0.018614149,0.009905197,0.005044762,0.03670589,-0.022474261,-0.048771612,0.04597043,-0.0008182661,-0.0044994075,-0.002878173,0.016903143,-0.021340571,0.035839334,-0.04737498,0.013234995,-0.07205599,-0.048942436,-0.0414648,-0.010362467,0.027216896,0.006894001,-0.010888757,0.017910551,0.019334007,-0.044835683,-0.010493112,0.0017834303,-0.019109227,0.02799016,0.032425985,0.035250824,-0.005535561,-0.0025849976,-0.0009897717,0.020852165,-0.042903006,-0.010552366,0.010707614,0.00028730417,-0.02949797,-0.00015010701,0.0037104513,-0.034038167,0.02921446,0.036517605,0.06327208,-0.00031059643,-0.014026046,-0.03436809,-0.021754837,-0.04778919,-0.014072947,-0.0028520422,0.00067117484,0.010877157,0.018408922,-0.02426938,0.00821349,0.035572764,-0.027351324,-0.0038415838,-0.035348482,-0.052139413,-0.010382645,-0.013310238,0.02430047,0.0030066012,-0.023011485,-0.0026794488,-0.013746608,-0.018637814,-0.022188883,-0.011507021,-0.03262881,0.02685615,0.023111595,-0.022279123,0.0017853611,-0.0148306545,0.030511213,-0.011523881,-0.008198438,-0.05268431,0.0342277,-0.058373407,-0.021042785,-0.022184419,0.034111336,-0.0147468,-0.007143311,-0.03764183,-0.010321937,0.049845006,-0.00017248731,-0.047851097,-0.012268367,-0.035032105,-0.00791893,0.020568343,-0.010785522,0.04297569,-0.01723536,0.0072604823,-0.019481948,0.034110233,-0.023444394,0.054694403,0.00883018,0.032333408,0.01522748,0.015614319,-0.07659299,0.0010358394,-0.0077243457,0.020372584,0.021698477,-0.019604133,0.049784902,0.001370926,0.0075072427,-0.030566035,-0.027473293,0.025001423,-0.07993055,0.045601036,-0.035381038,-0.0012268836,0.05825718,-0.00093673944,0.02675764,-0.009007858,0.003789434,-0.021074608,-0.049527057,-0.030593768,0.032790486,0.08288942,-0.020319514,-0.012432045,0.0066527533,-0.03898664,-0.036880758,-0.029140865,-0.005258001,-0.005535683,0.008947934,-0.026792731,0.003409405,0.02989356,-0.0035618122,0.020852767,-0.0013562748,-0.038112517,6.852025e-05,-0.008283586,-0.033069406,0.03256534,-0.013680636,0.043102723,-0.010365179,-0.018027835,-0.02526506,-0.0018619403,-0.01464942,-0.01686023,-0.02030614,-0.0056420835,-0.03982483,-0.008336822,0.06531749,-0.026421046,-0.017052114,0.095367216,-0.027294504,0.014776127,0.058461856,-0.015285032,0.016196614,-0.05182381,-0.0067441314,-0.027237915,0.019367592,0.030905109,-0.03179368,-0.019168263,0.013740231,-0.014528501,0.019527163,-0.007145889,0.0049366793,-0.020435315,0.029110966,0.040708676,-0.04410457,-0.061260577,0.017701555,0.009235614,0.0364798,0.011916043,0.005802122,0.02847142,-0.05354125,0.0078122998,-0.03335541,0.0013542786,0.05943753,-0.035387356,0.05352249,0.022746507,0.056900598,0.006601643,-0.018138729,-0.0019410371,-0.00451984,0.008416042,-0.05475416,-0.044247262,0.0095145395,0.033834472,-0.014319654,-0.001383833,-0.0034934026,0.0564061,0.014568617,0.013878689,0.009762351,-0.03221459,-0.068445124,-0.048502818,-0.028883757,-0.018262072,0.024902929,-0.0037588198,-0.03655282,0.049038444,-0.057396457,-0.07088598,0.012926476,-0.01113085,-0.0335744,0.022861937,0.02363181,-0.020559078,0.017025445,0.06925915,0.0180317,-0.014004903,-0.0032063369,-0.0030599765,0.05035997,0.0053661983,-0.029779784,0.010612326,0.0060657808,-0.0059323967,0.015995933,0.027995115,-0.06932718,-0.0067700394,0.017418629,-0.014803262,0.01458711,0.07164019,-0.08540143,0.0058999564,-0.008306767,0.005027426,0.00088544923,-0.1259735,-0.07341201,-0.05327213,-0.0113634,0.017265052,0.0058134343,-0.04365149,0.010208604,-0.021422388,-0.03443826,-0.011426632,0.04010098,0.015119668,-0.014960665,0.007866422,0.0021766291,-0.027023094,-0.021337766,0.0040868684,0.023228277,0.0727189,0.009948144,0.0035742414,-0.021654345,-0.022352347,0.08956412,-0.06236698,-0.0441473,-0.0027644162,0.03402181,-0.083780475,-0.03968572,-0.028836582,0.008480979,-0.028025275,0.01231486,0.064140536,0.014373778,0.013946558,0.029187273,0.0044723437,-0.019275624,-0.011008879,0.004150166,0.0066907434,0.041415893,-0.056459356,-0.006355356,-0.05165439,0.0050467495,0.012734489,0.029862732,0.0063225883,0.03666928,0.005727851,-0.011264646,0.026065702,0.030595386,-0.0078000617,-0.0036000079,-0.0058661927,-0.035671625,0.0064359615,0.047625873,-0.11247688,0.030713066,-0.04207195,-0.03750428,0.046346486,0.019751903,0.031020086,-0.00659637,0.041987125,0.0025537852,0.045721054,0.023777125,0.009307776,-0.010632745,0.008782186,0.0028650418,0.00012116682,-0.0517588,-0.021960977,4.71012e-05,0.06635561,-0.017850239,-0.041307513,-0.016248072,0.0075772004,-0.025145471,-0.005968376,0.016534341,-0.0087705115,0.036563523,0.0006883001,0.0358396,-0.023174055,-0.026385996,0.030591682,0.02897239,-0.015028881,-0.034120023,-0.05704021,0.009578821,-0.041146472,0.033511184,-0.008532305,0.0037039004,-0.034740984,0.025519315,0.0022967265,-0.02461024,0.026726658,0.036890548,0.022049915,-0.06546358,-0.013899595,-0.0052291555,-0.042755593,0.054470833,-0.01008227,-0.01383811,0.0471315,0.040796317,-1.7500466e-05,0.04495184,0.004214506,-0.0062309452,-0.04233773,0.029243449,-0.01892538,-0.034013003,-0.0124435285,-0.0027299982,0.015481877,-0.042136263,0.0019473592,0.010991948,0.029348446,-0.031279877,0.027971927,-0.004280737,0.06500571,-0.043869022,0.011914713,-0.042067822,0.0035511286,-0.015339917,-0.0025527594,-0.043772455,0.011442505,0.0038121082,0.07652408,-0.001006696,-0.026409412,-0.009195497,0.049582046,0.024007471,0.026424436,0.0032827912,0.02619459,-0.023144059,-0.013400847,-0.03873579,0.016914811,-0.014139158,0.048026424,0.017100845,0.00780761,-0.03607093,0.016406745,-0.029237263,0.0016165967,0.019389344,0.011944805,-0.009951776,0.020034576,0.035523437,0.028547548,-0.055852693,-0.011986112,-0.020833317,0.025543453,0.0104753105,0.04893208,0.0015693199,-0.041879088,0.037039056,-0.049832333,-0.02208592,0.03304227,0.018712236,-0.009345654,0.026823727,0.014002891,-0.021024862,0.062072463,0.0067926687,0.059643913,0.030557921,0.006926163,-0.02603262,-0.040672913,-0.016855568,-0.05049206,0.061601654,0.01022088,-0.016185742,0.021618767,0.032297187,-0.052401718,0.04337294,-0.020876348,0.031322252,-0.006174531,0.018276148,-0.03228961,-0.043852348,0.0009955043,0.00052332034,-0.029133495,-0.051684596,-0.021134414,-0.034371767,-0.040293287,-0.03217431,0.01935713,0.013749063,-0.03232583,0.026928868,0.04088118,-0.010457034,-0.008662853,0.012672488,-0.034971304,0.03443428,-0.010777953,-0.012805101,0.020680562,-0.02990451,-0.029209007,-0.037464008,0.022645684,-0.018356694,0.024730714,-6.0090253e-05,-0.006341591,0.0016621695,-0.021957513,0.04012439,0.068081856,-0.024898792,0.017575547,0.0038783064,-0.013919005,-0.018805653,-0.0041405885,-0.0042045517,-0.03881398,0.03165467,-0.009726746,-0.010697539,-0.018146068,0.005447916,0.03983585,-0.029784676,0.03606062,-0.02185407,-0.017720228,-0.0062708263,0.04734134,0.064574204,0.023736492,0.008900277,-0.027947972,-0.021156296,-0.007083105,-0.005269407,0.025853869,-0.011795977,0.011932621,0.020482276,-0.01389502,-0.04206127,-0.03235381,-0.028248118,-0.0019337034,-0.052845214,-0.003262318,-0.0160486,-0.005556815,-0.017233985,0.03523965,-0.038688973,-0.004335823,0.011442296,-0.012461672,-0.011777707,-0.0054812897,0.0029859159,-0.03783012,0.029664792,-0.01687866,-0.044560026,0.024813475,0.0123865865,-0.030836064,0.060759377,-0.051637203,-0.027467763,-0.046392854,-0.02454272,-0.04821565,0.037837643,0.030320916,-0.013891815,0.006515749,-0.0564041,0.02751557,0.038711756,0.042430438,-0.041003708,-0.02735382,-0.056678183,0.002948519,-0.036068644,0.05152835,0.013547886,-0.026825828,0.0057811886,0.043487296,0.04349761,0.004024822,0.0037099072,-0.014570219,-0.02445089,0.0031662832,0.0289978,-0.01793188,0.036819145,0.04789951,-0.008836891,-0.015316558,-0.028412802,0.013279509,-0.0035524883,0.011776001,-0.010066188,-0.02602963,-0.003106866,-0.007963235,0.03640527,0.046887822,-0.0158972,-0.014131636,-0.004150349,-0.0033747796,0.00792488,0.008451066,-0.05995014,0.010235175,0.017542072,-0.004370156,0.09675187,0.00044444393,-0.031637043,0.002248956,0.024418496,-0.011061995,-0.04364295,0.00114501,-0.033152353,0.025324542,0.008855982,0.026579494,-0.009920046,0.0024391823,0.073519826,-0.009373453,-0.006795278,0.010536449,-0.029865189,-0.043523364,0.022463951,0.054349173,-0.0009528771,0.032074958,0.0045867646,-0.02060183,0.009764954,0.052452628,0.0405609,-0.024014542,0.010276517,0.04064818,-0.02212269,0.018422239,0.02392537,0.029501088,0.023187403,0.01284747,0.041427437,0.0053314143,0.02811449,0.011569697,0.038674477,-0.0036513389,-0.00822388,0.0072488594,0.018788366,0.04030534,0.00056908326,0.0142303975,0.026581798,0.016030999,0.0048050047,-0.044530775,-0.008949094,-0.034667622,0.0010633123,-0.008522799,0.01928845,0.024600297,0.042473614,-0.011252475,0.023911787,0.017924638,0.017894698,0.028403824,0.06720448,0.028703121,-0.0033226733,-0.047662146,-0.053654257,-0.010963287,0.012803458,0.017119091,0.014033192,0.03862575,0.02722059,-0.042748053,0.0011214818,-0.00073560665,-0.040114895,0.03817051,-0.0026782677,0.03382414,-0.020420857,-0.013717583,0.010828863,-0.008055072,0.014198262,-0.011247521,0.020001996,0.019066924,0.008548805,-0.04686204,-0.020349337,-0.030520981,-0.019532254,0.037611343,0.06883661,-0.049721073,0.026142215,0.013626103,-0.064773224,-0.016972853,-0.004178141,-0.030394034,0.0007740628,0.00036033054,0.035633184,0.00038723194,0.0118983975,0.036141995,-0.030328503,-0.03176794,0.014504247,-0.016803937,0.02667595,-0.00470086,-0.0087835975,-0.022396121,0.037245426,-0.06351225,-0.0013115291,0.016385354,-0.0006802033,-0.041524142,0.012921244,0.0008650429,0.018129474,0.040182576,0.006576785,-0.012350108,-0.035573017,0.035577923,-0.020154826,-0.027997417,-0.0140585145,0.035072498,-0.032434203,-0.030059423,-0.013028075,-0.004774224,0.0025263093,-0.0073209405,-0.042206127,-0.0048086746,-3.18224e-05,0.00889965,-0.009601792,-0.06342957,0.03476847,-0.0018102637,0.039826117,0.016800059,-0.028161693,-0.0429936,0.009839192,-0.051599067,-0.045031466,-0.017029593,-0.010051014,0.03473953,0.003682397,0.02627872,-0.03999743,3.7291018e-05,0.020385869,0.06502306,-0.06813706,0.0019502643,0.0092677865,0.037183836,0.052393876,-0.0027859423,0.053272,0.00037688907,-0.011494327,-0.048071466,-0.007876014,-0.001791311,0.0064057396,0.030011214,0.017215138,0.03324457,0.026981302,0.03947803,0.03081495,0.043906733,0.00031581477,0.027438687,0.020017846,-0.011255017,-0.031104619,-0.016847577,0.05226248,0.014342582,0.009865738,-0.03850267,0.025306841,-0.051723827,-0.0147293825,-0.0147035,-0.022687932,0.025037773,-0.019005958,0.016775869,-0.010199779,-0.00091167307,0.009623053,-0.008590689,0.02345324,-0.006977099,-0.01075908,-0.030847361,0.024175635,-0.0072487863,0.014204807,-0.022131197,-0.037335426,-0.031567615,0.019837033,0.039106995,-0.029259674,0.019173428,-0.023132358,0.023154782,-0.010320935,-0.028308097,-0.054301858,-0.053630013,-0.061865248,0.02737239,0.017356232,0.003945708,-0.0096924445,0.007575879,-0.017638862,-0.04399945,0.010729071,0.0010438977,-0.044276636,0.017509125,-0.010466708,-0.013405411,-0.014222983,0.005351526,-0.016700964,-0.048315063,-0.0045188805,0.003579854,-0.017950367,-0.014616905,-0.0016920676,0.059571072,-0.0006029157,0.038896527,0.006315944,-5.4867116e-05,0.023100715,0.0069983224,0.034549847,-0.0049318485,-0.029807838,-0.00033634243,-0.026772153
自我价值绑定于生产力,-0.030072717,-0.061686106,-0.012764852,0.025028259,0.011224826,-0.005485993,0.025749236,0.025758415,-0.02686955,-0.027689623,-0.01788745,0.0067621237,0.02368471,-0.013061625,-0.058587495,0.00077497435,-0.032940686,-0.0031360856,-0.06436266,-0.06344582,0.011937142,-0.023582403,-0.0878061,-0.033721417,0.028677272,-0.015819842,-0.08640024,0.10945998,0.046254862,-0.017095948,-0.052681923,-0.040028766,-0.06498024,-0.05317042,0.000643996,-0.017483901,-0.009651114,-0.033303346,-0.011890904,0.04020936,-0.020003038,0.018148832,0.041969698,0.046095554,-0.022421489,-0.055663355,-0.03512685,-0.021436673,0.08118456,0.027487013,-0.008190307,-0.022424283,0.005027816,-0.0039137774,-0.012749254,0.056961805,0.018768089,0.045456745,-0.014285816,-0.026061943,-0.028196348,0.026959224,-0.06611643,0.023795277,0.002421008,0.015163507,0.014680431,0.058847815,0.028229363,-0.040894646,0.045856196,-0.010116158,-0.000819058,0.022277182,0.012143203,-0.06465447,0.059072446,-0.06296887,0.0016759628,0.031745847,0.025665017,0.045511704,0.01475961,-0.0073917997,0.019592749,0.046855673,-0.018920515,0.01664594,0.035421133,0.030455267,0.00608536,0.09086222,0.03557891,-0.0059993393,-0.0047298875,-0.007543326,-0.008696942,-0.0029873948,-0.014307417,-0.00010533592,-0.007093674,0.05171011,-0.075060576,-0.0034151096,-0.0044176453,0.04326282,-0.07540027,0.017430142,0.018275397,-0.027148746,0.020386234,0.0031676313,0.04688971,0.033881053,0.023753248,0.0050689057,-0.0016504981,0.0076894225,0.0003207589,-0.026455352,-0.026082145,0.07681258,-0.0014211048,0.0025517985,-0.059137195,-0.014092237,-0.030459037,-0.00028259857,0.02183155,-0.024667416,0.010104363,-0.015401397,-0.013853277,-0.007009156,0.0022566388,0.013411515,-0.011824735,0.0010992194,0.014529428,-0.043744914,0.028442187,-0.03204275,-0.014580388,-0.028155206,-0.02658929,-0.025095675,0.0012062272,0.0026536838,0.015012701,-0.024804045,-0.020750951,0.027642822,0.008318977,0.009888371,0.013002797,-0.0032614016,0.020972647,0.02354743,0.079330206,-0.038253963,0.006525299,0.012372206,0.0023304417,-0.038500845,0.011857324,0.02982536,0.029427977,-0.03288683,-0.053587247,-0.014960652,-0.022640115,0.011535609,0.025776071,0.033773366,-0.008513794,-0.035592318,-0.060509108,-0.07575224,-0.020681307,0.006612521,0.014646361,-0.013482488,0.0134971505,0.011138683,0.039715517,0.021528583,0.027524069,0.028617293,0.010237508,0.017078687,-0.032953814,0.0011284061,0.003148602,-0.028162705,0.0030932003,0.002615697,-0.014600669,-0.05301065,-0.00041442548,0.0007409774,-0.014669319,-0.011516118,0.010060226,-0.02408971,-0.03232714,-0.011820334,0.035423916,-0.008027775,-0.02751437,-0.022571305,0.001040334,0.025837244,-0.05913149,-0.059170004,-0.000855811,-0.012738658,-0.009782377,0.062424745,-0.04403651,-0.011541909,0.03595645,-0.0040439884,-0.031689513,0.028249996,-0.06870007,-0.036299333,0.01871668,0.044124074,0.029410895,0.009980383,-0.0118129635,-0.011710605,-0.03243318,-0.013905486,0.052396122,-0.0006386165,0.037704267,0.014317207,0.012112286,-0.045239113,-0.027055843,-0.0046115606,0.018815601,-0.01906017,0.005871456,0.021592904,0.0026382247,-0.016327254,-0.024090152,0.040271115,0.008163073,-0.105439864,0.004682238,0.041325804,0.009218595,0.0023177015,-0.0058828555,0.0213016,-0.01205899,0.0026625285,0.030975986,-0.024848301,0.0028899712,-0.015885131,0.040831402,-0.029234163,-0.0021336062,0.0007260467,-0.003976904,-0.03168442,-0.011683234,0.021463659,-0.006241642,0.02573836,-0.041884813,-0.00720348,0.007736614,-0.0019225293,0.03170724,0.010383801,-0.044140864,-0.007771471,-0.0023881085,-0.011675351,0.020143585,-0.017424079,0.018366452,-0.013442102,-0.06381165,-0.01751207,0.008893645,-0.004979657,-0.050249796,0.017733803,0.028727718,-0.04399664,-0.00834748,0.04158567,-0.0017236132,-0.003430627,0.09945252,-0.023717036,0.018457383,-0.007306954,-0.020794636,-0.0080675995,-0.005820717,0.0018387719,0.028578762,-0.0036946149,0.06554501,0.0010423326,-0.017624682,0.0054839836,-0.014773943,0.0345216,-0.06772269,-0.003282783,0.011971521,0.047596015,0.022931183,-0.03917657,-0.02541135,0.025205325,0.026072357,0.026395347,0.062811315,-0.002688903,0.01896473,-0.06429152,0.019710988,-0.026860856,-0.006397499,-0.028351286,-0.0033876696,0.02481284,0.020281652,0.025706625,0.027666474,-0.037925035,-0.002935848,0.047853544,-0.007227522,-0.05458584,-0.034857765,-0.039192144,0.03334641,0.039856005,0.0006678828,-0.0059051733,0.061220508,0.019524876,0.01556396,0.008624927,-0.019106224,-0.06629779,-7.1323404e-05,-0.020719543,-0.012789261,0.04774417,-0.01768775,-0.045467116,0.02340966,-0.004774964,-0.06001576,0.032369263,-0.033342853,-0.0025779891,-0.0007718317,-0.002873448,-0.03174464,0.05701449,0.017475922,-0.0024284155,-0.0316829,-0.026425054,-0.01640498,0.053486314,-0.03359802,-0.057176907,0.01765625,-0.023921387,-0.0013692199,0.028979162,-0.035679705,0.0056492863,-0.014743809,0.015873425,0.000896205,0.02551328,-0.011932524,-0.026413735,0.019299682,-0.029089252,0.025265468,-0.018094398,-0.13643527,-0.007951075,0.0029590933,-0.009853317,0.026762744,-0.021522567,-0.10147667,0.028537316,0.02952679,0.00566491,-0.019198922,-0.021621259,-0.03319327,0.006848038,0.0033508607,0.01466318,-0.011501765,-0.03092414,0.041970983,0.035530582,0.12449045,0.03443945,0.022272168,-0.0057042353,-0.056710083,0.0263746,-0.06476513,0.01746778,-0.0069179726,-0.0028073168,-0.058013998,0.029419834,-0.019311737,0.004041483,-0.057069533,0.001054871,0.034395814,0.0052764015,-0.010307778,-0.03794973,0.03955956,0.06465371,-0.03441252,0.01923817,-0.03412393,0.03135604,-0.049495187,-0.014613442,-0.031745482,0.011105752,0.0028055173,0.017168242,-0.017566739,0.044392083,-0.0094151385,-0.041274246,0.061428975,-0.006546916,0.0094413,0.0010556545,-0.023041615,-0.011299728,-0.007589194,0.013611203,-0.031695943,0.035843495,-0.0052308054,-0.014579925,0.008281911,0.021815771,0.061117467,-0.013325681,0.020239888,-0.052131664,0.03357573,0.035444286,0.031465605,-0.025125014,0.025587307,-0.008032243,0.020522084,-0.021174619,-0.03103753,0.034448683,-0.0083516175,-0.008269648,-0.032063354,0.0035805814,0.03942829,-0.0052901693,0.01456512,0.016928282,-0.040194202,0.03474126,0.025532044,0.022572715,-0.010707237,-0.02515627,-0.01659225,-0.051303897,-0.005373109,-0.02373519,-0.08301449,-0.00048929494,-0.012793814,0.018435037,-0.011639569,0.022695957,-0.025802396,-0.0063431435,0.04394078,0.00771471,-0.033504866,0.0055258577,-0.0004619082,-0.03089956,-0.015973613,-0.03551164,-0.0849351,0.026525846,-0.029303988,-0.05165711,0.044517964,0.023975978,0.007504088,0.02263831,0.065664425,0.038492765,-0.003100738,0.030937554,0.03281202,-0.07340536,0.0067174444,0.037005574,0.027710559,-0.01112429,-0.00944688,-0.022022111,0.0017130154,-0.036794398,0.061552864,0.00018407179,0.08148605,-0.03346272,0.0025241913,-0.017827459,-0.013133822,-0.024784377,-0.019109318,-0.06221527,0.02186881,-0.012529996,0.048471984,0.0032368908,-0.021434177,-0.014127887,0.03304911,0.01427211,0.03374156,0.025494605,0.03675277,-0.0070891613,0.014868946,-0.014036047,-0.0104202675,-0.0007552661,0.039416637,0.04829899,0.005268294,0.0075705745,0.035508074,0.004929654,-0.0016743424,0.013907876,0.055982966,-0.029591372,0.023844918,0.004663828,0.033285365,-0.06306882,0.0014370853,0.008834764,0.02508824,0.019728199,0.01896335,-0.02101284,-0.06156571,-0.017697979,-0.06536309,0.04231296,0.016988628,-0.012209142,0.035710804,-0.022498112,-0.0050717625,-0.058746982,0.026912333,0.012405864,0.03603483,0.008037564,-0.0061467504,-0.032141987,-0.067974165,0.043357696,-0.04494474,0.059556775,-0.009600284,-0.0024632602,-0.0073328894,-0.016975008,-0.051448643,-0.0055655534,-0.046050996,0.035123162,-0.052641355,0.009323198,-0.06476871,-0.028842939,0.008446394,-0.020224188,-0.04531061,0.013281986,-0.017240413,-0.045403097,-0.024385342,-0.0006728752,-0.008872468,0.00063651765,-0.017245855,0.010563901,0.025351984,-0.01309105,-0.008198092,-0.017545065,-0.05905273,0.02320174,-0.057270758,-0.015099796,0.05718881,-0.0070919655,-0.012797124,-0.016650934,-0.010502463,-0.016480075,0.0011346531,-0.033369906,-0.01649975,0.026801977,-0.043399986,0.037208408,0.035455365,0.009670509,-0.000630073,0.025209744,0.031060115,-0.0020057128,-0.012764477,0.0022707265,-0.025919653,0.027180362,0.0021434578,-0.0015676358,0.022852017,0.013499185,-0.00039755748,-0.034523383,0.025938537,-0.02373495,-0.0010837665,-0.046318375,0.040375065,0.026632689,0.02737481,0.040851474,-0.007893189,-0.0537515,-0.03546755,-0.020105155,-0.0020962642,-0.035614185,0.00084323616,-0.023028264,-0.053593956,-0.040098228,-0.0592174,0.01370843,-0.008059219,-0.03675305,0.023708254,0.01977871,-0.023572061,0.03254709,0.006258426,-0.015370601,-0.034354687,-0.026684482,-0.04132709,-0.020495968,-0.013993306,-0.0097654965,-0.0034884522,-0.010682656,-0.045132883,0.013284269,0.008607527,0.055047784,-0.028041013,-0.021934232,-0.022876922,-0.06978099,-0.020694746,-0.039476737,-0.013748814,0.054270394,-0.00227171,-0.010814962,-0.014742042,-0.053476032,-0.013740708,-0.0016775846,-0.0022335197,-0.01223604,-0.026148435,-0.005921879,0.01986406,-0.06243158,-0.009152434,-0.00013259532,0.010138322,-0.0022143326,0.057218783,0.051903453,0.058507696,0.010675356,0.03227338,-0.026844077,0.034343634,-0.015665105,-0.019829918,-0.014607133,0.0076335915,0.01597269,0.01613852,-0.021841474,0.025886308,-0.0013206055,-0.0244575,0.0011206564,0.0172787,-0.00010318494,-0.028920004,0.03831035,0.03261565,0.001324436,-0.03337029,-0.009464648,0.040813606,0.019392844,-0.014634608,-0.02133632,0.015772823,-0.01461463,0.00089244574,0.049621273,-0.028561877,-0.01453097,0.013279223,-0.0009814803,0.028421566,-0.015320778,0.030595005,-0.02686196,0.041100815,-0.009871756,0.011741741,0.017283924,0.011439716,0.063643105,-0.001690537,-0.034339808,-0.0016303968,-0.030809395,-0.043135256,-0.023718046,0.05658506,0.017852373,0.030348483,0.0033553294,-0.003921558,-0.006939966,-0.0069479076,0.045692444,-0.024602849,0.04388682,0.014876457,-0.013783078,0.023666672,0.06322633,0.00050914753,0.041984353,-0.0028961387,0.050763067,-0.009951459,0.05952078,-0.0028593373,0.059620257,0.05043183,-0.016158925,0.024395956,0.014827473,-0.012799308,0.04095708,0.008054039,-0.0060429303,0.0041331816,0.033626776,-0.013221049,0.012005376,-0.032931678,0.025905095,-0.07778711,0.007309059,0.025703482,0.03115257,-0.017806584,-0.000449527,-0.0044647716,-0.044896718,0.016672684,0.0368897,0.042310722,-0.0049188873,0.003251813,0.016217047,-0.019729557,0.016241051,-0.015440281,0.047064472,0.052939262,0.026077304,0.006467433,0.00069535564,-0.021171635,-0.009640733,0.0020721112,0.017130304,-0.0043866723,0.008530261,-0.012048343,0.038990133,-0.02262928,0.017473806,0.006130271,-0.0059156762,-0.0121410405,-0.046566993,-0.037895482,-0.03973241,-0.062628366,-0.0010822542,0.037744474,0.02601247,-0.026073676,-0.013071665,-0.057731666,-0.032200024,0.0020736684,0.017245138,-0.031089956,-0.018249823,0.003611937,0.029616619,-0.010583595,-0.0105077755,-0.00060137495,-0.03739915,-0.017800381,0.032884676,-0.010575585,0.04663056,-0.011819249,0.0012071901,-0.0042990097,0.02330678,-0.052977566,0.0071289544,0.025147162,-0.021922274,-0.0057403822,0.01862491,0.03036907,-0.025372075,0.0077048675,-0.0024223714,0.02849149,0.0038354213,-0.015199842,-0.0053233574,-0.075654924,-0.028475724,0.011652559,-0.02501628,-0.019111387,-0.027163759,-0.014075752,0.020202452,0.016305605,-0.024126224,0.0054150615,0.026016992,0.05128578,0.0052509974,-0.058644515,0.028539987,-0.023729471,0.08797819,0.01860526,0.002081687,-0.06255146,-0.010745024,-0.0442506,-0.044385534,-0.032249425,0.001984031,0.018548291,0.03872003,0.034491036,0.017922489,-0.010442807,-0.002864494,0.034073275,-0.041630972,-0.057433065,0.032905914,0.016247915,0.004835607,-0.025265316,-0.024215234,0.020041436,-0.03706079,0.0092907455,-0.02514125,0.014323545,0.030618288,0.009722916,-0.018553203,0.046603385,0.017749615,0.0142556215,0.022028495,0.0045072865,0.009114028,0.038697455,0.006370296,-0.0011545344,0.009963879,0.028454537,0.012559124,-0.017769303,0.04369427,-0.035580587,0.011619224,-0.031068953,-0.024373913,-0.017690837,-0.023954328,-0.00841463,0.005252454,0.053856358,-0.021000132,-0.00015036632,0.015512923,-0.010658514,-0.012034269,0.004650761,0.046277147,0.016840646,0.009461116,-0.010187552,-0.0021206702,0.009998773,-0.01607458,-0.0324005,0.014609266,-0.0038961389,-0.051794376,-0.0039027997,-0.070787236,-0.025891554,0.04364869,-0.04401063,-0.022898091,-0.010488118,-0.03009421,0.04815303,0.030021997,-0.01228245,-0.020004893,0.0021736538,0.005878285,-0.0016848849,-0.017785283,-0.0392815,-0.011555369,-0.03114087,0.04501959,0.0134927435,-0.011633313,-0.0015261826,-0.053578198,-0.009655886,0.023222867,0.023757879,-0.019402448,-0.036654443,-0.068964586,0.0272703,0.013942163,-0.007770361,0.0013305921,0.02479708,0.014200921,-0.043170422,0.026635021,-0.012139698,-0.05638403,-0.046707805,0.019473394
社会内卷压力,0.03642075,-0.058194377,-0.012404144,0.06997445,0.014669537,-0.03454289,-0.007709627,-0.065876395,-0.08309327,-0.006578242,0.025782812,0.004613647,0.025033753,-0.012459024,-0.054839943,0.019074576,0.025239892,-0.009671941,0.005308906,-0.026585132,0.010146518,0.012975797,-0.06389873,-0.07904551,0.00042976387,0.045316298,-0.038468055,0.044527765,0.029289104,-0.005160327,-0.08161549,0.0031488582,-0.076081604,-0.032557596,-0.0013767108,-0.018407345,0.0141149815,-0.02128789,0.045782857,0.094663575,-0.031585675,-0.033824284,0.07913882,0.019743001,0.013803779,-0.05763848,0.012895837,0.0155625325,0.039932203,0.02945731,-0.032424375,0.00064968684,-0.034786273,0.0105524305,-0.013828323,0.004182583,-0.017940328,-0.0110772615,0.012767349,0.009273072,-0.034960248,0.027949842,-0.057626996,0.072309785,0.027293127,-0.018798936,-0.01704137,0.01569779,0.041529935,-0.042914487,-0.008492023,-0.03463184,-0.009433029,0.03821462,0.017717566,-0.049321253,0.02748924,-1.3005037e-05,0.049158994,-0.01933529,-0.012999819,0.02442286,-0.008010373,-0.020120729,-0.02769617,0.019906232,-0.027457057,-0.03708791,0.03197618,0.039498795,-0.015539402,0.10157774,-0.01786794,-0.055212244,0.010233858,0.0008238732,0.0036368447,-0.04089524,-0.009409361,-0.032974765,-0.01489167,0.040411778,-0.076152146,-0.03187629,-0.02960033,0.05925026,-0.07063344,0.041895095,0.035480388,-0.019084677,0.021138052,0.013940682,0.010624999,0.0031037072,0.03588792,-0.010737504,0.029974239,0.009524527,-0.02266358,-0.02291166,0.016824506,0.044608437,-0.0008919053,-0.0049784794,-0.02058769,-0.0070141,-0.029650996,-0.016537676,0.0004122445,-0.011391704,0.017904105,0.08182554,-0.012062104,-0.04148663,0.00744451,0.004488878,-0.017589035,-0.008953315,0.011472819,-0.04074605,0.042000197,-0.035407946,0.01689,-0.0714263,-0.034695975,-0.026819963,0.0036267468,0.02049338,0.029405778,-0.050341308,0.02928153,0.043646004,-0.047438588,-0.017068151,0.029548319,-0.053437494,0.015248902,0.028848832,0.024221078,-0.024458377,-0.019339949,0.0045933546,0.02381152,-0.060908187,-0.00070352445,-0.009598118,0.029696384,-0.033426274,0.0067969216,-0.0066542146,-0.022641595,0.007562653,0.010499522,0.044740237,-0.0029072815,-0.023722569,-0.04101227,0.040719658,-0.044367008,-0.012006846,0.009128828,-0.020037122,0.037463516,0.018243825,-0.006697305,0.01685115,0.025733111,-0.0042353375,0.009122613,-0.026624193,-0.08971121,-0.017279917,-0.05530099,0.009640446,0.0016346927,-0.0218121,0.013175584,0.0016435036,0.0076110116,0.0061620953,-0.024452206,-0.05142958,0.020926433,0.02013023,-0.03452188,-0.02108694,-0.0014710957,0.020517936,0.0013670842,-0.0084357755,-0.024782749,0.06765805,-0.05366983,0.018387394,-0.03020017,0.010404792,-0.010410276,-0.055618353,-0.029542068,-0.0015162192,0.031914968,0.010229276,-0.052312408,-0.014495395,-0.06718007,-0.0071846168,0.024718143,0.009543749,0.006803302,-0.0082521625,0.012653622,-0.028247302,0.040082194,0.0038301675,0.04293056,0.0047251508,0.042726487,0.020018173,0.0375064,-0.06362518,0.024425535,-0.005835175,-0.011347857,0.022607151,0.004436591,0.033669006,0.0049188538,-0.014954845,-0.039976686,-0.027143542,0.021993017,-0.06495247,0.04107684,-0.014019753,0.0012443318,0.03692884,0.008860101,0.04327829,0.001713844,0.019596191,-0.019603144,-0.04432084,0.0068222536,-0.010656063,0.11146489,-0.005811542,-0.022833498,0.03620608,-0.01128427,-0.0290764,-0.0053739776,0.02036954,-0.006391352,-0.002284539,-0.023267675,0.0015507357,0.011392136,-0.018292783,0.0012274837,-0.031861108,-0.0537696,0.014711217,-0.011905369,-0.045197517,0.0048521324,0.006916249,0.019828469,0.020323332,-0.0015226493,-0.018707924,-0.00529764,-0.053544432,-0.02086513,0.006767136,-0.010242675,-0.05234337,-0.029416911,0.08020895,-0.03249945,0.017618015,0.09571009,0.016690113,0.00979131,0.0042160708,-0.036020197,-0.0067873765,-0.042262763,-0.040080514,-0.029235976,0.05048896,0.052202646,-0.010691289,0.0009650621,0.026100276,-0.011944224,-0.0051687458,0.030771246,0.0047331094,-0.0057285675,0.031015161,0.037256747,-0.06414679,-0.05014673,0.01572228,0.02563444,0.027192427,0.0027370506,0.0114813745,0.06229611,-0.057921782,-0.0030838046,-0.04491764,-0.023151504,0.028403714,0.0036096647,0.05093055,0.019788552,0.058774937,0.013715553,-0.018030815,-0.005015805,5.44592e-05,-0.0073597473,-0.05514611,-0.008956902,-0.010166286,0.063312694,0.0098648695,0.048016377,-0.013765235,0.052179705,0.025319729,0.042289227,0.010585191,-0.024512267,-0.019098839,-0.028740587,-0.008268412,-0.0010302687,0.008699152,0.0033711686,-0.051451445,0.0055784923,-0.06405357,-0.05173346,-0.04247554,-0.017856462,0.024674287,0.017044999,-0.0011839602,-0.0328398,0.02783885,0.055622943,0.011826374,-0.027869152,-0.0056872875,-0.012495376,0.038011,-0.014693185,-0.027307615,0.01613148,-0.00861597,-0.02332191,0.021621807,0.021143984,-0.035131317,0.0070853448,0.00047768952,0.0107412245,0.02222063,0.048803885,-0.06163556,0.006400247,-0.0009884741,-0.027446806,-0.015603761,-0.12788518,-0.07342728,-0.031490445,-0.038919646,0.020552618,0.0019648036,-0.022027487,0.0051462813,-0.005493904,-0.007455206,-0.026426345,0.05208891,-0.0066946396,0.008901955,0.015573853,-0.01610341,-0.032636233,-0.011148586,-0.009277222,0.00076739624,0.09688941,0.0020310236,0.037997007,-0.024935866,-0.01625306,0.06892834,-0.011270356,-0.041862383,-0.03850992,0.02273232,-0.08196431,-0.016974676,-0.049016643,0.020914672,-0.013142074,-0.0028397073,0.0027149655,-0.0048152683,0.002206746,0.03318352,-0.0063221324,-0.010806184,-0.015390287,0.013443846,-0.008067397,0.04309001,-0.045970995,-0.030996261,-0.05566283,0.043458905,0.006005904,0.0042811953,0.02001643,0.022284303,0.010407373,0.004993693,0.009785867,0.037165683,-0.01595456,-0.008585979,-0.01236129,-0.04651941,0.019290732,0.03772867,-0.09189952,0.016580017,-0.016776532,-0.019186618,0.06477037,0.030490879,0.016974341,-0.021060463,-0.005352801,-0.0038418148,0.032519333,0.040446933,0.03040225,-0.012951575,0.005205317,-0.0035494724,-0.013421306,-0.043107014,-0.011503071,0.02758078,0.048046853,-0.0050771674,0.008302142,-0.024793636,0.016472751,-0.0056067286,0.009504081,0.05621303,-0.013753904,0.08568918,-0.0013530576,0.025576208,-0.019067872,-0.015071582,0.03337418,0.040834576,-0.020217642,0.028277883,-0.03987536,0.020350728,-0.060192134,0.015440177,-0.00020862023,0.00974076,-0.040873237,-0.033014584,0.02976319,-0.009327051,0.007328229,0.025209464,0.034237154,-0.039160155,-0.038579494,-0.0126073975,-0.043054715,0.033056363,-0.020869596,0.013298021,0.043533348,0.009568962,-0.0032512052,0.029471794,0.016124174,-0.036407903,-0.040421516,0.06067118,-0.02507422,-0.005617325,-0.022931032,0.026558727,0.030947264,-0.012688754,-0.02409343,-0.01220782,0.05367031,-0.022272209,0.049164396,0.01657524,0.026195267,-0.036755312,0.053810116,-0.029369757,0.053949755,-0.019705942,-0.01662463,-0.04355491,0.022049315,0.003132104,0.10487971,0.008722363,0.0013087838,-0.010142414,0.02512763,-0.013174378,0.045389105,0.027997637,0.019073324,-0.005930287,-0.0040940177,-0.04760517,0.03656126,-0.023523383,0.020105483,0.010436649,0.029325565,-0.029916152,-0.0035580522,-0.0034310108,-0.021341644,0.01825099,0.05970285,-0.037154406,0.03457642,0.027871361,0.041676942,-0.028584512,-0.026993204,0.003043923,0.00055049104,-0.00095012086,0.021977033,0.03230499,-0.033421304,0.042912066,-0.045561276,-0.015587775,0.021044038,-0.016567113,0.004229578,-0.02538518,0.025677944,-0.035623588,0.05753231,-0.00413543,0.052552678,0.026508195,-0.0074259555,-0.04199136,-0.048837513,-0.0034040243,-0.0012760905,0.046964627,-0.0053280634,-0.03130331,0.04896544,0.04831789,-0.007098887,0.0346312,0.013008588,0.04898038,-0.051218092,0.033757105,-0.051498353,-0.06044497,0.042779073,-0.012687629,-0.061025567,-0.006092293,-0.021479875,0.009112619,-0.048247278,-0.021745263,0.0063252747,-0.03210766,-0.02003907,0.024770515,0.05792016,0.016411467,0.0023113573,0.011281965,0.004058584,0.01093652,-0.008360394,0.00639903,0.029866848,-0.026170395,-0.030158829,-0.0046457555,0.0086494805,-0.039539844,-0.0049048215,-0.024271067,-0.03776564,0.006385962,-0.03246484,0.05595767,0.04138271,-0.046871435,0.035799485,0.0035741397,-0.01149996,-0.0241032,0.0022402883,0.008173908,-0.008837178,0.01163638,-0.030390203,-0.0021715253,-0.027447708,0.0053236866,0.009988752,-0.052411623,0.03804309,-5.1338022e-05,0.011701802,-0.02443207,-0.011097521,0.08197009,-0.012170487,-0.012680752,-0.028633114,-0.018707313,-0.024710411,-0.012430046,0.0058089057,-0.00015959803,-0.0052974164,0.0025047588,-0.020457767,-0.043382697,-0.014177782,-0.04709495,-0.015912358,-0.012919503,-0.01929684,-0.007943387,0.00016666607,0.028243307,0.07068846,-0.034303404,-0.01815571,0.0025854013,0.0134724835,-0.02336181,0.00225921,-0.025317747,-0.01501185,0.0023283968,-0.031808596,-0.050904494,0.045659862,-0.012399503,-0.07150785,0.037484925,-0.05870023,-0.057166975,-0.067306876,-0.0016215855,-0.0007247504,0.00816762,-0.0035769318,0.011103835,-0.012680963,-0.070739046,0.018993024,0.028843356,0.0389197,-0.044696875,-0.022092693,-0.08054497,0.009326438,-0.02641924,0.05626565,0.020117575,0.00050652877,0.013379719,0.041770875,0.031194307,0.0038975133,0.019587617,0.015655098,-0.018319342,0.022605537,0.012911537,-0.002069892,-0.016951837,0.038608205,-0.001419879,0.011275984,-0.012513722,0.034949243,-0.022263505,0.028402746,-0.021496227,-0.031098535,-0.0014952916,-0.046030596,0.044285323,0.044509258,0.003683387,-0.0043300427,0.011159376,0.006827696,0.015164728,0.0134593705,-0.045634065,0.0074594314,-0.03577963,0.022924257,0.08190751,-0.0067535876,-0.03901113,0.005897347,0.016934492,-0.016049014,-0.030631997,-0.0020077706,-0.029393809,-0.016991042,0.011023639,-0.0009895543,-0.02655868,0.009066668,0.040038295,0.0040983306,-0.020402214,-0.0018167143,-0.026835233,-0.09867062,0.07973542,0.04400116,-0.019844322,0.0055255927,-0.022177337,-0.043009903,0.0008426266,0.036507934,0.035074394,-0.020063192,0.0100139165,0.04425155,-0.011215376,0.029441187,0.044497583,-0.013313094,-0.029448519,-0.0053173336,0.019782959,0.0030442427,0.022086667,-0.0052913544,0.046543494,0.0037164649,-0.013399411,-0.025177686,-0.010814067,0.04291891,0.014624285,0.01253677,0.00973835,0.006808815,-0.01200177,-0.0049640033,-0.014998968,-0.028837752,0.0030862046,-0.0335753,0.038836356,0.017333252,0.0031790764,-0.0010188448,0.0016608189,0.011860633,-0.015841506,0.031566624,0.067119405,0.045597054,0.0068625333,-0.034760263,-0.047007177,-0.030797072,0.028207835,-0.0038361612,0.020013891,0.030821798,-0.004718186,-0.039550405,0.015267477,0.05223296,-0.0044397144,0.025843315,-0.008467951,0.03287578,-0.013560955,-0.0026425258,-0.00014283984,-0.0028071804,0.024917202,-0.005624554,0.016709043,0.013022782,0.016144238,-0.041976213,0.00020744264,-0.026630592,-0.028676359,0.033990506,0.036817506,-0.014751379,0.038111344,0.007759204,-0.05125622,-0.046947513,-0.023626972,-0.04089143,0.038174722,-0.025341442,0.045680866,0.0067148246,-0.010091721,0.04035619,-0.035373542,-0.03017641,-0.022778712,0.038136724,0.037466474,-0.015344998,-0.02630932,-0.023576004,0.007208669,-0.019988269,0.030717116,-0.0025049,-0.032019984,-0.03640278,0.009277801,-0.009440149,0.026295906,0.0139522515,0.012799427,0.0086242175,-0.014260458,0.008547497,-0.019260915,-0.026751492,-0.0041917376,0.040691562,-0.05662524,-0.048240043,-0.025814526,-0.011879279,-0.01675891,0.010840113,-0.0073896865,-0.01343782,0.030553779,0.0457399,0.009433303,-0.04938023,0.034233272,-0.004994369,0.045618135,0.024746707,-0.017737558,-0.021932617,-0.016429823,-0.03699195,-0.022427298,-0.013019477,-0.022342047,0.034438074,0.03692764,0.025526172,-0.006332587,-0.019234113,0.019775046,0.030280214,-0.019681202,0.0152875865,0.03248404,0.026955994,0.019219263,0.006140942,-0.0030360294,0.016612386,-0.0032855475,-0.028483687,-0.017674828,-0.054111667,-0.0043719346,0.020298975,0.0035804093,0.015544069,0.015234918,0.019044241,0.024972463,0.028127909,0.01492494,0.014401912,-0.0017815226,-0.00687414,-0.013909101,-0.007350641,0.018861204,0.01896311,-0.0015654011,-0.028203635,0.04661214,-0.03782628,-0.030610539,-0.02164289,-0.04283874,0.009385583,0.019083697,0.051151108,-0.009606067,0.020432446,-0.0036846783,-0.023347206,0.015918309,0.0015393734,-0.025055138,-0.03529742,0.023347443,-0.021751678,0.016551573,-0.0038762232,-0.021714514,-0.046761654,0.020572988,0.015953153,-0.03709379,0.0003067635,-0.03671701,0.012384634,0.012299277,-0.0038296639,-0.012529719,-0.036765743,-0.062029433,0.005614538,-0.0040887482,0.014746603,-0.020016734,-0.02049325,0.0135947205,-0.035119142,-0.00012306264,-0.0033810958,-0.022000853,-0.009461225,-0.009164753,-0.009060987,-0.01751652,-0.016565101,-0.03588533,-0.032875765,-0.0045505236,0.007947078,-0.02489756,-0.021441383,-0.006825423,0.051500235,-0.032570217,-0.0051045916,0.00853429,0.006463191,-0.0009123322,0.00078010187,0.018124865,0.010223137,-0.015594485,-0.0146849435,-0.04412366
对落后的恐惧,-0.008583686,-0.031319864,-0.013723257,0.080978066,0.01587878,0.01198293,-0.045819335,-0.012561166,-0.026137263,0.0051968554,-0.016367685,-0.037328374,0.04573797,-0.012991307,-0.04970873,0.073305406,-0.018744601,-0.045897815,0.02742889,-0.044948947,-0.021827485,0.017581252,-0.06480162,-0.0645974,0.025479432,-0.004833246,-0.040922496,0.05150396,0.029683603,-0.029529301,-0.07389934,-0.0039302357,-0.09965863,-0.056292117,0.014256015,-0.01755207,-0.015462237,0.00038256292,-0.006887795,0.07339335,0.01685176,-0.009701982,0.05038002,0.010708596,0.009406979,-0.04214273,0.0038244785,-0.0059375656,0.023362001,0.033069897,-0.03769989,0.0099515375,0.01335296,0.022553442,-0.005442209,-0.032629237,-0.020131055,-0.08681452,0.0032566201,-0.026846094,-0.061294205,-0.007051939,-0.04999671,0.06371554,-0.0029719605,-0.001466343,-0.017704286,-0.0338906,0.03349614,-0.038462237,0.00404415,0.041180357,-0.008376452,0.021941738,0.018211735,-0.04041799,0.03953861,-0.018073747,0.03152965,0.050756767,-0.005003728,0.04398783,0.02321227,-0.024559403,-0.02984332,0.020344663,-0.0070757014,-0.013153868,0.025077756,0.058652405,-0.020117281,0.08513536,0.009611862,-0.030205557,-0.043390386,-0.038678646,0.011750236,-0.02375736,0.008454837,0.012169432,-0.014028679,0.029699968,-0.023932124,-0.008755263,0.008731206,0.055653863,-0.06720223,-0.007726792,0.0042555807,0.00042728457,0.0065277745,-0.00232475,-0.008313949,-0.03162294,0.017029606,-0.00537865,0.014025949,0.020882113,-0.040927872,-0.02228803,-0.017860113,0.073272176,0.0059581185,-0.028935444,-0.021857584,-0.009353213,-0.053298373,0.005432667,0.010182465,-0.014047822,0.020922411,-0.0035583293,-0.013700844,-0.053382948,0.01272861,0.010094203,0.010719698,0.019243585,0.014529143,0.0025439493,0.007371695,-0.0372157,0.009612539,-0.021682737,-0.019272117,-0.0009584791,-0.015819885,0.022165393,0.03166894,-0.03800062,-0.0085399,0.0057869004,-0.03321964,0.020398112,-0.023127686,-0.0048689125,0.004024211,0.011342187,0.05802036,-0.0111563895,0.005253056,-0.006376546,0.007271707,-0.05306912,0.0132948505,0.010110745,-0.030164115,-0.030758474,-0.0016827364,0.008713205,-0.024964422,0.012515691,0.01607037,0.023507612,-0.004718927,-0.031064989,-0.040046986,-0.0154015375,-0.037490554,-0.004235234,0.024931163,-0.001731662,0.007469775,0.014118027,0.007521586,-0.03679012,0.0053091906,-0.02115553,-0.008434199,-0.030246455,-0.06255891,0.0077986238,0.009864634,-0.017791906,-0.014679424,0.0108794365,-0.006971515,-0.035236195,-0.0055163526,-0.015299336,0.0040338323,0.0464917,0.004106325,0.00715541,-0.039175276,0.0018993103,-0.024333717,-0.013967128,-0.009287125,-0.0041621877,-0.035465695,0.012796892,-0.019942408,-0.014123721,-0.026391285,0.016212035,-0.038204834,0.025465654,-0.01410717,-0.01616441,0.041619096,-0.0057631345,-0.06461681,0.0055237887,-0.009861197,-0.036281522,0.047326375,0.0023139587,0.03667345,-0.006094132,-0.014504321,-0.0028127762,0.015818741,0.0018568415,0.049962614,0.014070339,0.034530718,0.04556933,0.009234416,0.010323125,-0.00545959,-0.017230202,0.0012521864,0.01300296,-0.009641533,0.022685194,0.008830431,-0.0023929821,-0.026719611,0.023788568,0.043340053,-0.06650768,0.053137034,0.005180946,0.014202091,0.009936683,-0.027938668,0.041341674,-0.0084788045,0.0130963735,-0.030717185,-0.03805296,-0.008459978,0.0014342918,0.093296744,0.0114258835,0.009876766,0.027976224,-0.019213626,-0.01995442,-0.03337724,0.020695677,0.0066286637,-0.004695641,-0.027896468,0.012412035,0.008742932,-0.014824599,-0.003379916,-0.010067807,-0.09113385,0.027779004,-0.02374294,-0.010409024,0.0059964214,-0.007411161,0.008442795,0.007566358,-0.05881792,0.014628725,0.012098171,-0.04022247,-0.036321215,-0.009824043,0.02863496,-0.020247288,-0.057072,0.08676923,-0.020157965,0.029583434,0.09685136,0.006138183,-0.046967875,-0.009675231,-0.025533257,-0.02484804,0.029546851,0.014022184,-0.0080732545,-0.00872807,-0.0049474123,-0.008330192,0.012315632,-0.0026084636,0.00074156217,0.030935893,0.009969146,0.013942162,-0.007511477,-0.0020504417,0.006623415,-0.027772944,0.011042985,0.04073516,-0.00087348634,-0.020583153,0.07420058,0.0020826377,0.0012688796,-0.027104177,-0.024822257,-0.007695628,0.015970308,-0.0052398774,-0.030969162,0.03410711,0.041467655,0.026779026,-0.00012947334,-0.024615003,-0.0067082457,0.019021548,-0.0008938912,-0.039861035,-0.03393532,-0.09174761,0.034423582,0.06382553,0.0042132824,-0.028112754,0.010832793,0.025471197,-0.0069772126,0.00059975724,-0.051335216,-0.03849976,-0.03930591,0.006545212,0.0120710265,-0.0075679217,-0.01427154,-0.08743305,0.053829174,-0.048268132,-0.058473777,0.011444834,-0.022648303,-0.060895193,0.019760102,-0.016542336,0.0029479247,0.04038673,0.032522768,-0.02047371,0.049909197,-0.015137452,0.039846364,0.054617424,0.008597636,-0.057313997,0.059608813,-0.014609284,-0.0024691555,0.05766437,-0.014205477,-0.0067144516,-0.010316812,-0.016812695,-0.022762218,0.022236329,0.015512709,-0.03783003,0.006038363,-0.0028651564,0.017613964,0.022472572,-0.09700861,-0.05025173,-0.0327,-0.03153447,0.00021430808,-0.015480866,-0.03900279,-0.046423517,0.016570622,-0.028453568,-0.017585324,0.053211253,-0.012415932,0.016255185,0.024052711,0.0038485345,-0.035876535,-0.016066186,0.009150237,0.00846419,0.11286742,0.0096824765,0.06625261,-0.017700233,-0.031738613,0.038335957,-0.016938277,0.0055083632,0.013825963,0.041434158,-0.052865665,0.0008722377,-0.058505833,-0.016467165,-0.017906545,-0.00406304,5.65687e-05,0.021066735,-0.0028289019,0.0057406947,0.06913698,0.0136995185,-0.0363211,0.0033736995,0.010548158,0.054324895,-0.07013658,-0.027125364,0.011171509,0.008246687,0.033060744,-0.010039578,-0.031449176,0.0011143197,-0.0072105746,-0.04645765,0.04107701,0.010577964,-0.02728702,-0.0095768785,-0.0065687844,-0.01809688,0.012425525,0.047368266,-0.06161823,0.015463552,-0.02027646,-0.041682728,0.06654553,-0.0021611687,0.020636389,-0.024431026,0.015884448,-0.05100483,0.027277835,0.000599476,0.05311409,-0.023943055,-0.0037628857,0.016155707,0.016059604,-0.022413855,-0.033044297,0.06025899,0.054095756,0.013870639,-0.018788204,-0.015788209,0.001471743,0.019495308,-0.021328887,0.0055307294,-0.013657138,0.068442725,0.017123451,0.03782846,-0.009232746,-0.02549323,0.027791914,0.014497657,-0.04865043,-0.019126084,-0.068653196,-0.0074200747,-0.060290985,0.008508576,-0.005722425,0.02746549,-0.0012587013,0.013701561,0.022552246,-0.04619808,0.015656404,0.012501839,0.016282313,-0.027310474,0.024799535,-0.0012549211,-0.028483955,-0.009314702,-0.049434096,0.019561186,0.05276147,0.011877396,0.022458501,0.039814003,-0.00736251,0.00417304,-0.03662944,0.04101664,-0.016818104,-0.06695312,0.015562951,0.0030523436,0.07276813,-0.019766115,-0.03473535,0.018531643,-0.0072394744,-0.004695266,0.040760223,0.009315764,0.08855639,-0.070375696,0.004244263,-0.02870367,-0.0030873772,-0.0068464624,-0.000755753,0.041562278,0.0021153658,0.036425944,0.060098816,0.05633851,-0.03536315,-0.0069779474,0.04216681,0.015762713,0.0027003002,0.022887144,-0.0014230573,-0.017062787,0.023608394,-0.060686566,-0.015647484,-0.034303922,0.0040935087,0.034847576,0.036039986,0.00602155,-0.03307071,0.068668805,0.004293353,0.038911022,-0.009371473,-0.058185883,0.04101512,0.07195951,0.07436025,-0.09797408,0.0052347626,-0.027019426,0.010160574,0.017122636,0.008962205,0.031334,-0.024012212,-0.015690578,-0.020588532,0.009051046,0.00687774,0.0008029519,0.0045501613,-0.015058846,-0.013294483,-0.04130075,0.019636994,0.04289759,0.017151903,-0.0032925804,-0.017090512,-0.010178841,-0.032599784,0.0011968582,-0.003986419,0.05135087,-0.014403962,-0.006003872,0.040365282,0.050853007,-0.046503752,0.025202379,-0.03388614,0.03985399,-0.009046108,-8.213813e-06,-0.040774327,0.035106987,-0.0036148357,-0.012337581,0.009842521,0.0084088035,-0.021797333,-0.063292064,-0.015999557,-0.057487804,-0.0021958998,-0.031125149,-0.009507769,0.02521715,0.04350047,0.007862886,0.03410004,-0.03260955,-0.011810267,0.000832772,-0.00784903,0.0076670805,0.0315163,0.049926866,-0.02177335,-0.022801068,0.0019970774,-0.0077845477,-0.013340189,-0.025420342,0.025605116,0.01591727,-0.02265104,-0.006832231,0.023740469,-0.038915772,-0.0059543177,-0.025043683,0.0303627,-0.01847457,-0.012952307,-0.014117803,-0.04721227,0.015321465,-0.032342337,-0.013774741,0.017024284,-0.0010713054,0.0021294465,-0.0231523,0.0058247307,0.008997272,-0.03297922,-0.030705132,0.019411167,0.06259464,0.011072664,0.00080741034,0.00926921,-0.053365007,-0.05318233,-0.02707388,-0.014114373,0.008835537,-0.018551845,-0.022036895,-0.02156144,-0.07648973,0.006537842,0.00037991855,0.011124168,-0.016812125,0.027266694,0.00035189313,-0.013043004,-0.0032667543,0.02829951,-0.040158913,-0.027973887,-0.02435715,-0.013917703,-0.05566324,-0.0736875,0.041001804,-0.0068874606,-0.027454365,-0.027628908,0.01463012,0.04225034,0.06179388,-0.012682527,0.0010919899,-0.06383776,-0.05392216,-0.029090473,-0.021126114,-0.014202683,0.007795324,0.0040165726,0.019088104,0.05530463,-0.052725907,-0.0057856995,-0.009321666,0.055735208,-0.052811045,-0.042909037,-0.007970585,-0.0080588665,-0.044639457,0.050814867,0.015855826,-0.036383316,0.036494352,0.026497167,0.026474476,0.010600461,0.012320618,-0.011933614,0.007868292,0.012279644,-0.0014204127,-0.0030647642,0.041670024,-0.011967648,-0.008469117,0.0013863794,-0.038351588,0.025942689,-0.024136763,-0.008440496,-0.00022182763,0.029447963,0.00032291297,0.039019797,-0.009084433,0.07167161,0.0009624747,-0.011102744,-0.0025604456,0.021512708,0.015165898,-0.027219083,-0.054911837,-0.018689606,0.0016637476,0.041141782,0.036227226,-0.015646996,-0.018762825,0.008414624,-0.003669461,-0.012115272,-0.04923803,0.014490527,-0.036560807,0.018706523,0.040190022,0.014343477,0.004863757,0.017996721,0.106250845,0.00086363946,0.01037212,0.0013390557,0.0067506265,-0.03538674,-0.016541671,0.037043307,-0.020776713,0.052613776,-0.0058120694,-0.04053895,0.017837822,0.030987592,0.02968249,0.028387954,0.04578604,0.024719132,-0.027468357,0.014665388,0.009685714,-0.0092363795,0.045182936,-0.013684729,0.051029224,0.030190635,-0.0032864134,-0.007859127,0.020033719,0.017275631,-0.0064050304,0.012876015,0.012429534,0.021124415,0.028377978,-0.019783031,-0.0025822069,0.020394772,-0.002846592,-0.029113803,0.022698257,-0.03150531,0.04177699,-0.046325684,0.04542685,0.06703854,0.0710738,-0.017309563,0.058219828,0.019564219,0.006317685,0.058607068,0.03707344,0.035318185,-0.007076389,-0.033488877,-0.059873335,-0.033949263,0.015716571,0.031544797,0.007994981,0.032569923,0.018564915,-0.0020962276,-0.020413155,0.022344382,-0.0026383854,0.01585205,-0.009928923,0.019874297,0.00895758,-0.010873466,0.0273599,-0.019978825,0.053085443,-0.0010223273,-0.036843058,0.027621083,0.03196753,-0.051497065,-0.027266264,-0.008652516,-0.013170966,0.03402654,0.02650242,0.017986096,0.025905006,-0.07718303,-0.037648506,-0.015740417,-0.0013341844,-0.010326184,-0.011050097,0.0062336186,0.029660722,0.024432598,0.014248336,0.016292328,-0.014159947,-0.02314644,0.0022521603,-0.040167578,-0.0020324863,0.055933163,-0.013864563,-0.011814013,0.055024035,0.026067194,0.0045343535,0.046542928,-0.028690726,-0.05703643,0.03960678,0.0066730017,0.004060445,0.013508655,-0.009346732,-0.0073808893,-0.036810473,-0.004831612,-0.04003249,-0.046509773,-0.027969545,0.036243584,-0.00878298,-0.012962361,-0.035032954,0.023406453,-0.01941937,0.0005009595,-0.012641094,0.022769004,0.027770117,0.024726124,-0.03665199,-0.055852104,-0.013477581,0.0013751754,0.024532352,-0.016231306,-0.029138694,0.020840188,0.03179083,-0.0374659,-0.0132932095,-0.009819041,-0.024571354,0.0025515226,0.021118602,0.017501628,-0.010222316,0.014518466,-0.008408582,0.057458304,-0.06356394,-0.032310013,0.02627178,0.05874054,0.040172882,0.020268997,0.042681247,0.0038799762,-0.023263901,-0.032209378,0.009343559,-0.02438659,0.021449791,0.030859562,0.012575656,0.03917403,0.034253165,0.005580966,0.025679436,0.03415165,0.027269257,0.0047279447,0.0028463178,-0.0064152707,-0.030808715,0.0016088733,0.03462029,0.0454683,-0.012977787,-0.036555327,-0.017715842,-0.007463106,-0.020478487,-0.024808964,-0.043662805,0.029800845,0.028254205,0.022064155,-0.040448293,0.010136054,0.031183727,0.0023426162,-0.0038710113,-0.022010908,0.0012364986,0.022938205,0.043464884,0.02165997,0.0028801619,-0.0041497448,-0.017937377,-0.07212043,-0.04245549,0.0103089,-0.02639268,0.010234803,-0.010156953,0.035984986,0.052425332,-0.0078491485,-0.049386084,-0.013037415,-0.06412522,0.03219908,0.00127122,-0.008453544,-0.027721344,-0.03353529,-0.0090912,-0.015677363,-0.0031975685,0.0043241293,-0.05211954,-0.00035387548,-0.020166207,0.012750913,0.06174728,0.010103014,-0.020891983,-0.010289676,-0.037918795,0.016248008,-0.01822353,0.006393546,-0.031426966,0.031836063,-0.036213327,-0.026345216,-0.0064689056,-0.031098204,-0.04991779,0.036642026,0.072236374,0.000847974,-0.015962629,0.018077992,-0.023175709
