sub001,-0.032950073,-0.0074524353,-0.014191856,0.0028579175,0.033645216,-0.06161323,-0.013643989,0.02594679,-0.09786059,-0.054414034,-0.017768774,-0.023614451,0.025644256,-0.012919626,-0.060287934,0.098210566,-0.043177284,0.0019097418,0.045640863,-0.037885327,-0.048596136,-0.014507518,-0.067356065,0.009789658,0.0025006775,0.0472005,-0.065173015,0.042188324,-0.058765598,0.014277727,-0.046174716,-0.011577132,-0.04471955,-0.06083073,-0.027218549,-0.019597322,0.051214814,0.0067603523,-0.036778398,0.07622679,0.009365092,-0.00042802675,0.00918925,0.017951904,-0.02051873,-0.032270987,0.029602896,-0.010212605,-0.0007225226,0.01445213,-0.023601364,-0.074509695,-0.0033685348,0.0034104015,-0.0039716573,-0.014944525,0.002635525,-0.0713234,-0.0033284342,0.0005993413,-0.108649075,-0.00059738086,-0.0022719074,0.012474709,-0.0032370545,-0.0074823387,0.017766276,-0.017078687,0.061484404,-0.0686299,0.014363343,0.04336343,-0.012674878,0.008121894,-0.022916835,-0.042361174,0.0011985769,0.011612756,0.037962858,0.006459695,0.03180739,0.090891555,0.011170854,0.014823661,0.019795358,0.032408692,0.023456233,-0.027892504,0.02638825,0.038686134,0.056916118,0.09031212,-0.04381325,0.004438921,0.019259244,-0.043962277,-0.016293064,0.025236731,-0.019844742,-0.02544509,0.0003454266,-0.0011266044,-0.014378914,0.0025967844,-0.048502892,0.05682337,-0.08330172,0.00435615,-0.006502903,-0.01601187,0.004282841,0.008259559,0.0022053153,-0.023304064,0.0052952482,-0.012356504,0.0052409046,-0.0014107226,-0.003772706,-0.021704376,-0.012564344,0.043431308,-0.0027997503,-0.031683672,-0.0003089881,-0.017304175,-0.055413958,-0.003150751,0.030405236,-0.018260345,0.057671115,-0.07031361,-0.03200369,-0.04531075,0.01059044,-0.012389449,0.021487124,-0.021515533,0.022361722,-0.016264236,0.013132264,-0.032188185,0.0076161735,-0.03221822,-0.007892472,-0.0018146633,0.005325453,-0.009145108,0.021310074,-0.0039281915,-0.009345219,0.02369646,0.004943506,-0.015950972,0.0051919534,0.013328302,0.0067961407,-0.0023152237,0.03383409,-0.0010174803,0.00620774,-0.0022853934,0.00080367376,-0.061546963,0.013110112,0.022861298,0.03215165,-0.041552965,-0.067335606,0.008925848,0.005741319,0.018086964,-0.0109911105,0.042422067,0.009657067,-0.043490265,-0.05504993,0.011895752,-0.0027874387,-0.032049358,0.0004373328,-0.0069714948,0.009717722,0.00025509548,0.005506932,-0.046985906,0.018859616,-0.05051312,-0.033968072,-0.05396835,-0.03561814,-0.026754318,-0.043079473,-0.026961476,-0.013410475,-0.011417444,0.011841587,-0.043812793,-0.040087137,-0.024841687,0.008189938,0.06594106,-0.0013296388,0.044498865,-0.01650867,-0.021149019,0.018777428,-0.02847918,-0.02822861,-0.035136133,-0.010621027,-0.018584734,-0.10260306,-0.009919957,-0.023736628,0.028236104,-0.035337888,0.03972321,-0.0037704357,0.023253487,0.027111452,-0.018595207,-0.033107076,-0.0014526619,-0.011720407,-0.061845545,0.045917965,0.0026794723,-0.02081109,0.010423488,0.00029789275,-0.014636046,0.017188989,-0.0022440373,0.06276427,-0.010840211,0.041397784,0.023859175,0.017357528,-0.021149063,-0.017843513,-0.015806332,-0.01782955,-0.0029411688,-0.001277861,0.046103988,0.000871918,0.0061018844,-0.016629504,-0.022640767,-0.012874491,-0.07379911,0.00095765677,0.012536741,0.026254758,0.01274513,-0.018480064,0.013260021,0.0021160045,0.021174615,-0.0008077061,-0.031980388,-0.039659806,0.026734004,0.08549882,-0.007565272,-0.0013498116,0.009866559,-0.028386783,-0.015620224,0.010936808,0.028525727,-8.7842855e-05,0.00037263555,0.014551316,-0.013236638,0.011014875,-0.039802242,0.024708174,-0.007880227,-0.074731894,0.011172797,-0.040677056,-0.060551323,0.0076670805,-0.0057346113,0.03132648,0.027040526,-0.030969946,0.014609066,0.0012234272,0.03468015,-0.06319765,0.029467111,-0.023211805,0.008523213,-0.041999012,0.08423586,0.025511906,-0.014297514,0.0774729,0.03937374,-0.020877624,-0.029215792,0.027164474,-0.013616806,0.049694687,-0.013124934,0.011888295,0.06246162,0.01653276,0.010422882,0.0053661168,-0.050931953,0.013181348,-0.0057648,-0.022933695,0.014398049,-0.034981735,0.01809751,-0.07216185,0.0011135816,0.058949545,-0.015599629,-0.029124722,-0.032356706,0.07688567,0.006371529,-0.039145067,0.008788594,-0.021015896,-0.019460859,0.054121558,0.0037621483,0.024777131,0.04011836,0.0134294825,0.013953265,0.039238457,-0.0032314598,-0.0076628323,-0.005283355,-0.014939881,0.022964716,-0.020025585,-0.028470013,0.02077397,0.072734326,0.022096911,-0.003810812,-0.005299065,-0.0014038109,0.0057015712,-0.054220192,-0.09270772,-0.05162688,-0.02060933,0.041098595,0.017230395,-0.009268921,-0.045004826,-0.108297564,0.026754448,0.020321954,-0.031768095,0.021439083,0.0028329047,0.0008038767,0.026957013,0.013792428,-0.04696948,0.01572982,-0.020856353,-0.054556094,0.027497046,0.031106485,0.026524227,0.0019021599,-0.003782747,0.03827391,0.011580751,-0.026548361,0.031834513,0.010134643,-0.012890085,-0.030679436,-0.008801208,-0.04360034,-0.025524441,-0.008211647,0.0061888737,-0.026302932,0.05136324,-0.0223154,0.029973947,0.012198671,-0.06564001,-0.014603394,0.010227301,-0.030967131,-0.017581802,0.022755073,-0.060562275,-0.06154999,-0.032039635,-0.03470675,0.0028800163,0.052579574,-0.053709507,0.052027594,0.043130577,-0.020460231,-0.031613108,0.0060545383,-0.070178315,-0.02999485,0.06480423,0.0030479785,0.047231022,-0.0055523664,-0.019904481,0.01601487,-0.03537686,-0.029739039,0.0032975923,-0.0076193856,-0.06355728,-0.006713065,0.026091266,-0.009348763,-0.0183398,0.0053946064,0.009698905,0.016706845,-0.038095914,0.006811,0.049670596,-0.022173483,0.02330007,-0.0011519691,-0.01649294,-0.004557297,-0.044511583,-0.024804749,-0.0010524857,0.035336748,-0.046185374,-0.04821996,-0.037159257,-0.03970458,-0.014944511,0.007819203,0.039452262,-0.05400102,-0.019222269,-0.040378947,-0.02155852,0.025640106,0.042128544,0.052074596,-0.026169462,0.0052785855,0.049161702,-0.017635081,-0.006374144,0.021047067,0.04514093,-0.027026149,-0.0031968565,-0.03835295,-0.05027508,-0.031154182,0.028504597,-0.01694072,-0.031192414,0.0057572317,-0.015355962,-0.08247016,-0.021195382,0.09158373,0.018686088,-0.0068208175,-0.021738583,0.03078758,-0.011546905,-0.0025694612,0.0030514835,0.010438194,-0.021421669,0.046492066,-0.006390342,0.03784854,-0.030954113,-0.026660366,0.0050958404,0.019652292,-0.044401415,-0.015659528,-0.105173685,-0.009590912,-0.038407177,-0.0039576236,-0.002509072,0.0013854007,-0.06911888,-0.008029092,0.0070438664,-0.04372517,-0.05574643,0.014800047,-0.012652536,-0.010061796,-0.02209608,0.025762735,0.005473953,-0.011901771,-0.012983997,-0.021323692,-0.049082458,0.00022758434,-0.024154242,0.03310524,-0.018464832,0.019802013,0.0064391224,0.086205505,0.012459217,-0.043142617,0.038367722,0.014280656,0.023102267,0.036490906,-0.010404933,0.03612847,-0.019667696,0.020489201,0.019228801,-0.045268297,0.07263915,-0.030406894,8.836838e-06,0.0002968083,-0.009804084,-0.038067352,-0.014889381,0.007009769,-0.0037194614,0.0023817809,0.047682945,0.040616024,0.044592135,-0.053574134,0.04665138,-0.0010400129,0.024860987,-0.015025372,-0.00049326615,-0.00081200124,-0.0043471633,-0.060719088,-0.022850394,-0.014282693,0.004159506,0.01566685,0.03039425,0.055564098,-0.02524111,0.057144746,0.045886744,0.027124036,-0.025621312,-0.06861961,-0.037834976,0.0728825,0.002219391,-0.06905132,-0.014156106,0.02538672,0.040727593,-0.0075048814,0.016481422,0.029856887,-0.013488023,-0.013522059,-0.022202767,0.0064612366,0.032940958,-0.019430863,0.008253227,0.013244262,0.015863687,-0.020380141,-0.01475688,0.017453313,0.055089332,-0.017800432,-0.015889622,-0.0061741704,-0.019528233,-0.021956354,0.006162036,0.0028715888,-0.007009797,-0.009045034,-0.012388138,0.0016136523,-0.059374094,-0.048438538,-0.023277827,0.041545443,-0.016225412,0.002146203,-0.05908851,0.00913527,0.006603344,-0.047099434,0.0017401156,0.017619725,-0.0027166621,-0.059593484,-0.0317905,-0.050624512,0.0107869385,0.04301674,-0.020184368,0.030120254,-0.01328528,-0.03626244,-0.008205661,-0.02148795,-0.044986576,0.024125861,-0.01132263,0.028808894,0.042278305,0.0413636,-0.00048244544,-0.023572756,-0.02689159,-0.026963284,-0.052788984,-0.011160294,0.008356091,0.029749162,-0.00896194,-0.0055327066,0.015142531,0.014535066,0.020789426,-0.0368265,0.03858025,-0.0034448053,0.0075988043,0.015530237,-0.04583035,0.026875349,-0.040324837,0.009863112,0.04183482,-0.04211735,-0.007825413,-0.052728664,-0.0139452,-0.010272365,-0.041790657,-0.010233569,0.01671602,0.024919951,0.0074260063,0.018442972,-0.000479708,-0.044195052,-0.020604586,0.008749001,-0.015664078,-0.028997961,-0.043850876,0.009638815,-0.035944074,-0.03996867,-0.01784497,0.009622459,0.01092924,-0.025412282,0.0155425705,0.00041273492,-0.02089386,0.039019957,0.011597142,0.008497333,-0.018144762,0.0031989836,-0.025045501,0.01868968,-0.05547831,0.017190011,-0.026900213,-0.02422598,-0.010624034,-0.022446545,0.0005320566,0.021204842,-0.04499085,0.010389438,0.0037812828,-0.04461288,-0.013309852,-0.0068794778,-0.03224404,0.0070100864,0.053245306,-0.019474776,0.030594757,-0.015025791,-0.014155742,0.041438688,0.04707311,-0.028593162,-0.03085149,-0.015972657,0.009732311,-0.039219137,0.044067316,0.035201635,0.002473289,0.016030349,0.029484028,0.04357906,0.020813696,0.017569084,0.040718414,0.01854705,0.0010333132,-0.006178204,0.022595538,0.007110437,0.061941378,0.005773615,-0.02047919,-0.043160353,0.052022085,-0.05347223,-0.009997305,0.0061548264,-0.032259442,-0.0013763395,0.013011798,-0.015569079,0.049102426,0.008275594,0.058072407,-0.033756122,0.04471615,0.0051276158,-0.007314701,-0.017670214,-0.017979916,0.0010668896,-0.016208867,0.043736428,-0.026009643,-0.056951217,-0.010257763,-0.006232609,-0.01022015,-0.0236854,0.0501948,-0.06375767,0.018653285,-0.006974173,0.016822098,-0.005924747,0.020130077,0.060554568,0.0054302723,0.008643057,0.028213898,-0.009585529,-0.006410475,-0.004516804,0.005991794,-0.03956421,0.04017985,-0.020160183,-0.044333834,0.037230253,0.026902521,0.0007563214,0.026555497,0.016095838,0.015949138,-0.016098507,-0.006730986,-0.0061192457,-0.02675774,0.03493858,-0.041840058,0.014823738,0.012680333,0.011076446,0.021502037,0.019962015,-0.003615439,-0.0033823384,0.006463579,0.02103594,0.00018781568,0.0092002405,-0.0029781794,0.011052369,0.037850518,0.007980612,0.05579694,0.05161977,-0.01807251,0.038969275,-0.025192989,0.052926555,0.028783489,0.041844796,-0.008238738,0.06270844,0.028028257,-0.004724218,0.023096042,0.045938227,0.020925136,-0.0103700785,-0.022779414,-0.033444684,-0.010465537,0.0023292361,0.021103524,0.022653306,0.041694216,0.040559385,-0.0032549556,-0.031895332,-0.0068304315,-0.019620167,0.042735588,-0.045638073,-0.01450002,0.007705224,0.009125412,0.002790508,-0.042810887,0.013858181,-0.009147939,0.019660458,0.05191073,0.0090257,-0.032080524,0.02909617,-0.040699467,0.016128052,0.029536916,0.03746019,-0.024119217,0.025265558,-0.039245524,0.010386911,-0.04026216,0.0073129837,-0.0059258393,0.023270652,0.013455402,0.039161894,-0.0001478059,0.003663762,-0.0014677948,0.03644797,-0.026621364,0.040442497,-0.022239132,0.034225233,0.009433813,0.015330427,0.010799717,0.05312133,-0.01074428,0.00145711,0.007631918,-0.043059025,-0.054132253,-0.0029034559,0.0036658058,0.005079505,-0.008040729,-0.017824475,-0.012352738,-0.03187085,0.0016784763,-0.004224695,-0.031146018,-0.06096768,0.047247097,0.009077719,-0.007002045,-0.06509789,0.0005992002,-0.05408156,0.0055920887,-0.012389301,0.0043226257,-0.0020622031,0.029341333,-0.019501258,-0.04326258,-0.034494605,-0.0032501009,0.045370746,0.015189789,-0.010206935,-0.0315089,0.005302569,-0.025738306,-0.015522354,-0.009507814,-0.039184935,0.064789854,0.01471514,0.01727849,-0.0118876,0.049758513,-0.0152485445,0.02877315,-0.026301371,-0.016897785,0.026888011,0.03429814,0.00065160665,0.005276463,0.000821135,0.004644253,-0.048950274,0.003524038,-0.034882195,-0.019493535,0.039537158,0.00535849,-0.019516932,0.034000643,0.020177558,0.02885229,-0.008095885,0.016051656,0.051953923,-0.002014351,-0.023269549,-0.0022645767,-0.01636636,-0.025140712,0.016127778,0.023913993,-0.0049774363,-0.025776727,-0.037779085,-0.0045295637,0.026402805,-0.027598368,-0.049390163,0.0037104222,0.009517204,0.020798633,0.0048623336,0.018736059,0.06083565,-0.005189729,-0.0025633548,-0.004956158,-0.052800033,0.017055677,0.022880029,-0.018120551,0.026845915,0.029921424,-0.012199674,-0.034461666,-0.0288161,-0.040229768,-0.03843286,0.027023502,0.048836444,-0.007123135,-0.018898606,-0.026033206,-0.016069252,-0.00014789238,0.010261447,0.03843342,0.013251365,-0.034078404,-0.036040016,0.041749567,-0.013095019,0.009107909,0.035422932,0.017935013,0.0065040067,-0.012838556,-0.023575297,-0.032564715,0.010738709,-0.027318357,-0.0029576607,-0.042431686,-0.016829068,-0.007674009,-0.011560216,-0.026761152,-0.040118966,-0.0048090797,-0.022252768,-0.029272957,-0.015584529,-0.046650525,0.0013899698,-0.02675709,0.0423302,-0.0072419015,-0.0120255705,0.0054250127,0.0068301633
sub002,-0.035050973,-0.093173966,-0.014507722,0.024777807,0.0022621623,-0.02942773,0.048267167,-0.00023137801,-0.042223316,0.037744705,-0.0062671714,0.011449576,0.022488559,-0.012284504,-0.060650382,-0.014785228,-0.0056887413,0.0027713838,0.00801365,-0.028680928,0.011383377,0.046563055,-0.03627267,-0.06588222,0.05917915,0.04461242,-0.039523683,0.079749316,0.05715014,-0.042241257,-0.11579277,0.0092311045,-0.07222093,-0.05543184,0.01572297,-0.02045363,-0.018047595,-0.037160397,0.027843345,0.06409818,-0.062357735,-0.029650835,0.0945822,0.040161442,0.0063966657,-0.074612275,-0.030917855,0.02177826,0.046085075,0.0053042187,-0.0011851129,0.014608817,-0.020176757,0.031047573,0.015430333,0.03067912,0.00217359,-0.030429222,-0.0014582322,-0.014521841,-0.07029581,0.038193796,-0.08358035,0.026112175,0.0021346642,0.03573085,-0.008089335,-0.006065788,-0.02353336,-0.022243481,0.014730847,0.03787018,-0.03976399,0.034890186,0.005713391,-0.040168073,0.019843975,-0.0080967825,-0.00744061,0.0026923383,0.017080264,0.017175697,0.060902398,-0.024760853,-0.0110624535,0.03772141,-0.029388187,-0.0047488688,0.021327829,0.002062032,-0.027996803,0.04022582,0.0035836077,-0.047330167,-0.0062558413,-0.02099515,-0.005164775,-0.04657542,-0.022746421,0.011096971,-0.035924956,0.042891752,-0.08949313,0.0051868595,-0.051724784,0.03218023,-0.102507316,0.019938791,-0.0068054004,0.02219713,0.015508298,0.03954061,0.016705286,-0.006998975,-0.010302322,-0.06289927,-0.0037536647,-0.01570912,-0.011111527,-0.050721522,0.0014708634,0.030210778,0.012435497,-0.007858311,-0.010565539,0.016019711,-0.039880656,0.0017586556,0.003758102,-0.023150159,0.0013289658,0.020814855,-0.0029063746,-0.03713478,0.0136849275,-0.0044415155,0.0041605965,0.0071889125,0.007869858,-0.025645329,-0.041528873,-0.03564399,0.012047619,-0.04142505,0.00400845,-0.007788991,-0.012077283,-0.0062167062,0.040907502,-0.0020834089,0.0029241967,0.03533215,-0.049300577,-0.020383304,0.04038873,0.010168998,0.032362677,0.013128528,0.01478654,-0.0032647513,0.0038346667,0.018918104,0.012075043,-0.030098043,-0.004824591,-0.004189162,-0.020569714,-0.024089653,-0.01798794,0.0037895688,-0.032638803,0.03897706,0.0039868187,-0.015343742,0.023813216,-0.020016061,-0.06771009,0.04454752,-0.00035066312,-0.019353336,-0.0067455834,-0.016492961,0.019786397,-0.0045472,0.012437394,0.02014484,0.021009741,0.014585561,-0.009786977,-0.010569304,-0.03874195,-0.022026522,-0.009875366,-0.01596841,0.008326634,-0.018830976,0.043624472,-0.03176834,0.021016557,-0.026369007,-0.03633095,0.017408144,0.020041388,0.014828544,-0.035188045,-0.045944255,0.029584907,-0.045860495,-0.039928444,-0.04438948,0.014238752,0.03961622,-0.06622325,0.017514328,-0.011633708,-0.028798813,0.018199855,0.07001382,-0.025688041,0.010923044,0.06617681,-0.013765309,-0.014287192,-0.006675186,-0.06902774,0.012972702,0.03718508,0.018581973,0.04780305,0.01872865,0.00697756,-0.005240135,0.038298782,0.014550979,0.05726277,0.011670685,0.020336647,0.06117605,0.011924229,-0.05443602,0.0077019646,-0.015123549,0.0063519175,0.009261285,-0.026745679,0.018250465,-0.011398047,0.030058047,-0.01576626,0.059705056,0.037500843,-0.04639292,-0.058327787,-0.02663739,0.0026405915,0.015641112,-0.022284785,0.0277496,0.0020353612,0.022977674,-0.0032758517,-0.027347898,-0.025643744,0.024437739,0.07887794,0.008510704,0.010208025,-0.0027360744,-0.034741417,-0.010277666,0.02319079,0.012826169,0.035614207,-0.020002011,-0.035807252,-0.025516706,-0.0025566935,-0.038339633,0.015724825,0.04545306,-0.026550375,0.01806993,-0.026017034,0.0013336987,0.030415634,0.007922299,-0.0013776098,0.001887265,-0.013339643,0.0089460695,-0.013306111,-0.015316053,0.002531295,0.058598164,0.026688693,-0.03861984,-0.011645159,0.054658085,-0.047580466,-0.007850797,0.059942063,0.014789555,0.018250901,-0.036691062,0.004053968,0.0141213285,-0.07352169,-0.06474911,-0.0148742385,0.02914968,0.053174004,-0.032941025,-0.002212505,0.03289368,-0.009954659,0.027349979,-0.016484996,0.040116623,-0.006435054,0.00226104,0.00893744,-0.066415444,0.0045299507,0.0516413,0.013987563,0.0074747433,0.02044052,0.037512705,0.035320252,0.026346538,-0.031158924,-0.0051513743,-0.025362965,0.053181693,-0.019310333,0.061507225,0.018433314,0.0066041616,0.06631755,-0.041534908,-0.042222306,0.08198522,-0.033159062,-0.10092751,-0.008358801,-0.061987802,0.02561836,0.012548775,0.016583545,-0.048406336,-0.054977614,0.0026192856,0.016848655,0.028793518,-0.049346056,0.005361536,0.005991555,-0.011051529,-0.03531665,0.02549454,-0.020405201,-0.07529996,0.018240932,-0.026116857,-0.036990218,-0.06839041,-0.024214452,-0.019472307,0.045789603,-0.04524705,-0.032690834,0.028456304,-0.034100175,0.008123073,0.035961013,-0.030281661,0.020532377,-0.029633723,0.029926019,-0.07848481,-0.0030920382,-0.024394523,0.0381481,0.047910906,0.022358153,-0.032625955,-0.0074865287,-0.0060482617,0.006694858,0.006805829,0.010944162,-0.02898623,0.02414117,-0.009604154,0.015596875,-0.039604846,-0.10804521,-0.0060995487,0.0027745578,-0.004712341,6.797861e-05,-0.013898547,-0.03513527,0.03731606,0.019953554,0.010732116,-0.019959528,0.09828612,0.0135122,-0.03739982,0.0030377407,-0.035056792,0.0022147456,0.04005472,0.033593845,0.0073831375,0.07323804,0.042694204,0.016359007,-0.03675254,-0.030497395,0.018566886,-0.023435451,-0.040025946,-0.028062893,-0.040969357,-0.07084204,0.004371882,-0.057135772,0.01730022,-0.0497188,0.010636923,-0.005114812,0.032368988,-0.036656223,-0.02042955,0.043232515,-0.048300292,-0.019082505,0.0013006128,0.02087826,0.07117037,-0.026592618,-0.0006966266,-0.011669158,-0.0027602306,-0.047185503,-0.0153681785,-0.019801345,0.038426805,-0.0083261365,-0.008348057,-0.011980064,-0.0078842705,-0.014963545,-0.032639403,0.03543451,0.023051618,-0.02521354,0.02764623,-0.07517009,0.0017034939,0.0153555395,-0.021443963,0.023389634,0.014849609,-0.00048648808,-0.039936762,-0.03335673,-0.014995251,-0.00793509,0.017412208,0.07225582,0.0070082624,-0.00038540614,0.021216244,0.0039714454,-0.008007805,-0.03208624,0.0371913,0.011614874,-0.0091822995,0.026728423,-0.0028996565,0.027304491,0.0026517243,-0.006210211,0.035886664,-0.021516288,0.08228683,0.02488677,-0.006259788,-0.012412847,-0.032331053,0.024236778,-0.026020942,-0.0086873155,-0.040903356,-0.036966316,-0.010501963,-0.024523595,-0.039944373,0.051136337,0.020007968,0.0014031691,-0.0018841367,-0.00022994047,0.028969862,-0.018796982,0.027648473,0.017823521,-0.015403152,-0.030740999,0.0029554598,-0.021796029,0.055323746,-0.040678933,0.021584548,0.033006527,0.031338524,0.028199827,0.0229114,0.032461733,0.020315984,-0.0023503064,0.07821679,0.003510683,-0.029263088,0.017458025,0.03505135,0.017697595,-0.043409098,-0.016493887,-0.00678723,0.020775331,-0.01850428,0.07355364,0.019025663,0.029848428,-0.02208866,-0.011588071,-0.00555385,0.019059908,-0.022680303,0.047950443,-0.012484668,0.035307378,-0.02073865,0.0024922646,0.04797616,0.013537326,-0.012056271,0.043065857,-0.048451114,0.0503093,0.01334708,0.022665348,0.012628067,-0.023487214,0.0075775203,0.014768155,-0.02661863,0.05007423,0.017371971,0.03303366,-0.034589887,0.026787844,0.02121652,0.009602146,0.043225486,0.03315341,-0.045582034,-0.0070642387,0.0058981115,0.03500233,-0.058798306,0.008926311,0.028843079,-0.0025886295,-0.051007967,0.0022830279,-0.022989426,-0.00941205,0.015471071,-0.024738008,0.004393779,0.033017777,-0.01933352,0.009776465,-0.010431791,0.0177308,-0.024083281,0.022930274,0.0073871757,0.072662495,-0.0005395347,-0.021752609,-0.004921174,-0.014509925,-0.016811801,-0.0068849875,0.034431852,-0.01012233,0.037939854,0.031874206,0.0398534,-0.057602342,0.039835,0.0068121552,0.024651365,-0.036539763,-0.022357753,-0.024360908,-0.03465811,0.023237918,-0.01113767,-0.046049964,-0.013945354,-0.036086563,-0.020129712,-0.01710764,-0.035832956,0.036618564,-0.008510618,-0.010744805,-0.011388489,0.05829649,0.039390046,-0.007447826,-0.02263581,-0.0382229,0.02821276,-0.02229206,0.00065861695,0.009023707,-0.012554036,-0.007667453,-0.003297242,-0.003128934,-0.03477852,0.017383253,-0.03153486,0.033045802,0.015144353,-0.055496976,0.04103242,0.048199307,0.006447839,0.0067463294,0.0048052385,0.047748227,-0.002980297,0.004618749,-0.019363044,0.015028658,0.022437003,-0.0021228022,0.0046567917,0.05546894,0.0047366684,0.008116816,-0.026365763,0.010268488,-0.009851689,0.023717215,0.01732788,0.056832667,0.07634899,-0.0077421917,0.038140874,-0.0037760509,-0.033708163,-0.035012584,-0.02737905,-0.018280072,-0.02956085,-0.04080484,-0.015143466,-0.042224318,-0.04410849,-0.041491006,-0.018284962,-0.009573817,-0.0091997655,-0.010565857,0.030880393,0.012729489,0.05575172,-0.0041931085,-0.061499976,-0.0014703292,-0.023117064,0.009798914,-0.020692272,0.010911702,0.0060815997,-0.008948298,-0.020530857,0.016190218,0.013845785,0.004751523,-0.019229138,-0.04574669,0.0064172302,-0.023563934,-0.028074743,-0.03854212,-0.03307072,-0.029455042,0.0393343,0.03795269,0.03714161,-0.033902973,-0.01739516,0.035902675,-0.02167367,-0.020029226,-0.027921323,-0.03481334,-0.026089618,0.008642417,-0.049466867,0.0016926466,0.008228049,-0.017107075,-0.021592665,0.030474463,0.044177204,0.027151579,-0.022678401,0.0038234964,-0.012340029,0.050576523,-0.015124531,-0.014604734,-0.023996929,0.0408841,0.021858584,-0.01171497,-0.024098689,0.04123328,-0.0133315455,-0.02751913,-0.0032139784,-0.0048263147,0.0122677395,-0.007842603,0.018186713,0.07523167,0.0015109112,0.028428625,-0.0024343843,0.012637575,0.0019843543,0.0060334154,-0.059732765,-0.0436949,0.009331128,0.020515656,0.05714811,-0.019441977,-0.03546408,0.022832133,0.015047208,-0.02269099,-0.021440735,0.02636606,-0.03244917,-0.0048851,0.02273629,0.0071058767,0.022881825,-0.019627007,0.043865588,0.022356251,-0.013229253,0.056916405,-0.023447357,-0.016215432,0.03135728,0.030981736,-0.0024626385,0.05310171,-0.0074281595,-0.041457992,0.028342467,0.04272683,0.022523044,-0.03641473,0.030523697,0.021456031,-0.030120509,0.023697734,0.025010519,-0.03822512,0.03145011,-0.021114366,0.00037568196,-0.039922785,-0.010304617,0.015000402,0.06063822,0.041076373,0.010900943,-0.02406119,0.000759748,-0.026083658,0.028644625,0.025949601,-0.043835353,0.017045915,0.014498609,0.027831674,-0.0004937621,-0.100687385,0.0036517403,-0.02475793,0.029896673,0.01828534,0.036587164,0.016880075,0.027620245,-0.020856757,-0.03319236,0.015044477,0.0031071494,0.016292436,-0.0042395955,-0.032422177,-0.007234667,-0.022219548,-0.0044865343,-0.0066426047,0.017471543,0.08360291,-0.05112674,-0.038104955,0.022889465,0.03488647,0.018094644,-0.0021207482,0.002224461,-0.0044816486,-0.018853584,0.03359387,0.029770782,-0.021750836,0.024976028,-0.01516764,-0.014394742,0.017571665,-0.0050797965,-0.05549711,0.02567369,-0.03706223,0.011864571,0.03652008,0.022113692,0.0008522206,-0.005295245,-0.014555491,-0.036059752,-0.0455861,-0.018000297,-0.01821583,0.06754067,-0.02894483,0.04358953,0.009055083,0.0063965577,0.010552052,-0.032321922,-0.04685241,-0.0012763381,0.01385723,0.055738598,-0.031000504,-0.015425857,-0.011564064,0.020446375,0.0022776627,0.045515973,-0.018841268,-0.027836135,-0.08222704,0.023545874,0.009085749,0.028873568,-5.069341e-05,0.029630788,-0.031431694,-0.0020844685,-0.03850552,-0.0009759942,-0.05734818,-0.0021184818,0.031547166,-0.024224613,0.020926356,-0.05313512,-0.0032987052,-0.0062044812,0.008478397,-0.05027778,0.0040320507,0.012977148,-0.02131588,0.003209053,-0.038047,0.0046693427,-0.010329691,0.058624692,0.06885106,-0.02110077,0.014253383,-0.022133175,-0.040385704,-0.017115233,0.002490469,-0.011876621,0.030673292,0.058247544,0.040819477,-0.01952244,-0.0005100375,0.003145121,0.014038029,-0.02437394,-0.007952735,0.07868048,-0.016256036,-0.0044271667,-0.011345602,-0.021366386,0.030199766,-0.024567058,-0.029956382,0.0016982611,-0.029507214,0.024311367,0.037287585,-0.022349304,0.041887194,0.027252026,0.024365554,0.009260735,0.009434992,0.011964226,0.040193442,0.01938729,0.014245807,0.023382246,-0.009040428,-0.03037853,0.015941443,-0.03548441,-0.031543277,0.0129204,-0.033053912,-0.016512634,-0.009598445,-0.0039740386,0.06255936,0.0025188942,0.038926527,-0.022626216,0.0272443,0.029349325,0.0124246115,-0.022430295,0.032832097,-0.015101638,-0.010800977,0.042752393,0.020345462,0.019555943,-0.026623607,0.0039886036,-0.033126093,0.022986861,-0.009818748,0.0034087761,-0.0010261904,-0.029846922,0.0002927277,0.023303214,0.0042896997,0.022086931,-0.03447701,-0.046677127,0.034143772,0.0023843045,0.025843823,-0.02575672,-0.015518223,0.017836817,-0.034068942,-0.039210264,-0.030542715,0.010082104,-0.032707937,-0.023314646,-0.014045335,0.008170395,0.019284653,-0.008759584,0.018010486,-0.0068706134,-0.0066144173,-0.0038043999,-0.0024678071,0.004251804,0.034181092,0.009666085,-0.0143961,-0.0014082494,0.0119799925,-0.0058569605,0.021282028,0.029851513,0.0008025286,-0.02924757,-0.027826324,-0.027264383
sub003,-0.011221458,-0.06394567,-0.014517083,0.040771436,-0.0022098373,-0.018160315,0.02622903,-0.020558458,-0.060986876,-0.026108088,0.030965907,-0.032553036,0.026890296,-0.013288404,-0.059644006,-0.0055883774,-0.03710039,8.994474e-05,-0.024760794,-0.012449199,-0.036688697,0.009330454,-0.0875769,-0.0888575,0.00051890605,0.012503329,-0.037623983,0.039552905,0.030400118,-0.05664557,-0.07896005,0.03168572,-0.101953045,-0.04613741,0.029117001,-0.020076118,0.023358695,-0.01625933,0.02710006,0.09079752,-0.03344117,-0.01218123,0.05388973,0.018484075,-0.029141963,-0.08650459,-0.02372912,-0.0116719175,0.013252375,0.013178606,-0.025000948,-0.012111128,-0.01816776,0.00902164,-0.011368826,-0.0044438415,-0.019756,-0.032668967,0.021320255,0.0060464744,-0.10397443,0.018772658,-0.029148394,0.069840536,0.053283364,0.0010245703,0.01296431,0.03857978,0.033600528,-0.018438503,-0.013168075,-0.034813114,-0.016206477,0.013881214,0.01743928,-0.029582802,0.008791724,-0.009862676,0.035917666,0.007527878,-0.0041874256,0.0014146898,-0.024320098,-0.018262068,0.00078798376,-0.012112063,0.028014172,-0.060694978,0.047232427,0.05019758,-0.009544881,0.091007195,-0.03188822,-0.012713866,0.020960735,-0.013300915,-0.016967323,-0.05671465,-0.029705442,-0.016471304,-0.030798215,0.024086291,-0.043290198,-0.0022800444,-0.07089703,0.050854094,-0.05880905,0.06788218,-0.0066260025,-0.019118061,0.009336398,0.023954252,0.03513934,0.0268156,0.03815345,0.013349102,0.00136404,0.01637376,-0.01911381,-0.025055388,0.019984882,0.06421651,-0.005871231,-0.011745304,0.004119502,0.0077664177,-0.03898992,-0.03253209,0.023872942,-0.026848206,0.011041524,0.025398845,-0.0039336104,0.0031090265,-0.017091125,0.006977862,0.005244119,0.004646093,0.014955586,-0.027322706,0.018559903,-0.012623115,0.020560343,-0.0840064,-0.01995627,-0.025461668,-0.009508825,0.023468262,0.042566925,-0.07963122,-0.015489418,0.049951006,-0.030048959,0.005646346,0.047402862,-0.015607562,-0.021236861,0.007984921,0.036549855,-0.00091480603,-0.026600765,-0.006747625,0.0075405603,-0.080245376,-0.028607493,-0.013746481,0.0021266951,-0.041947175,0.010463164,0.0019700897,-0.036033377,0.013617805,0.008876998,0.04359547,-3.2022384e-05,-0.024980852,-0.047054324,0.016903155,-0.029137388,-0.028896695,0.011194537,-0.023384908,0.017696379,-0.0012812507,-0.018291838,0.017544013,0.025184598,0.029723438,0.011566371,-0.040641796,-0.08069465,-0.009800605,-0.033239797,0.008527614,-0.013762516,-0.025102492,0.058149587,0.008835731,0.00035380523,-0.0034801664,-0.03733691,-0.055737734,0.02253225,0.019737363,-0.033383243,-0.04344348,-0.014384807,0.032159507,-0.01783878,-0.003821284,0.005227487,0.044212934,-0.004063856,0.0036620733,-0.03756857,0.010677275,-0.0032237577,-0.022283895,-0.0243544,0.015145434,0.03472778,0.0037954655,-0.015052652,-0.014452958,-0.04040226,0.005614118,0.003352664,0.001598141,-0.0051393136,0.010757448,0.02722951,-0.02904263,0.021617541,0.0065862704,0.062941216,0.0026113072,0.022648118,0.007753405,0.045094486,-0.029325977,0.042173322,0.008165942,-0.009955715,0.004471886,-0.005399829,0.026651151,-0.0056202156,-0.0155345155,-0.04900664,-0.040655088,0.05203321,-0.09799764,0.0090471255,0.0047027753,-0.016330272,0.03209193,-0.009689408,0.018664539,-0.004636523,0.019089075,-0.04915881,-0.03083088,-0.0016084409,0.003715588,0.12477198,-0.011923279,-0.029456189,0.038131922,-0.002754936,-0.045934297,0.0127448635,0.030833479,0.014797114,-0.0074184556,-0.032682233,-0.022277938,0.001982176,-0.02895414,0.030042581,0.027858026,-0.08618431,-0.014927354,-0.028912192,-0.056833062,-0.0024596432,0.024785392,0.019212758,0.043441515,-0.0033472583,-0.03812671,0.0077286605,-0.016342077,-0.008558391,0.040597323,-0.012337673,-0.058596183,0.005206693,0.051538717,-0.006189297,0.015610181,0.08810829,0.013146835,0.026453089,-0.05589771,-0.038425088,-0.013769894,-0.024377374,-0.046378847,-0.005007198,0.037552115,0.071861535,-0.010530117,-0.004667236,0.03558244,-0.044032767,-0.024476614,0.057332594,0.011099235,0.031858854,0.036611166,0.06598077,-0.040398624,-0.04182292,0.015917763,-0.007158555,0.004945858,0.04007236,0.015320249,0.0010338534,-0.032981254,0.032104515,-0.04180598,-0.018897936,0.015039106,0.019739607,0.036004677,0.025363388,0.04897935,0.016929267,-0.013024467,0.011135151,0.01763735,-0.012568108,-0.074476264,0.008522979,-0.014559771,0.03762247,0.006924854,0.034977138,-0.010924993,0.04814037,0.027606653,0.045511067,0.0027034231,-0.039421674,-0.020727538,-0.005048184,-0.004368536,-0.019723851,0.01315252,0.025596842,-0.05180817,0.026455393,-0.06635387,-0.048040826,-0.031048175,-0.03723026,-0.00546894,0.00839757,0.015093369,-0.101646416,0.020850142,0.033151966,-0.044334196,-0.004737285,0.015098483,0.0015776468,0.0034776102,-0.0076315883,-0.032767754,-0.0017243822,-0.005182198,0.0036892376,-0.007043823,-0.007358168,-0.02269552,-0.013525751,-0.045730513,-0.02987312,0.021777906,0.0792553,-0.007689113,0.025346601,0.022068748,-0.002929347,-0.016913269,-0.105046496,-0.04027109,-0.020205617,-0.046879012,0.016696606,0.014929316,-0.035240807,0.007495278,-0.0017924521,-0.009447506,-0.0019479288,0.034831382,0.008329523,0.004188626,0.026424428,-0.009914709,-0.043186296,0.0280948,-0.005504195,-0.014704752,0.10534641,-0.021381548,0.036685526,0.019375982,-0.023829332,0.0050827386,-0.04186124,-0.03199071,-0.0056480677,-0.011167914,-0.024313653,-0.027746629,-0.04661867,0.02904829,0.007397445,-0.04311672,0.018926457,0.0043172054,-0.008465462,0.030514458,0.03498026,-0.025340555,0.0054954193,0.015415417,-0.015744768,0.03526291,-0.060056638,0.005299121,-0.030176887,0.041218042,-0.0041031367,0.0021924977,-0.0028293452,0.016254501,0.00083423115,0.009303957,-0.023545694,0.034656078,-0.0019224436,-0.01474879,-0.025444448,0.0006053061,0.033716917,0.0182382,-0.063406795,0.023825418,-0.009732777,0.0058780056,0.035403594,0.0132957725,0.012083176,-0.0038117897,0.0027310818,-0.005013874,0.05188382,0.044196572,0.050352357,-0.019343602,-0.00022870103,-0.009292406,-0.023434144,-0.030273302,0.016908143,0.014505839,-0.0031051475,0.0043459996,-0.0037826747,0.0053529157,0.047785386,0.0074651046,0.026400886,0.019727277,-0.029511863,0.0947438,-0.031726405,0.021259373,-0.019342724,-0.021895347,0.036129057,0.015247804,0.010905828,-0.003287914,-0.037357554,0.02113829,-0.040063974,0.03203318,0.009580001,0.04437018,-0.045896504,-0.058206983,0.0075727543,-0.011219609,-0.011708243,-0.029815918,-0.010757234,-0.019378576,-0.034388885,-0.025384106,-0.024130521,0.014154743,-0.042809315,0.011138879,0.0099927215,0.015489287,-0.020580005,0.065913886,0.021368166,-0.073314846,0.012608097,0.07251352,-0.028818086,-0.062039472,0.015786458,0.03275863,0.02534443,0.018099526,-0.0010420426,-0.009116008,0.026763115,-0.01404966,0.039515804,0.002256092,0.04107404,-0.028912006,0.026387647,-0.0196808,0.04890613,0.026009465,-0.020566607,-0.042889677,0.05183191,-0.00463322,0.07585429,0.020602,0.029657241,-0.02905272,0.02777741,-0.04200375,0.0465203,0.028699914,0.02457885,-0.021260524,-0.036311503,-0.02676988,0.028259365,0.017521447,0.03806494,0.002360783,0.025770167,0.018862793,0.026271919,-0.02872807,-0.018801365,-0.011365444,0.02624707,-0.0126582505,0.029600458,0.031125484,0.018872341,-0.021491915,-0.03334072,0.00019716514,0.033455715,-0.012435577,-0.00033391832,-0.010576831,-0.05856372,0.042722773,-0.0507321,0.024107847,0.014990775,-0.014469256,0.011428627,-0.04748016,0.0028444813,-0.053618032,0.0527727,-0.00074168755,0.03390554,0.037404865,-0.048401833,-0.017274223,-0.010446278,0.012619986,0.0018194347,0.04224365,0.0005446419,0.017742502,-0.009770662,0.036386576,0.01116167,0.03640822,0.04444289,0.04602657,-0.032192584,0.031146912,-0.061141197,-0.04042089,0.006245771,-0.014574263,-0.059481394,-0.0015145575,0.010503928,-0.003734825,-0.03254746,-0.027840402,0.008775825,-0.012391989,-0.004880907,0.030960483,0.04690761,-0.028234579,0.024241239,-0.009029811,-0.035372436,0.008137487,-0.017336003,-0.00479126,0.05360303,0.009219267,-0.032424178,-0.016669145,0.02344597,-0.0538214,-0.0060197925,-0.026990766,-0.040069953,0.001577443,-0.021744799,0.046259753,0.042732295,-0.039841946,0.019798754,-0.014530565,-0.011582212,0.0005562922,-0.0025912162,0.008957608,-0.009731981,0.027233858,-0.030810662,0.0013219159,-0.026187979,0.01248661,-0.02071184,-0.046037998,0.04538663,0.019239465,0.013935905,-0.017715743,-0.010719085,0.041019924,0.0004948311,0.021929579,0.0006159722,-0.002199104,-0.044164248,-0.0026005185,-0.0060567223,-0.041902453,-0.030232053,-0.010001815,-0.033874772,-0.0189297,-0.027430866,-0.039880164,0.0052636955,0.024853434,-0.038418118,-0.039744463,0.0095559405,0.04790954,0.08291052,-0.03310526,-0.035122212,-0.010007533,-0.016924968,0.010367041,-0.0020330043,-0.007072879,0.007836623,-0.037706863,-0.020701258,-0.015527079,0.036428627,-0.003087322,-0.058084026,0.03168595,-0.04359896,-0.033946995,-0.0972979,-0.032614533,0.004895038,0.018041609,-0.005239588,0.014803576,-0.0278399,-0.07768865,0.015232337,0.026831036,0.04099578,-0.031423368,-0.01974318,-0.076376066,-0.0010922973,-0.039310895,0.052559897,0.009109867,-0.0066631995,0.014562686,0.06861555,0.026437083,0.006101849,-0.0023006608,0.023181213,-0.016358068,0.034043275,-0.017083902,0.007161611,-0.041709356,0.055996567,0.03530061,0.01998322,-0.001369069,0.06557232,-0.016074535,0.026809027,0.0078124446,-0.05857368,-0.012557422,-0.046330974,0.010147126,0.017068457,0.005808131,0.011047279,-0.013698618,0.034943335,-0.004770653,-0.020639807,-0.029542325,-0.027716959,-0.024636418,-0.018174177,0.07033465,-0.008054035,-0.028666863,-0.0074006277,0.0024124791,-0.0037243455,-0.029555911,0.029252797,-0.027241101,-0.026213557,0.012374697,0.008365735,-0.008016291,0.008696136,0.013873557,0.02804988,-0.046670415,0.007477178,-0.046170246,-0.06037429,0.038650006,0.051552176,0.002877767,0.032252777,-0.010958689,-0.028024534,-0.003022594,0.032431293,0.03281642,-0.0236673,0.029587388,0.023626154,0.015169863,-0.0015488297,0.03605745,-0.02589321,-0.020280039,-0.026208052,0.015413195,-0.022853276,0.025590917,0.040442064,0.03140788,0.018038737,-0.04260958,0.018873896,-0.009301867,0.023347195,-0.007062541,0.0343036,0.015645118,0.0063848365,0.016027784,-0.00041473817,0.031196136,-0.015364092,0.030942004,-0.04057833,0.004623541,0.03507416,0.007879222,-0.00053393753,0.013287964,-0.005313591,-0.026995866,0.024056029,0.07310556,0.0426474,0.013039365,-0.029265711,-0.022401968,-0.02438987,0.01384481,-0.014311685,0.037014242,0.061930623,0.010853412,-0.030537492,0.012443028,0.013838781,0.0025089374,-0.018201135,-0.01971865,-0.013524746,0.008508316,-0.004461781,-0.010947884,0.00850648,0.0084339185,-0.0016876342,0.030686937,0.00039069567,-0.008912848,-0.034571696,0.0073924065,-0.027167039,0.0034256217,0.042486817,0.043790773,-0.041077383,0.031730976,0.0385966,-0.05863895,-0.07358471,-0.015647952,-0.046311814,0.042496007,-0.027569206,0.062490977,0.026050672,-0.009715624,0.04026786,-0.006066263,-0.017240088,0.006864591,0.027367732,0.02861681,-0.044861075,-0.0091150915,0.00070887606,0.01763891,-0.025148584,0.04511521,0.0021178548,-0.03461353,-0.009092814,0.013085484,-0.037099294,0.0003750855,-0.011587406,-0.00843094,-0.0071864096,0.004847356,0.0272726,0.019447686,-0.016108388,-0.0019846924,0.0014054488,-0.0056093256,-0.047038626,-0.052974332,-0.022120444,0.0003047454,0.010101506,-0.011564236,0.019400371,0.023626707,0.063559465,0.017695395,-0.040317938,0.04202806,-0.016193936,0.0528257,0.021707557,-0.031257898,-0.023285523,-0.025299756,-0.025500642,-0.010776181,0.010147695,-0.019270228,0.031088814,0.011632729,0.07514117,-0.0029730033,-0.005453527,0.028022805,0.0037143796,0.0021919436,0.022380644,0.022927986,0.05276721,0.011510671,0.013887452,-0.039382633,0.014272398,-0.024073113,-0.014921029,-0.023247533,-0.06131064,0.028446492,0.012763677,-0.011105545,0.015172106,0.004965762,0.027126756,0.0076696584,0.024843302,0.008814566,0.038883075,0.013052652,0.018465705,-0.0045719133,0.024314802,0.008526221,0.024507355,-0.003436201,-0.025364345,0.041470695,0.015070448,-0.0138195325,0.004275118,0.0036365262,-0.018495386,0.030500902,0.074713774,-0.006970364,0.028327763,-0.0030034771,0.0013754612,0.014691745,-0.0069657774,-0.002476449,-0.0080323,0.02003678,-0.027735235,0.035281878,0.0017389926,0.024121614,-0.034718905,0.03546686,0.0144611895,0.0048159766,0.05068007,-0.044235248,0.0003089127,-0.011639519,0.008344282,-0.019022867,-0.009892291,-0.03805629,0.011375553,0.043469742,0.01330155,-0.025961032,-0.029623332,-0.0056079407,-0.0051430906,-0.00965163,0.012328629,-0.024207033,-0.035172295,0.008964442,-0.0026461426,-0.011710488,0.02232792,-0.01458239,-0.0167769,0.010255599,0.013087925,-0.018435894,-0.0056731356,-0.024689911,0.010528221,-0.016687317,0.006702176,0.016436908,-0.024344848,0.0007602963,-0.0077826665,0.019614419,0.021482315,-0.022285406,-0.038295276,-0.0235302
sub004,-0.05025316,-0.050926503,-0.012730064,0.029221425,0.048513338,-0.08106847,0.08506701,-0.00684962,-0.072838694,0.006874886,-0.022889344,0.031127173,0.04636435,-0.013229008,-0.06322874,0.06459377,-0.020428706,0.06969471,-0.020788275,-0.091461614,-0.021417813,-0.0634405,-0.03161977,-0.032947574,0.0030540905,-0.018127006,0.03267129,0.09606226,0.010091406,-0.013352066,-0.04582146,0.018437669,-0.11352747,-0.03319212,-0.007660558,-0.019566618,0.055272255,-0.028694272,-0.03858395,0.06719438,-0.0115703475,0.0024482838,-0.019160649,0.0031805865,-0.00111777,-0.06829649,-0.009390096,-0.013759167,0.05024897,0.013363426,-0.027910678,-0.031353965,-0.06530163,-0.014113234,0.008753907,-0.012909164,0.0015994357,0.033701345,0.0038998288,-0.015945889,-0.02328354,-0.00781916,-0.063991226,-0.01446732,-0.0029977057,0.031108739,0.021680567,0.06897769,-0.020524867,0.015101931,0.034773428,-0.008059046,-0.03169572,0.043757338,0.026137032,-0.0030717072,0.016178647,-0.08885914,0.044838633,0.017312719,0.014550665,0.010821305,0.040641714,-0.06451075,-0.012050049,0.015647251,-0.045189794,-0.009792352,0.017322222,-0.013106262,0.015802879,0.058746044,-0.028299477,-0.025014674,-0.03613736,-0.03236692,-0.013610741,-0.020536609,-0.0038654166,-0.021822378,-0.0049320403,0.014034236,-0.022326732,0.031404004,-0.04407893,0.016060362,-0.10493188,0.02540903,-0.0062839207,0.0030659665,0.046918567,0.004786137,0.025095908,0.0042989785,0.03422871,-0.0508333,-0.02905942,-0.02709109,-0.0054134475,-0.05782673,-0.0051834336,0.03862961,-0.03431218,0.0033752867,-0.04738311,-0.019199047,-0.08882265,0.017176801,0.019322047,-0.019351998,-0.012592229,-0.0437351,-0.004144843,-0.04698155,-0.0016617823,-0.030040493,0.035228834,0.014394049,0.0106965015,-0.016074048,0.038625415,-0.02708539,0.031303458,-0.05729257,0.011481941,0.003808834,-0.0039094486,-0.00078150607,0.031185407,0.0013054146,-0.008222739,0.037099697,-0.028118197,0.012959741,-0.026028084,-2.302294e-05,-0.025145657,0.0023905071,0.04194034,-0.012146458,0.004564617,-0.004061498,0.00588388,-0.026027257,-0.023007222,0.037657436,-0.02007874,-0.03631776,-0.031316362,-0.01873677,-0.033749294,0.0097668925,0.0025250267,0.02046949,-0.013021863,-0.016027587,-0.033270083,-0.07296614,0.01954198,-0.017289633,0.019373113,-0.019765254,0.010306289,-0.010653876,0.0069139204,-0.046431534,0.06389585,0.008982384,0.025726175,-0.03231155,-0.061996914,0.03567875,-0.003505621,0.014892152,-0.0014810171,-0.01594476,0.040737346,0.00034965,-0.032020774,-0.004689101,-0.025288068,-0.0096598575,0.024472084,0.0035957077,-0.012199548,-0.010037506,0.034306135,0.0024153357,-0.028299695,-0.028600601,-0.02854071,0.046717893,-0.04792441,0.017105587,-0.005408207,-0.03649821,0.00079523347,-0.007930886,-0.027223924,0.02313218,0.019665474,0.026646616,-0.039334163,0.019187696,0.006103778,-0.0019201839,0.021005696,0.0115850195,-0.043643754,0.007223062,-0.01945394,0.0013804311,0.005309072,0.016010018,0.047829174,-0.0041719964,0.007711346,-0.021195605,0.058895014,-0.063629925,-0.012583652,-0.020271193,0.017484788,0.025868263,0.007029528,0.001332336,-0.017793141,-0.03352695,-0.0061891186,0.008533442,-0.024030259,-0.053081412,0.018172793,0.02613828,-0.009819171,-0.011341661,-0.00450674,0.018052647,-0.011824288,0.02924384,0.0414413,-0.006063415,-0.019983616,0.023147982,0.032657452,0.00042097474,-0.0014839323,-0.0020529535,-0.032956265,-0.01775514,-0.05302249,0.029784137,-0.02570535,0.0031069666,-0.0045071943,0.016465869,0.021789135,-0.03365302,0.049860872,0.041377958,0.0108508235,-0.023728354,-0.035418738,-0.01838215,-0.0057901614,-0.00179152,-0.008650133,-0.0009769333,-0.062182263,-0.007887166,-0.017227588,0.03440976,-0.028779672,0.0500152,-0.038644083,-0.050165787,-0.05078826,0.07522077,-0.035949003,0.0060064145,0.05548397,-0.054674663,0.0026170027,0.05446081,0.017849192,0.007376257,-0.008040284,-0.058823142,-0.042604044,-0.04227204,0.101475276,0.00068088353,0.004145428,0.027679037,-0.044585455,-0.00336297,-0.053604554,0.045663934,0.009539197,0.05128532,-0.017395165,-0.013279466,-0.018510126,0.008819699,0.029576048,0.013066287,0.04283309,-0.020631,0.03984189,-0.0033490246,0.014652082,-0.010632589,0.03473144,0.014990181,-0.008604909,0.05590998,0.066276774,0.043352887,0.031135881,0.004493725,0.030123342,0.040699333,-0.024906313,-0.015316405,-0.059534427,-0.016614994,-0.0112507,0.019962315,-0.012630717,0.001972653,0.021711621,0.022765867,0.001543394,0.027258521,-0.049308877,-0.024249127,0.032819867,0.031011498,0.013540853,0.01401442,-0.0010205077,-0.047906876,0.06876004,-0.03432802,-0.0451571,-0.009963325,-0.009712887,0.021708187,0.0018586747,-0.01833578,-0.047537886,-0.0069499444,0.030462442,0.011402741,0.0112891635,-0.032048207,0.008755237,0.035414215,-0.00024975385,0.00991113,0.021922171,-0.010622167,0.0018050768,0.05090557,0.03257718,-0.059114467,-0.011863817,0.02946687,-0.015768487,0.017400984,0.05190516,-0.037553377,0.025022574,-0.019004634,-0.011174393,-0.032176662,-0.13044661,-0.045571107,-0.061294332,-0.01777934,-0.047600783,0.033384345,-0.036360543,0.044328563,-0.0043851826,-0.0037314584,-0.029694362,0.003955831,0.00963991,-0.017076604,0.06938922,0.009351872,-0.04532804,-0.0102313245,0.035621345,0.01805101,0.077001825,0.027366959,0.048799198,-0.032815754,-0.009562963,0.058989204,-0.048548304,-0.065458916,-0.026018409,-0.01670067,-0.020021705,0.0023033358,-0.016610641,0.017096188,-0.039098896,0.027023928,0.017722385,0.07589454,-0.046649463,0.04334485,0.057246886,-0.0001759128,0.014120745,-0.0124644805,0.031001478,0.024579212,0.003934777,-0.044948015,-0.005943675,0.022206157,0.012568564,0.041895483,0.0010139388,0.085970215,0.06298259,-0.052028377,0.015396413,0.04858294,0.067934014,0.030077793,-0.025313837,-0.0065104724,0.046177763,0.041097607,-0.042906053,0.04574907,0.003892312,-0.029495094,-0.011843839,-0.01940984,-0.033385377,-0.033747155,-0.012011855,0.0044091656,0.03370561,-0.015195162,0.031096755,-0.0011238212,0.0035639144,0.03854874,-0.04995135,-0.023117663,-0.015755614,0.035024278,-0.0031667838,0.023773018,-0.019668452,-0.0576127,0.047845494,-0.015017947,-0.013520283,0.023892293,-0.012869752,0.039856236,0.030949496,-0.00046350533,0.025226364,-0.02533982,0.018851558,-0.016601078,-0.028313,-0.042760193,-0.06215243,-0.03413749,-0.0338273,0.0036374072,-0.0016870084,0.041765343,0.00020897313,0.016984226,0.023043618,-0.00911523,0.048352413,0.04625937,0.02554895,-0.034289256,-0.012072042,0.019551339,-0.02005498,0.017210405,-0.0028922127,0.01730425,0.031502612,-0.009336893,0.0045832032,0.0467501,-0.010279472,-0.028232208,0.021807583,0.09202068,-0.013276981,-0.049990103,-0.00056852633,0.039198317,0.0039411956,-0.03420792,0.02720899,-0.01888538,0.03095393,-0.040423047,0.049963057,0.0007917023,0.029350845,-0.009021695,0.020565944,-0.039672334,0.016447498,-0.012337879,0.021942306,-0.0059491023,0.021682685,-0.042807017,0.05035664,0.040631864,0.012369405,-0.040021297,0.07339116,-0.04531144,0.031754196,0.014838774,0.027818326,-0.021797694,-0.0130361095,0.024648963,-0.002136979,0.0334826,0.014311836,-0.008007353,-0.010374924,-0.013992998,0.00042287633,-0.013902359,-0.0013053817,-0.007071321,0.019920208,-0.05467684,-0.029257732,-0.0034259502,0.027230363,-0.061931662,0.0038241053,0.0036093881,0.00041831436,-0.016004313,0.002014797,0.03218845,-0.010315259,0.0229518,0.011935628,-0.005814984,0.0748073,0.012926216,0.032212082,-0.028613485,0.0052052056,-0.0614714,0.021124946,-0.014215451,0.029118698,0.04296169,0.016908804,0.0026031148,0.023210287,0.019867864,-0.0072535407,0.03542631,0.03047111,-0.030310327,0.008741522,0.034013987,-0.063322306,-0.018904349,-0.0075283907,0.020232785,-0.05537068,0.009296605,-0.045730803,0.0049283667,0.0062103583,-0.01702836,-0.06953527,-0.032052025,-0.012731856,-0.071246006,-0.01071916,-0.023460183,-0.004387788,0.015455856,0.012260045,0.02190213,0.0037351735,-0.056566987,0.021144923,-0.009892061,-0.058454648,-0.013588353,-0.012682473,-0.003312512,0.011674189,-0.005624739,-0.029394872,-0.014753757,-0.013050936,-0.010671506,0.02856653,-0.020433808,0.008491908,-0.04108443,-0.0022559694,0.04545454,0.031562343,0.019693391,0.015418682,-0.01625571,0.01049913,0.014778645,0.030397544,-0.002757747,0.00491136,0.0050287805,0.009647653,-0.0027937496,0.006942749,-0.014351332,0.0032564278,-0.02007245,0.01679185,-0.0014508566,0.0017466302,-0.05691896,0.0292779,0.03643403,0.005015276,-0.0344977,-0.050491985,-0.037294313,-0.0240503,0.027009849,-0.01447167,-0.02697233,-0.0015999931,-0.009506041,-0.054201674,-0.03501643,-0.046080057,0.0072596557,0.022153651,-0.051716946,0.027189653,-0.02773069,-0.006786903,0.020067332,0.07671711,-0.03068413,-0.03578039,-0.011056166,-0.03204054,-0.041804902,0.025921991,0.007052399,-0.032064043,0.0009592959,-0.025208034,-0.022815142,0.0066253264,0.005445201,-0.018094247,0.029386401,-0.031190058,0.008503499,-0.022121856,0.027655039,0.017146293,0.011666734,0.021013284,-0.029917272,0.0038951081,-0.028117817,-0.018835628,0.049849417,-0.0075849476,-0.044920478,-0.009560635,0.00987103,0.031825166,-0.0138262715,0.034768295,0.03557998,0.034669112,-0.009651116,0.066374734,-0.01924347,0.01906182,0.0071660173,0.0032406126,-0.037750006,0.048984215,-0.022806596,-0.028714493,0.006670252,0.04532081,0.04401868,0.030064484,-0.03753547,0.059934795,-0.027908284,0.008991819,-0.006396425,0.016881086,0.016265374,0.015709406,-0.007530384,0.020078335,-0.008733761,0.03688457,-0.003165935,0.02462652,0.01836979,0.0054851724,-0.03024304,-0.02991457,0.008349815,0.02971,0.009237921,-0.04436506,-0.011745688,-0.0027741657,0.00997902,0.046595763,0.021209003,0.043283235,0.0021717486,0.03023545,0.011152811,0.030949222,0.016572446,-0.010605598,0.071155384,-0.0047243284,-0.017522668,0.040907472,-0.022605833,-0.047077496,0.014153031,0.011947108,0.0024011503,0.03611574,-0.009816102,0.0072471434,0.021080228,0.044108946,0.010681813,0.0026219534,0.056094356,0.00900528,-0.0323621,0.008212357,0.042585287,-0.021973893,0.01634039,-0.034862425,0.03043702,-0.009633034,0.049221493,0.0012659982,0.04472474,0.062816605,-0.04436165,0.02756901,0.0012562585,0.029528568,0.0058165765,0.024957754,-0.01252776,0.011074122,-0.0030576633,0.00056179595,0.04005273,0.010165972,0.046409424,-0.01751441,0.009575108,0.0065440293,0.02749449,-0.008239081,-0.0024220932,0.037254285,-0.032428883,0.009100708,0.02145267,0.06787696,0.028787035,-0.004768904,-0.0011769026,-0.03378721,-0.015386345,0.035727456,0.021020696,0.036052328,0.013943345,-0.03585331,0.021243509,0.004127913,-0.017949998,-0.0046824384,-0.02876603,-0.0038200426,-0.013980653,0.022556916,0.0045659062,-0.036915764,0.033123434,-0.019322632,-0.019804101,0.024918733,-0.0057167606,-0.04471486,0.0076651545,-0.04292426,0.0042727846,0.04528808,-0.015523457,-0.025699584,0.0015630411,-0.00641912,-0.016619546,-0.05057243,-0.05025544,-0.029127203,0.007900166,-0.0027297828,0.06565471,0.0046897396,-0.005735675,-0.004117334,0.0039424514,-0.0013765265,0.03758552,-0.04652396,0.00021391264,-0.009621257,-0.00264552,-0.018426873,0.058832183,0.00550158,0.012280588,0.017917918,-0.014881198,-0.06227052,0.019641316,0.0018071851,-0.051923558,-0.025163485,-0.014345711,-0.012853037,-0.031938206,0.028433613,0.0038058425,-0.03015282,-0.020015152,0.033099383,-0.03374502,0.010488051,-0.047870144,0.009687409,-0.017333722,0.015336776,-0.062697716,0.0036812068,-0.013907917,0.032968216,-0.033118755,-0.040087648,-0.0053038415,-0.0081093665,0.039364487,0.023376917,-0.024203021,-0.009269032,-0.05745612,-0.04655707,-0.0291523,0.03002883,-0.022321187,0.0031919652,0.0455829,0.02412206,-0.00035097127,0.04199512,-0.012603355,0.020071952,-0.026544861,-0.05732259,0.03800667,0.035253264,0.0039461236,0.0012773945,0.0679596,-0.012415072,-0.026186896,0.0023559516,-0.07140161,-0.032464184,0.015556668,0.020829476,0.016085995,0.027216466,0.04702112,0.040519573,0.031664502,0.030768631,0.041787967,0.053001765,0.04870085,-0.012165639,0.009209752,0.004675913,-0.0028573954,0.020812007,-0.00542226,-0.029067796,0.012655169,-0.009236879,0.0034056176,-0.017587865,0.013072007,0.011250656,-0.01627132,-0.0048125316,-0.011046701,0.019587245,0.009768969,0.0043355194,0.016103461,0.025442004,0.020796938,-0.028277028,0.03575635,0.001446888,-0.013805325,-0.004313424,-0.021582272,-0.027478434,-0.0033803845,-0.036359247,-0.03413963,-0.00901673,-0.026166648,-0.032089673,-0.007044065,-0.020874238,-0.01451176,0.029057834,-0.025890315,0.035757408,0.03843722,-0.021105377,-0.0152493,-0.01752787,-0.004544669,0.03681909,0.009550947,0.0045790337,0.021212766,-0.01184911,0.035283566,0.010014582,0.008047089,-0.011127812,-0.008472493,-0.005909191,0.010664443,0.0039894218,-0.040129256,-0.02820016,-0.03503284,0.03818323,0.0006554192,-0.0114453565,0.01758506,0.036346797,-0.00735729,0.02420809,0.020378426,-0.015266208,-0.024150383,-0.013619576,0.041191008
sub005,-0.021465056,-0.07412925,-0.012405883,0.080931574,0.045626126,-0.0215912,0.032058965,-0.021100504,-0.013197527,-0.039406464,0.0071903714,-0.045666758,0.04272547,-0.0134574305,-0.06338672,0.018534463,-0.053848546,0.031866934,-0.023725426,-0.07435537,0.021717573,-0.013752169,-0.061977133,-0.10903442,-0.026172245,0.0013116963,-0.013614564,0.044424955,0.056026716,0.015922382,-0.055371314,-0.013863689,-0.036659755,-0.033890612,-0.004920353,-0.019916728,0.067120485,-0.04186341,0.0031901754,0.083972044,-0.04941276,-0.056294743,-0.030279929,0.04145746,-0.025132949,-0.07088474,0.017139306,0.018769966,0.05749463,0.051163122,0.023738654,0.0025439318,-0.068223424,0.04236698,-0.025915684,-0.00035039714,-0.00033372582,-0.0019029308,-0.010576807,-0.013288797,-0.024322651,-0.008041771,-0.049629655,0.043715615,0.011741709,-0.011323785,0.03226258,0.02228725,-0.0025268467,0.011795005,0.002280893,-0.04923666,-0.014460116,-0.0025265892,0.017545702,-0.00980569,0.02489994,-0.034242433,0.031414125,0.032942332,0.020580463,0.012634119,0.024791038,-0.025246834,-0.028689735,0.022855105,0.007311344,-0.042429175,0.021223722,0.03296604,-0.039700124,0.083134495,-0.0068161115,-0.048683293,-0.013556875,0.0033582058,-0.009702326,-0.054179613,-0.0020778463,-0.025385752,-0.012914579,0.057376426,-0.023124214,0.032844782,-0.018669698,0.051940966,-0.061469596,0.028776687,-0.00868557,-0.029702347,0.008027805,-0.014347164,0.02287229,-0.0052270433,0.018868815,0.021811089,-0.035537165,0.011490501,-0.022535676,-0.019716302,-0.029565904,0.06261661,-0.04292898,0.015358612,-0.06851398,0.013068649,-0.027349446,-0.011424496,0.016196063,-0.011356006,0.015783912,-0.00776411,-0.040632777,0.003049701,0.024381828,0.00374,0.0063306834,0.008861814,0.044489954,-0.042223006,0.047596566,-0.03456172,0.00090553984,-0.059988346,-0.019876236,0.0072268127,0.01032385,0.029274331,0.025824854,-0.05893753,0.00027409385,0.034902196,0.0035519197,-0.00033592116,-0.013298161,-0.031291027,0.031198233,-0.015160595,0.05060669,-0.008465698,-0.019325225,-0.017973162,0.010159347,-0.029645067,0.010128924,-0.03485434,-0.011857665,-0.038907815,0.020331733,-0.009393376,-0.04555645,0.0046717897,-0.006672694,0.018850999,0.00941936,0.005156036,-0.04206165,0.014647757,-0.011737288,-0.010595702,0.00074136077,-0.020064712,0.018016597,0.0032691031,0.0060857846,0.003884792,0.028487852,0.023819853,0.020193638,-0.02420423,-0.054519106,0.023010109,0.0038255206,-0.0018819041,0.004338215,0.0026009234,0.02898988,-0.01098982,-0.015048078,-0.006098643,0.0019418411,-0.022798147,0.0040554223,-0.012427092,-0.0056794737,-0.023748718,-0.00285412,0.018360747,-0.011386152,-0.041321874,-0.011545548,-0.004500116,0.02519427,0.0075880857,0.008504956,-0.0293765,0.006999944,0.0015407305,-0.009511834,-0.0006340868,0.027113229,-0.013569446,-0.019023178,0.015209312,-0.026603121,-0.027063856,-0.0038778882,0.0267589,0.03873046,0.00698802,0.00038524705,-0.0074066655,-0.023128988,0.0071487585,0.051962566,0.03276999,0.0034032247,-0.018839426,0.028008616,-0.02663511,0.033694964,-0.017152593,0.012648876,0.009917329,0.0036919122,0.010354588,0.010892727,0.02614597,-0.020547811,-0.003716793,0.019409712,-0.052233938,-0.034078944,-0.012433633,0.0028037971,0.0045105894,-0.0024904246,0.0012666341,-0.01711739,0.0121239135,-0.012955751,-0.017901443,-0.043063488,0.036194105,0.08383318,0.010432425,-0.022860669,0.02322678,-0.018313741,-0.022852173,-0.061617345,0.031045208,-0.011482558,-0.034785725,-0.02644667,0.008908566,-0.009773577,-0.06928497,0.018357692,0.025633821,-0.040362697,0.0064161746,0.0005342081,0.0020915514,0.0007987025,-0.019715296,0.049823463,0.0068048155,-0.011249264,0.023691809,0.0052016084,-0.045083802,-0.0076577296,0.028473327,-0.017585462,-0.05193594,0.04571461,0.08580547,-0.03222239,0.049966283,0.085019335,0.022636587,0.037917882,0.0032194026,0.008523085,0.0073132925,-0.05205278,-0.03383407,-0.047089666,0.016969122,0.09132006,-0.02201406,-0.012457621,0.012086236,-0.027483704,0.0027248512,0.016986897,-0.022966648,-0.034261834,0.11040698,0.019453712,-0.059156284,-0.05104235,0.06961983,-0.014663821,0.030414686,-0.0029326018,0.0034030608,-0.0015625139,-0.07255661,0.0029833561,-0.060551833,-0.0054740473,0.014137636,0.03606785,0.060175784,0.0105221,0.040946916,0.029437909,0.00570724,-0.014758087,0.016189838,-0.0103029525,-0.032335415,-0.002216184,-0.008714367,0.038944762,0.01073158,0.035955243,0.01885716,0.039945576,0.011184098,0.0037661258,-0.005391997,-0.058752242,-0.015677126,0.014897786,-0.041160513,-0.033922877,0.0011018261,0.015918747,-0.061383516,0.04311835,-0.08087527,-0.031491484,-0.019566411,0.012855615,-0.052816816,0.059958905,-0.0064674085,-0.04632964,-0.020347783,0.035891168,0.030788621,-0.024205003,-0.015995316,0.006992477,0.045290492,0.027864393,-0.016236516,0.022352522,0.0044769864,0.003514481,0.06096524,-0.040213276,-0.020034257,0.0042674304,-0.059920892,-0.037169177,-0.0041166884,0.052148152,0.0063723815,-0.023583692,-0.015944267,0.021594396,0.0048871255,-0.14021188,-0.0359682,-0.01821088,-0.082712606,0.0008508578,0.0013312967,-0.021061277,-0.028700836,0.018038018,0.01821993,-0.008414944,-0.016548676,0.02537695,-0.056835093,0.0058231843,0.024011292,-0.03435454,0.0067125275,0.028756617,0.026367253,0.070695035,0.0023041875,0.08037287,0.003112491,-0.02449265,0.02230733,-0.004553169,-0.008307237,0.0314595,0.0012220936,-0.026218928,-0.008354885,-0.07582426,0.020595586,0.0025414354,-0.013170166,0.046715632,0.010911794,-0.0019964697,0.036285926,-0.035864327,0.026194084,-0.029925436,-0.042132784,0.0172583,0.073239885,-0.07642682,-0.03734439,-0.051275983,0.029882321,0.029166618,0.013960891,0.01652484,0.03392217,0.012866145,-0.041404642,-0.015601834,0.028745942,-0.028618783,0.0010624414,-0.0098352125,-0.062416937,-0.022097994,-0.012865393,-0.035640083,0.02229993,-0.0172141,-0.04400363,0.069970466,0.021013306,0.060089853,-0.007384797,0.02587957,-0.025303705,-0.0075266673,0.028058719,0.053081125,0.013319247,0.042283278,0.014801603,0.0031161928,-0.03551339,-0.036063887,0.028991902,0.03475081,0.03290541,-0.00091866753,-0.053884916,0.057169795,-0.036243416,0.015991094,0.021734782,-0.031569112,0.054624096,0.0014407969,0.033487804,-0.013618847,-0.014923873,0.010768799,0.016463108,-0.014994325,-0.018547269,-0.04340063,-0.00045906423,-0.054560855,-0.031563707,-0.019243361,0.034496583,-0.028053975,0.02604565,0.016330509,-0.02804394,-0.016473435,-0.0055221915,0.010178037,-0.0154521,0.0087240245,0.0015618291,-0.010518791,0.036280822,-0.06575064,0.004438172,0.003916772,0.013182727,0.0280072,0.038124308,0.025686584,-0.0038465916,0.02493952,0.035205983,-0.014365273,-0.044384018,0.02021491,0.030767713,0.026865352,0.0026061593,-0.08201109,-0.013104094,0.008127172,-0.028654445,0.02243096,0.012978299,0.07684978,-0.016848478,0.014853584,-0.0021279256,-0.020678995,-0.05319767,0.025903234,-0.027840273,0.025014943,-0.0011096287,0.05970748,-0.0061284476,-0.010817021,-0.0059413426,0.02982476,-0.011681894,0.014386241,0.003889053,0.032355756,-0.033662777,-0.008299133,-0.024739675,-0.016026422,-0.023590136,0.0052964645,0.015533419,0.019268572,0.009115155,-0.013171412,0.0073567014,-0.022547003,0.011576137,0.018688543,-0.011412061,0.03240903,0.022197396,0.05317778,-0.07920424,-0.05603907,-0.031407952,0.042261656,0.01416981,-0.0084001245,-0.044646975,-0.07089575,0.017280063,-0.030095708,-0.006973887,0.02920504,-0.0004297825,-0.013307275,-0.008545986,-0.022060951,-0.04039819,0.019742465,-0.03820219,0.07900864,-0.0014118536,0.016489806,0.014369363,0.012279988,0.004195401,-0.004250968,0.041290846,0.0174587,-0.032997906,0.048431303,0.02910009,-0.010816792,0.035415914,-0.05663359,0.05133795,-0.05984301,0.06731596,-0.083164185,-0.004774375,0.013141333,-0.0011194297,-0.022494895,0.00087639707,-0.0076413825,-0.020319672,0.020188978,-0.019229194,-0.06617901,0.04398516,-0.022459835,0.051844016,0.01383471,-0.0046036607,-0.005926642,-0.00024313614,-0.06639807,0.008320134,-0.025408305,0.022765474,0.0593178,0.022748776,-0.0052550933,0.010708875,-0.0024905244,-0.03949287,-0.011188763,-0.03520491,0.0054363385,0.016312264,-0.04639204,0.033300098,0.068584956,-0.0004938594,0.0071726064,0.007813935,-0.02470646,0.00044134472,-0.065611824,-0.01871854,0.043075074,0.012198094,0.0034756945,0.025305795,-0.0013464909,-0.010201056,0.034804534,-0.00798674,-0.0022332785,0.00920901,0.0014186128,-0.026219599,0.017901905,0.013721916,-0.030002763,0.0057245283,-0.018639147,-0.015262467,-0.01796017,-0.03580855,-0.02645615,-0.013444342,-0.013488,0.02176827,0.013376584,-0.051073834,0.009312965,-0.061296895,0.0071415687,-0.029814014,0.011919445,-0.01958874,-0.007761994,0.0007785972,0.049356185,-0.02919674,-0.031212445,-0.015034474,0.015134863,-0.04080331,-0.018171404,-0.009719878,0.00832892,-0.025565349,0.009014322,-0.007109695,0.033980373,0.021976896,-0.04221774,0.02733944,-0.049569633,-0.03161488,-0.04701878,-0.038167298,-0.05385689,-0.013796326,0.0103697935,-0.013186121,0.01701764,-0.0035259156,-0.019393757,0.03698529,0.038224973,-0.033653945,-0.0015909385,-0.016952537,0.03822007,-0.025948422,0.051810868,0.019101301,0.014565602,0.031152124,0.055749327,0.050782483,0.00664563,-0.02025653,0.017706119,0.020985778,0.025899142,-0.018981164,0.007085916,-0.006643602,0.0492709,0.030406328,0.0014329912,0.00753576,0.02988043,-0.033718295,-0.0098450985,0.0044182423,0.033844355,0.024709374,-0.053148665,0.017889723,0.030634483,0.0070178057,0.05103716,-0.008671265,0.054681707,0.0035119294,0.0068955044,0.009688387,-0.02297261,0.00056474784,0.026159545,0.07827421,-0.024451494,0.026946645,0.013676476,-0.041386086,0.019875089,-0.018447615,0.04699939,-0.03793967,0.0337467,0.006862923,0.0010733327,-0.0059041344,0.009278117,0.006186363,-0.018741889,-0.013374121,0.044853758,-0.013045182,-0.017874064,0.014607663,0.021255327,-0.016032351,0.027845917,-0.02830227,-0.0020011284,0.013019766,0.04411328,0.0253447,0.00516692,0.034602817,0.018555386,-0.016677514,0.02650443,0.04564926,0.019248448,0.013968689,-0.02772089,-0.005465581,0.057231735,-0.005456728,-0.00020660472,0.035109375,0.005828793,-0.030082,0.064720616,-0.006124634,-0.02187024,0.011843639,-0.00290476,0.017223498,-0.021401089,0.033456933,-0.010336367,0.009236243,-0.0066402247,0.01199557,-0.018906757,0.019358208,0.032735378,0.020726291,-0.029817874,0.04347922,0.027811505,-0.015877174,0.010193103,0.06430423,0.0139232995,-0.022531122,-0.030202083,-0.02723376,-0.025358913,-0.00046558923,0.0079227025,0.026540425,0.0280132,-0.008295143,0.01668538,0.009046975,0.010917741,-0.033208698,0.036239427,-0.003819075,0.021000175,-0.008624681,-0.034089416,0.011235987,-0.040568348,0.021679819,-0.033855293,0.0012434501,-0.006677629,-0.008635401,-0.05494306,0.009553596,-0.0034006513,0.0017987298,0.032580465,0.045502268,-0.0077729095,0.052597653,-0.012127585,-0.010768162,-0.050447363,-0.04579692,-0.034408122,0.005669532,-0.043238625,0.032428585,-0.018423678,-0.021164224,0.018096784,-0.0052787997,0.0009657763,-0.0059791747,0.0025189756,0.026779873,-0.010070445,-0.00032458146,-0.02434815,0.05531519,-0.0004250515,0.05359971,-0.024645938,-0.061524846,-0.031871825,0.012855377,-0.010450971,-0.008467259,0.0011137562,-0.02141626,0.002755703,-0.016750127,-0.020341812,0.0005367057,-0.043898255,-0.027430668,0.018315122,-0.024739264,0.007299363,-0.04175611,-0.00089915696,-0.02472707,-0.020376831,0.00085223746,-0.015978644,0.020290343,0.023130994,-0.0028901862,-0.089425765,0.07507045,-0.018963277,0.041605555,0.0057544596,-0.054761294,-0.016905747,-0.043212917,0.007882672,-0.01857067,-0.016350161,-0.023434633,0.022971414,0.057530154,0.014928797,-0.014930679,-0.043329842,0.006611105,0.010563841,-0.020053217,-0.035418857,0.020471923,0.016369976,-0.0047883494,0.009455048,0.030773135,-0.008900779,0.003431504,-0.013085103,-0.016946267,0.021200277,-0.003626935,0.012174182,-0.06005149,-0.0043344228,-0.025721624,0.005301566,0.028139042,0.030237809,-0.029720865,0.049947172,0.025829904,-0.0035372353,-0.019238647,0.025157416,0.05848796,0.05019116,0.015696285,-0.0720015,0.022524282,-0.04189745,0.04675312,-0.017485835,-0.012025556,0.026904782,0.049163632,0.04303934,-0.0066558146,-0.013904688,0.005767345,-0.020989234,-0.012518956,-0.01228553,-0.0034577225,-0.017954767,0.05859791,0.014975426,0.05675333,0.0132910805,0.006852851,-0.0025122762,0.0050089876,-0.02542468,-0.013981824,0.012847629,-0.045446403,0.024026673,-0.03147901,-0.011477762,0.014597496,0.02871912,-0.010474044,0.00792323,0.026763543,-0.009091818,0.0173382,0.0067548486,0.016477777,-0.02803051,-0.01505718,-0.038689226,-0.046296913,-0.04366461,0.013995533,0.014808453,-0.027948722,-0.018239502,-0.06453462,-0.0009693455,0.01203441,0.039915603,0.008798176,-0.013020315,-0.0043120245,0.049761504,-0.030503739,-0.0019190236,0.008311354,0.0021738023,-0.036338463,0.022028953,0.00918747,-0.017198356,-0.015414794,-0.03313753,-0.0077925003
sub006,0.0056856144,-0.049308833,-0.010280252,0.08465067,0.031790946,0.028697575,0.022174487,-0.004182958,-0.03066279,-0.02343736,0.03257812,-0.03254347,0.042341683,-0.011270107,-0.041401535,0.023596989,-0.04256363,-0.009434551,-0.011870429,-0.048154224,0.00071798585,0.027919218,-0.07361243,-0.1502692,0.036290728,-0.0069560376,-0.024002554,0.042371828,0.008203781,-0.011505909,-0.083461285,0.033026457,-0.052452322,-0.03233598,-0.006822648,-0.01709519,-0.0047851615,-0.031530302,0.020515364,0.053365193,-0.02992925,-0.015570393,0.07497008,0.027671915,-0.011435829,-0.05162367,-0.025580777,-0.000120707045,0.06784755,0.016692162,-0.036192358,-0.016214544,-0.014102269,0.017067555,-0.011764712,0.03490555,-0.005439673,-0.042914417,0.0007518684,-0.03394837,-0.04785717,0.02219747,-0.053910796,0.07974571,-0.0020246909,-0.0022986785,0.03385999,0.07799774,0.01624093,-0.0045231828,0.010789418,0.02017814,-0.014225308,0.009508008,0.026363755,-0.0032152107,0.0447264,-0.04198768,0.04892051,0.019926338,6.1486346e-05,0.018698633,0.046867672,-0.03700637,-0.038174532,0.010493455,0.026439454,-0.034900375,0.025624411,0.02712854,-0.028268596,0.10596625,0.0012494643,-0.041121937,-0.004514709,-0.0013342616,-0.023103701,-0.043487705,-0.008116205,-0.00739504,-0.022256177,0.027002297,-0.05346417,-0.008890273,-0.016654124,0.048746284,-0.06865996,0.05402363,-0.0059306924,-0.018349698,0.026873263,0.009435659,-0.0069012493,0.005923508,0.038494084,-0.021015447,-0.025037548,0.02239577,-0.018022723,-0.02678029,0.014191388,0.09267978,-0.0064451965,0.0023608021,-0.050080515,0.0076342234,-0.036986426,-0.005695613,0.0030289483,-0.009431825,0.014997443,0.020049097,-0.026012413,0.023249742,-0.0014542808,0.0037410075,0.026559966,-0.015866004,-0.010551677,-0.0358137,-0.025230056,-0.026066378,0.017902358,-0.057796545,-0.030853353,-0.047437727,-0.016683664,0.034179468,0.017669093,-0.03799325,-0.009059112,0.040207833,-0.01581023,0.014146381,0.029359013,-0.03372406,0.0077590425,0.0036242595,0.061642524,-0.008912208,0.0025112336,-0.005415195,0.011544706,-0.048818976,-0.0091001745,-0.0074444343,-0.05155022,-0.040332016,-0.027659204,0.018498005,-0.045030806,0.024093136,0.030491607,0.022379022,0.001118556,0.0029169694,-0.044012856,-0.025137987,-0.011375359,-0.010981959,0.009223351,-0.0094512,-0.005997715,0.0043477104,-0.019321017,-0.015454061,0.021435581,0.030222995,0.01154374,-0.05182339,-0.07107747,0.008324946,0.030658828,0.004329605,0.011761769,-0.011026901,0.03344286,-0.033334494,-0.0079043405,-0.011117058,-0.020036737,-0.036220957,0.03148415,0.03300091,-0.018813139,-0.032067142,-0.020728806,0.018829023,-0.0014513066,0.008217572,-0.006651956,0.047625344,-0.008565286,-0.01951815,-0.016470768,0.003867925,0.029863501,-0.010117431,-0.036056135,-0.025775895,0.041942026,-0.022191,-0.017487124,0.017658599,-0.04655829,-0.01617403,0.004003259,0.026427511,-0.023832718,0.015757404,-0.004172588,-0.009770911,0.009389449,-0.0055963593,0.052976407,0.031985145,0.022829333,0.025174836,0.009393867,-0.036770344,0.018421916,-0.013237155,0.011211848,-0.0052376133,0.012262899,0.035446484,0.012242024,-0.030031053,-0.018049618,-0.033695746,0.04296394,-0.102008305,-0.00036435912,-0.01122015,-0.009657881,0.026807174,-0.016988914,0.047641464,-0.028302455,0.008788286,-0.027940644,-0.0135922795,-0.043511342,0.009546354,0.10087867,-0.017094122,-0.01889689,0.025760898,-0.016161077,-0.03036864,-0.0863334,-0.019285254,0.0034938175,0.003135877,-0.044367295,-0.021621691,-0.0008009719,0.0075260266,0.032971147,-0.0027051019,-0.041658532,-0.0002311441,-0.015370957,-0.027421273,0.025482228,0.0016106126,0.02247109,0.0072954996,0.005739338,-0.0042787204,0.024049113,-0.010004071,-0.000190045,-0.0058885375,0.025283119,-0.01251042,-0.028240068,0.06155485,-0.017937245,0.010412259,0.10278986,-0.01643363,0.024219636,-0.008517072,-0.05032747,0.021286245,-0.044075854,-0.0130959125,0.02862631,0.032821435,0.06630218,0.008492956,-0.002049764,0.0047376235,-0.058904096,0.032787118,0.02303512,0.010662155,0.014834437,0.07388418,0.011648438,-0.029045323,-0.07602741,0.04204953,0.010526506,0.023342123,0.013274655,-0.009812377,0.009098291,-0.0765147,0.019623943,-0.01785396,0.010690563,0.036976893,-0.008909924,0.03340676,0.0017050739,0.04632534,0.0035276166,-0.0014745316,-0.0055520646,0.035857826,0.0025958947,-0.05910763,-0.035009447,-0.015455676,0.023653433,0.023860637,0.025796298,0.012639377,0.06051589,-0.017761368,0.033506006,-0.0009781967,-0.05211647,-0.050524823,-0.024429591,-0.028871914,-0.0017547299,0.046909083,0.003819395,-0.057193503,0.014032989,-0.088320896,-0.061979372,0.0039150775,-0.016964054,-0.04500368,0.023401557,-0.024969762,-0.048293967,0.028359145,0.038829546,-0.011474756,-0.029924486,-0.0176662,-0.012332885,0.033664823,-0.055693865,-0.009104494,0.02802055,-0.017956251,0.016816014,0.020294031,0.018184107,-0.0121238055,-0.0155349,-0.06378557,-0.034956753,0.027056286,0.05706414,-3.0734296e-05,-0.008238315,-0.015078637,0.01364222,-0.032050434,-0.123021655,-0.049826875,-0.013866134,-0.037815697,-0.018455215,-0.0169889,-0.053648725,0.0071700993,0.0027087806,-0.0047106226,0.0014277826,0.0046693482,0.002621145,-0.013813731,0.029777147,0.019346995,0.008099461,0.024440156,0.014251158,0.00071509817,0.10733497,0.00047632158,0.043036353,-0.0037859506,-0.023100438,0.047496513,-0.036410782,-0.012392659,-0.016685663,0.0025549822,-0.04195987,-0.047353208,-0.06241002,0.0118298475,-0.004878695,-0.008226054,0.057052523,0.03600146,0.011905165,0.028593512,5.334002e-05,0.0016074686,-0.009438071,0.025522923,0.00065961573,0.046438195,-0.03900084,-0.0075964103,-0.049066108,0.039486893,0.012124594,-0.0038425375,0.009703803,0.049778596,-0.008213651,-0.01843686,0.011627652,0.023056777,-0.0030853534,0.0039018842,-0.009013245,-0.026551835,-0.0059976494,0.027449401,-0.077565305,0.015865093,-0.028181717,-0.014207641,0.04143236,0.026556615,0.0056720795,-0.016831635,0.039519183,-0.02193075,0.061104838,-0.023010394,0.033856373,-0.0036712717,-0.0011981647,0.037796102,-0.019826926,-0.02251702,-0.022840885,0.045292262,0.021321664,-0.015869392,-0.02094148,-0.010022714,0.027457079,-0.028430255,-0.0066525796,0.027562413,-0.0152848475,0.09610238,0.0104377745,0.04468948,-0.02463768,-0.034673072,0.007534267,0.015431607,0.014177365,-0.021766696,-0.039503843,0.01414805,-0.044511843,0.024993936,0.014543471,0.021272464,-0.009397029,-0.013405928,0.011572422,-0.03807989,0.0019189579,-0.014226027,-0.01793431,-0.03743552,-0.021531414,-0.01897204,-0.04801285,0.06567391,-0.061553184,-0.04460619,0.038265433,0.01944252,0.009896984,0.05358721,0.025176134,-0.0059774555,0.008220049,0.058000576,-0.01924858,-0.054827817,-0.0021409849,0.014676018,0.042370148,-0.008853486,-0.027197605,-0.03156814,0.021796066,-0.020316547,0.05796834,-0.02742143,0.04870132,-0.054659065,0.024622269,-0.027652638,0.011341477,-0.040788103,0.016396513,-0.034514915,0.051479656,-0.012919571,0.08282212,0.015872499,-0.021035587,-0.024333393,0.046428014,-0.009351271,0.033091433,0.013060068,0.002064513,-0.007978795,-0.037540603,-0.03377833,0.010088419,0.00365501,0.030555442,0.024174111,0.052460656,0.005801353,0.034114357,-0.01406816,-0.0014256301,-0.0077865534,0.014889398,-0.04205716,0.018414253,0.04117598,0.072964594,-0.04926468,0.0023215893,-0.03287699,0.018613381,0.021541001,-0.0091039,0.03044984,-0.053546093,0.035820585,-0.07071789,-0.0054293303,0.012169378,0.0012326671,-0.009675216,-0.022429615,0.015922856,-0.038906455,0.03955034,0.008235154,0.026340041,0.020921925,-0.0033077984,-0.0064214976,-0.01350925,-0.0061327824,-0.04370037,0.0537681,-0.010301417,0.014080591,0.015170095,0.02215322,-0.046469267,0.047276367,-0.0049048336,0.028671715,-0.03817307,0.017500438,-0.05931828,-0.034339577,-0.011638976,-0.0097039975,-0.034297515,-0.030591257,0.0119466,-0.008223905,-0.023069965,-0.03160151,-0.014058137,-0.03488368,-0.041661695,0.02411217,0.035113133,-0.021862488,-0.006978557,-0.02035257,-0.05072105,0.00737692,-0.00092098286,-0.03601496,0.062811576,0.0144664515,-0.031274434,-0.008703285,-0.024761282,-0.061351888,0.0016966326,-0.026630575,-0.0041811573,0.0067467825,-0.013827851,0.029559458,0.074281625,-0.032632068,0.042183015,0.005159386,-0.030577375,-0.0043317103,0.0027269758,0.0024324192,0.0037607176,0.022204772,-0.02940015,-5.1026513e-05,-0.011535029,-0.002600388,0.027599994,-0.008266295,0.06894421,-0.009382108,0.040649295,-0.016159227,0.0018776559,0.047470085,0.021037327,0.022464285,-0.010171217,-0.0036494369,-0.039134834,-0.018433353,0.029479995,-0.030391643,-0.026254866,0.01637883,-0.005445817,-0.043410853,-0.02109617,-0.02107044,0.011702355,-0.02133984,-0.025563488,0.0006109172,0.036476456,0.013528296,0.08964847,0.0060292836,-0.049138032,-0.017077494,0.00755654,-0.022280067,0.0006651808,0.0042176135,-0.010516187,0.0088611655,-0.008338309,0.0141187785,0.052010108,0.0065966863,-0.00642968,0.013989979,-0.026115477,-0.055781286,-0.07540708,-0.046391375,-0.026999872,0.029548615,-0.0129970275,0.015401414,-0.021522699,-0.056036156,0.016733162,0.032784477,0.037047125,-0.043454807,-0.022724127,-0.05756892,0.015450742,-0.03876382,0.07218646,-0.006283048,-0.019031733,0.031376306,0.06995571,0.011544002,0.02988299,0.003164577,0.018020779,0.0037975302,0.009853908,0.0058871065,0.020890538,-0.025601307,0.033316363,0.04337295,0.022643885,-0.0037994278,0.034148704,-0.028131071,0.00018708932,-0.019545196,-0.008930329,-0.030138519,-0.01152435,0.027791234,0.04923163,-0.0066224406,0.0046293344,0.0045531807,0.06107169,-0.001926074,0.00924755,-0.031931825,-0.012801525,-0.026098084,-0.021297265,0.10139347,-0.00067018776,-0.040497668,-0.005596895,0.03169898,-0.0025885005,-0.052139826,0.017974952,-0.047816638,-0.0019140434,0.022357516,0.02348879,-0.013025182,0.022653803,0.049963452,0.031959,-0.018446743,0.007310416,-0.029378928,-0.054545928,0.026094122,0.069880776,-0.0025811705,0.052403495,0.0043830136,-0.017055236,0.013002943,0.05228727,0.018493004,-0.019151978,0.059316397,0.027552566,-0.01339497,0.011420555,0.05935819,0.026964884,0.017801888,-0.028363412,0.01887477,0.012222101,0.040488873,0.040865682,0.032986224,0.051502816,-0.0013949666,0.019805796,0.02637303,0.033408027,0.009552031,0.031501237,0.023144245,-0.015487867,0.012729982,0.0003796256,0.033782534,-0.0014385872,0.0028981096,-0.010322664,0.02722531,0.013065436,0.03457877,-0.029955823,0.03863511,-0.004548537,0.010509542,0.028288273,0.06594655,0.02184122,0.022296632,-0.017412305,-0.0425424,-0.009089684,0.031538997,-0.026861899,0.028061202,0.03788103,0.048629507,-0.018229496,-0.024537392,0.006071181,-0.018522318,-0.0049124868,-0.027698055,-0.002384313,0.004836567,-0.019332552,-0.022024512,-0.011828407,0.026748462,-0.01176051,-0.006809116,-0.001949222,-0.021457305,-0.03207347,0.015713833,-0.010689103,0.016936624,0.050568335,0.04140693,-0.017159244,-0.005573983,0.022991221,-0.051824912,-0.047206093,0.013637983,-0.03587025,0.017163556,-0.006378509,0.029401042,-0.0052455678,0.014667853,0.014163283,-0.046989974,-0.015864233,0.017480459,0.0031053424,0.039598614,-0.012427685,-0.003952038,-0.00527746,0.029095206,-0.016099185,0.04331679,0.0031958015,-0.060368873,-0.009710155,0.024167063,0.00093533006,0.017101243,0.00680618,-0.025803588,-0.007585457,-0.014105115,0.013001294,0.023204338,-0.025326958,-0.0017827965,-0.009318558,0.0046547526,-0.048555758,-0.02809659,-0.027623367,0.00017036052,-0.03391717,-0.01436437,0.0036614023,0.024389569,0.014836922,0.032028653,-0.059919093,0.017120508,-0.009190402,0.043705717,0.03499922,-0.04027199,-0.012098635,-0.01057228,-0.00831949,-0.01622321,-0.04560225,0.013053221,0.018364415,0.029282272,0.032570776,-0.03808506,-0.021530218,0.028976858,0.026551919,-0.0292854,-0.0077243787,0.030363027,0.062375095,0.045617536,-0.006995151,0.011887332,0.041001774,-0.023269458,-0.010113611,-0.009564869,-0.002102834,0.05127262,0.017833263,0.006122028,-0.016937349,0.0139110675,0.018933337,0.007318214,0.05328874,-0.029272264,0.066948876,0.034177136,0.009489014,-0.0010046447,0.055491317,0.022203747,0.036578797,-0.010089978,-0.06561914,0.042968906,0.0015228796,0.015891174,-0.02234084,-0.021775473,-0.0062896227,0.0011736845,0.047388844,-0.021263117,0.017392527,0.0072189183,-0.023989923,0.027113924,-0.002753872,0.022333976,-0.0005975976,0.0101198135,-0.014736243,0.0037090115,-8.378838e-05,0.0019421058,-0.030350944,0.0057358197,0.005155218,-0.034765273,0.024470476,-0.03735334,0.012303674,-0.005101319,-0.014576032,-0.034524024,-0.0052657,-0.00086055615,-0.0004936661,0.031192685,-0.008173283,-0.002832853,0.017859532,0.009054843,-0.0068274066,0.0026563662,-0.02332045,-0.04610168,0.005771717,0.0003414173,-0.0067429105,0.0008266709,0.011748905,-0.0027392083,-0.011398782,0.0073859403,0.02782852,-0.010361727,-0.018791536,-0.022856463,0.038493022,-0.0017567284,0.01804572,-0.0005387673,-0.021308733,-0.023749499,0.0031639456,0.02510621,0.01931983,-0.014888049,-0.015538384,-0.017451277
sub007,-0.010900438,-0.049538877,-0.011219656,-0.026309501,-0.000966179,-0.01280718,0.009276404,0.035449352,-0.01744563,0.038187716,0.00037384647,-0.034040138,0.006048172,-0.010310117,-0.047523677,-0.00068336766,0.0065777656,0.001222567,0.10886318,-0.079626955,-0.022053007,0.010600301,-0.051327944,-0.097734965,0.038544163,0.017483993,-0.025374457,0.08747612,0.039539438,-0.054355096,-0.10189445,-0.01271668,-0.082089685,-0.053930283,-0.04857944,-0.014585671,-0.0022584046,0.015007828,0.026508966,0.027957942,-0.040852197,-0.038177084,0.07969381,-0.0063267993,-0.02147719,-0.027361862,0.008970241,0.008857774,0.053324778,0.05648807,-0.004679369,-0.010249064,-0.011723634,0.013490654,-0.03215952,-0.023511028,-0.011267868,-0.043563183,0.0062399446,-0.020276127,-0.07574444,0.07930607,-0.071486175,0.009725396,0.01244637,0.02582537,0.042237498,0.017889012,-0.01685583,0.006326647,0.009477961,0.0114827035,-0.056793626,0.030201191,0.012936942,-0.047177564,0.034086935,-0.051593244,-0.01197797,0.0083901305,0.026847053,-0.019211248,0.032338124,-0.04368238,-0.013321561,0.057115294,0.044329837,0.018916687,0.02425432,0.023499684,-0.05310355,0.07385458,0.0360635,-0.015553683,-0.0093975505,-0.03305387,-0.023387786,-0.06875494,-0.016583987,0.0037410778,-0.00967058,-0.004569377,-0.022079432,-0.0032253219,-0.039412696,0.021953357,-0.06570034,0.03473251,0.030778997,0.007703304,0.030912505,0.016161378,0.005344476,0.015653359,0.02441268,-0.04814823,0.017864997,0.00025240093,-0.04415854,-0.016551523,-0.008917951,0.07342243,0.0011378801,0.00077643455,-0.06921951,0.009311387,-0.055913355,0.0009771435,0.017682137,-0.00784452,-0.011523378,0.035568498,-0.0032155274,-0.01628567,0.00458494,0.02332851,0.0071742353,0.03754299,0.03369227,0.012127521,-0.0023432544,-0.024591712,0.00055182836,-0.019540438,-0.015810804,0.006522199,-0.012299295,-0.021557476,0.048903424,-0.009359067,-0.014315105,0.0005573169,-0.028503558,0.028889796,-0.014002305,0.020092672,-0.024428349,-0.005148018,0.032564074,-0.0040546143,-0.017426986,0.030162048,0.0043046824,-0.052427445,0.0068778447,0.026428593,-0.02893429,-0.014648255,-0.03741164,4.1770876e-05,-0.019197432,0.018619686,0.0009525394,0.030250428,-0.007520951,-0.0177574,-0.070865594,-0.064055465,-0.013006117,0.0042766696,0.024797201,0.0046790745,0.032220762,0.0046572345,-0.00046327055,-0.04294416,-0.004596367,0.027463092,-0.010051795,-0.017594693,-0.034567293,0.002866897,0.0136313345,-0.020896416,-0.009334792,-0.0065860082,0.03590371,-0.03366273,0.022040673,-0.0087416265,-0.04552101,0.03116933,0.018656693,-0.006417619,-0.02983747,-0.026872966,0.023884557,-0.017162569,-0.03304653,-0.02996856,-0.014627641,0.04888561,-0.012153608,0.005534672,-0.01016889,-0.023713395,-0.049093053,0.010856166,0.001799706,0.010200652,0.028291292,0.0013190729,-0.035756223,-0.0061661988,0.0041729202,0.03865955,0.0180554,0.016552487,-0.04543597,-0.0034659277,0.026119549,0.00021294996,0.007464108,0.006835703,0.059631806,0.009485929,0.04117066,0.024369093,-0.0034759953,-0.057576448,0.03129946,-0.012310891,0.00804196,0.0019134249,-0.0010375628,0.014468095,0.004188755,0.038812518,0.013639238,0.05848623,0.04668571,-0.06216752,-0.03276898,-0.006787476,0.02380824,-0.004791582,-0.021537377,0.043279663,-0.0013926958,-0.016868483,0.02004389,-0.016367542,0.031143323,0.029204156,0.071049556,-0.010485561,-0.013955846,0.025122512,-0.02050907,-0.024813237,0.008227533,0.010830965,0.01148904,-0.011635708,-0.023322036,0.0123157585,-0.0098746205,-0.014996101,0.027354,0.030569742,-0.0115272915,0.0035552012,-0.022247005,-0.036689427,0.027534358,0.020730201,-0.0061925286,0.03098186,-0.00924176,0.016036563,-0.029392324,-0.008059817,-0.034429293,0.052613527,0.01766447,-0.0010789558,0.0043075536,0.043596275,-0.032728303,0.01742736,0.04428318,-0.011723421,-0.022942511,-0.03483838,-0.03532741,0.009815929,-0.016928434,-2.8145554e-05,-0.050420295,-0.007103726,0.06428328,-0.0012413096,0.03312024,-0.019539228,-0.057068154,0.024547972,-0.0028296965,0.0399199,0.027331391,-0.0019157085,0.03787766,-0.047234163,-0.025767691,0.017009214,-0.0014772967,0.034710214,0.027144652,-0.018534843,0.04906516,-0.02494448,0.0022701584,0.01968696,-0.028168842,-0.0075118993,-0.006403432,0.011450405,0.016423285,0.047249798,0.008399667,-0.02602624,-0.05403598,0.04389534,-0.04348272,-0.0570855,-0.045565873,-0.056590702,0.048405807,0.061087333,0.0012692228,-0.009590194,0.029130839,-0.010571709,-0.015804408,0.04032159,-0.033572294,0.021489982,-0.02021063,-0.007127453,-0.036062017,-0.031849336,-0.0035289344,-0.0638162,0.039594326,-0.03845561,-0.05520309,0.0049675726,-0.015326109,-0.0068793558,0.02548853,-0.018658979,-0.023897931,0.032681905,0.027069775,0.029568873,0.0127004115,-0.02714693,0.024523987,-0.03223123,0.014566987,-0.052754734,0.00085122365,0.013084785,0.03450383,-0.0026176386,0.035849277,0.013188464,0.04677379,-0.058569714,-0.06799708,0.028874908,0.04886137,-0.03529006,0.024285829,-0.013478235,0.019033086,-0.0032644304,-0.103765376,-0.03338144,-0.0005904175,-0.033332333,-0.07866719,-0.059458334,-0.027719207,0.039408606,-0.013191921,-0.023015609,-0.014613606,0.0687617,-0.010690548,-0.0013581801,0.021619426,0.0028857572,-0.0075903214,0.039925676,0.028024308,0.017870463,0.1579427,-0.00319352,0.0076220264,0.0193989,-0.034420513,-0.024333844,0.0135628125,-0.011720427,0.0062933494,-0.04421988,-0.031224098,-0.006769027,-0.017091025,0.03659659,-0.012993413,0.014752408,-0.038278073,0.005405335,-0.013362461,-0.028181395,0.040923737,0.003744402,-0.0076901847,0.013013937,0.033390354,0.10754786,-0.050061326,0.018368421,0.032601956,-0.0017036205,-0.027982764,-0.063202515,0.024326693,0.01035139,-0.019034898,-0.058156244,-0.015711641,-0.0018197399,0.003039873,-0.053464957,0.023329385,0.019478863,-0.0009948474,0.03968719,-0.06857279,0.0041279267,-0.006808438,-0.02348375,0.022793744,-0.01775422,0.0037121344,-0.022160739,0.0078101787,0.012970884,-0.0015498139,0.022538478,0.03826936,-0.024498252,-0.008777378,0.04031568,-0.031182492,-0.017924858,-0.0038371254,0.0014825551,-0.017065551,-0.01237096,-0.010573388,0.004191244,0.046714105,-0.029895803,0.015144374,0.03228917,-0.0404772,0.0692742,0.06801299,0.0013891078,-0.029625354,-0.011914023,0.01969395,-0.07780238,-0.019357966,-0.053722464,-0.030348843,-0.0074505815,-0.010497625,-0.023620425,0.0036429802,0.024298627,0.004845735,-0.021842457,0.044236552,-0.03011369,0.038811132,-0.009533003,8.9793786e-05,-0.020198645,-0.047375593,-0.03168753,-0.06402913,-0.040116474,-0.018174952,0.0036590972,0.06849156,0.04268442,0.00027768814,0.034852065,0.028073745,-0.011487287,0.06633898,0.06669964,-0.0061251456,-0.07504675,0.004430653,0.028741615,0.026254041,-0.06310938,-0.031589597,-0.0023139347,0.022907343,-0.04784475,0.038908675,0.0074058133,0.02858917,-0.034549188,-0.0066719917,-0.03386691,0.06959345,-0.059999928,-0.046999052,-0.029261375,0.06386817,0.0037929423,0.015344246,0.076748475,0.0005507058,-0.0104275495,0.051763307,-0.01621134,0.05621167,0.0044301804,0.006236231,0.024158908,0.03181072,-0.012907148,-0.030225784,-0.0037300987,0.05522285,0.036005784,0.007675307,-0.015062777,0.0068280944,0.010261642,0.0322311,0.010819946,0.019649185,-0.04788592,0.035349183,-0.00586675,0.051687155,-0.046848934,0.008590487,0.019228147,0.025274783,-0.0143847745,0.007883765,-0.008476966,-0.014146586,-0.0001567093,-0.03252793,0.025460906,0.06558031,-0.019701954,-0.00625072,-0.006697292,0.0012393652,-0.108606465,0.0028289494,0.021458304,-0.039172556,-0.022949556,-0.003072532,-0.014654994,-0.034338854,-0.012320295,-0.023643991,0.024970748,0.017419586,0.015126659,0.007930969,0.05477193,-0.029021224,0.0010025748,-0.032719214,0.039047267,-0.028717777,-0.029309912,-0.035418093,0.026364937,0.005514378,-0.0049298075,0.019805752,0.007604989,-0.0009313585,-0.051475685,0.005273601,-0.03821136,0.0149698835,-0.026610065,0.010693855,0.04516071,0.02019735,-0.03233618,-0.024637165,-0.03132276,-0.08465035,0.0029106906,0.0033791198,-0.026244383,0.027847333,0.022752458,0.018699082,-0.0013002941,-0.011873144,-0.010406995,-0.014432534,0.001946078,0.009409546,-0.01004981,-0.038773626,0.043482576,0.016275128,0.00743903,0.028412122,-0.01349366,0.03824401,0.007278188,-0.0006518911,-0.054820728,-0.03205287,-0.0068804184,-0.022572177,-0.025219196,0.043543678,-0.0071091987,-0.02942158,-0.04450161,0.06226868,-0.015713003,0.0020213514,-0.028386405,0.022707475,0.023352353,0.03446096,0.026585432,0.0021255682,-0.0622033,-0.06762305,0.010671477,0.029831566,-0.036287162,-0.036027916,-0.010929706,-0.04182571,-0.026868194,-0.016177375,0.00077102904,0.04379814,-0.013363272,0.003967972,-0.009942233,0.014828573,0.030716807,0.037630502,-0.012714474,-0.0052809743,-0.019922445,-0.02152188,-0.019248746,-0.030531004,0.020017263,0.026021231,0.030821854,-0.00044474585,0.016747886,0.028235413,0.025586031,-0.05037095,-0.011473385,-0.009727548,-0.037181303,-0.03802699,-0.015010332,0.029292896,0.025551545,0.019139646,0.027075587,0.005337434,-0.06593052,-0.021097802,0.015616473,-0.010365972,0.028230619,-0.011409742,0.0012665311,0.0005294721,-0.048282977,0.021911526,-0.024437584,-0.002831697,0.0045450674,0.035875067,0.051024113,0.012776421,-0.04077312,-0.007390338,0.020936215,0.022533806,-0.05781506,-0.0062612486,-0.022939136,0.031036759,0.056743592,0.0540839,-0.028882701,0.010749038,-0.059478328,-0.008562973,0.008517547,0.0051248767,-0.0046691834,-0.042080987,0.02029749,0.063100815,0.004554258,-0.018384285,-0.022739785,0.03878768,0.017907955,-0.015481465,-0.050425787,-0.051442906,-0.033967964,-0.0064487443,0.04491955,-0.006737734,-0.01374956,0.056478713,0.0046621887,0.022381652,-0.0088788625,0.04565964,-0.03694123,-0.019302005,-0.030591363,0.010750223,0.009541944,0.007539968,0.0515605,-0.0115741175,0.006735345,0.049330037,0.010042866,0.0034390013,-0.01397729,0.018021338,0.052339114,0.03495542,0.0033118036,-0.058332045,0.0040423423,0.027424647,0.014037494,0.00020275111,0.014480626,0.00017216086,0.008169939,-0.025660297,0.043059383,-0.018391423,0.020278819,-0.06040851,0.009449326,-0.015286975,0.022923207,0.014471218,0.033495188,0.019429171,0.0063269413,-0.0040256795,0.0031962523,-0.029830568,0.014552863,-0.028643101,0.01193217,0.027412465,0.036114495,0.021870393,0.029308856,-0.039992616,0.02518731,-0.018491767,0.020931184,0.04036611,0.004020865,-0.006455307,0.017022714,0.014465524,-0.01286791,0.010901255,0.003818878,0.051011227,0.019019479,-0.020787058,0.0029258607,-0.0551286,-0.030600162,-0.0015766883,0.032864906,0.057438325,0.030290019,-0.00068903546,-0.018893244,0.007679213,0.006148551,-0.0034749205,0.01995873,0.0039954796,0.015483018,-0.04531677,0.03204331,-0.02817157,0.027355859,0.00861297,-0.0014869368,0.018275518,-0.014619791,-0.031362448,0.024816295,-0.00416814,0.015203226,0.013741338,0.0160687,0.04060873,-0.015267953,-0.02482959,-0.022814907,0.005905189,-0.026703333,-0.0047122505,-0.034368664,0.008127475,0.050207354,0.03915996,0.0017644876,0.029038358,-0.039138816,-0.041539535,-0.038069632,-0.056331243,0.037400033,-6.0720668e-05,-0.01104751,0.010902378,0.042108603,0.016790833,0.022766443,0.04337253,-0.028486878,-0.007372711,0.016370077,-0.015851121,0.02003011,-0.002857361,0.00089400064,-0.030221343,0.014689117,0.0029268952,-0.0020962523,-0.037038524,-0.04538307,-0.018613182,-0.05271922,0.008312968,-0.067356706,0.023744121,0.016512627,0.007995673,-0.0058736973,0.027313914,0.011502322,0.032805104,-0.0049418225,-0.039555185,-0.0077899504,-0.024656653,0.005335687,0.023687966,-0.040993154,0.005288375,-0.0048677335,-0.07933499,0.003171595,-0.024768062,-0.018067153,0.06553063,0.039562073,0.0039411644,-0.053012285,0.029109119,-0.022614386,0.03546483,-0.03809477,-0.033368845,0.018179849,0.028075604,-0.02194247,0.00012174037,0.003900436,0.012826759,-0.015710456,0.018191691,-0.029920973,-0.016250046,0.028984267,0.03661182,-0.02881054,0.06275729,0.034949794,-0.024912803,-0.01911465,0.02821325,0.024187498,0.07529626,0.013689179,0.024900403,0.008065564,0.039373446,0.014279338,0.024026494,-0.024788545,-0.048796304,0.0073786792,0.04024844,0.0026282377,-0.031765874,0.03779944,-0.004351309,0.029841242,0.025541615,0.006340709,-0.008434536,0.033281326,0.034168523,-0.003642977,0.047637686,0.031434588,0.006010402,0.03347068,0.018713294,-0.015077269,-0.012940972,0.00025968018,-0.03210481,-0.0107382545,0.0016160257,-0.015229094,0.025007717,-0.016611883,0.013287072,-0.006529167,0.02199448,0.005280155,-0.01097739,-0.010402316,0.0198214,0.07392131,-0.01929161,-0.029233983,-0.0036589436,7.295633e-05,0.019661646,-0.0073775128,-0.008923683,-0.007728134,-0.006284121,-0.005080193,0.0048062517,0.005219657,-0.013627714,-0.00066246145,-0.0022496975,-0.023551295,-0.002879245,-0.0048236335,-0.007431775,-0.013577952,0.027528962,0.014558932,-0.008962376,-0.0065535717,0.00913337,-0.0019326742,-0.0152919805,0.024738811,-0.022833629,-0.006978493,-0.026798958,0.021902105
